3749 64
18 0.42544183 -0.09456094 -0.85418904 0.050043095 -0.70227927 -0.65205115 1.0504888 0.111004114 -0.48596853 -0.4447525 0.62683725 0.45725796 -0.05089723 0.6683396 -0.008690765 -0.95930725 1.1932999 -0.37561488 0.6041369 -0.62710774 -0.11621488 -0.066759154 0.2526701 -2.0299387 0.43099913 0.11147619 -0.034573644 0.020664815 -0.047511373 0.3912477 1.1845233 0.93493617 -0.94201046 -1.8374134 -0.48029405 -0.1376606 -0.29691207 0.72900194 1.5419875 1.1300352 -0.8330929 0.082343064 0.34226945 0.46977526 0.3469254 -0.40087795 0.17456917 -1.0608027 -0.033073165 -0.058845825 -1.3670491 0.3223184 0.709558 0.012834922 -0.22432205 -0.20591386 0.24104708 0.5606098 0.47712353 0.19316244 0.5227494 0.21256045 -1.7787141 0.17813033
31 0.3367458 -0.7316141 -0.2606394 -0.39523485 0.6892174 -0.6204563 -0.60544014 0.89131033 0.29691672 -0.27855906 -0.10231841 0.29428 -0.45159343 0.8062543 0.11740577 -0.8308535 1.0357306 -0.33067453 -0.555252 -0.30644616 -0.7686577 0.92707974 0.53304327 -1.9185234 0.05148038 -0.31625718 -0.35721907 -0.57431495 -0.093665935 -0.83901525 -0.83923256 0.8662374 -0.30105123 -2.2862499 -0.82300466 0.16937725 0.697084 -0.32807988 -0.7182332 -0.4077404 0.82837486 -0.7942566 -0.013495235 0.62793714 0.914334 -1.1171715 -0.6766115 0.41510555 0.15000597 -0.39568508 -0.61153275 0.6010878 0.2897964 -0.10811064 0.10832022 -0.6055139 -0.10763764 -0.073538326 0.66156965 1.1789424 0.7242024 -0.43685824 -1.187144 -0.30177292
16 -0.14390132 -0.29118147 -1.0400351 -0.038279466 -0.3666247 -0.10861552 0.6207803 0.8224422 -0.41555253 -0.048784032 1.0775197 0.8039309 0.6297536 0.72214395 0.18006073 -0.3566028 0.7765565 -0.21363933 0.06533597 -0.25965822 0.4394512 -0.0142014995 0.5703639 -1.9677587 0.4848043 0.18258432 -0.052995026 -0.2532382 -0.5195892 0.08590406 1.6472255 0.64220333 -1.1209097 -1.8187486 -0.37238663 -0.667415 -0.37067297 1.0200446 1.3435928 1.1193478 -0.5750728 0.06249818 0.69133455 0.4177858 -0.01953858 -0.19907431 0.060495757 -1.1790488 0.017569967 -0.11632691 -1.2624235 0.5669547 0.36389425 -0.23968837 -0.16578318 -0.21168149 0.0047141043 0.7488683 0.21996395 0.24323197 0.2054014 0.36856595 -1.6315827 0.7841098
1988 -0.09000352 0.56825215 -0.6711716 0.04325266 -0.23498389 -0.7440722 0.7767835 1.3170738 0.41293797 -0.112012886 -0.3824638 1.0894479 0.91081125 -1.0586342 -0.7041934 -0.021158697 0.24112132 0.6626331 0.10927456 2.4833553 -0.2081624 -0.04250043 0.33503646 -0.5267932 -0.5747205 -0.52920896 -0.5897163 0.3891191 -1.0274078 -0.54586935 0.4909138 -0.43619943 0.5547964 -1.3955892 -0.73888624 -0.90883046 -0.15510646 -0.05349554 -0.3823143 0.049773775 -0.27782252 0.7589869 0.044543866 -1.2944366 1.3273355 -0.25295758 0.27342182 -0.4811317 -0.653739 0.41892546 0.10536621 0.25355214 0.4228562 -0.4992711 1.6084714 -0.69338006 -0.09990307 0.502428 -0.39641035 1.1722294 -0.045857985 0.0355412 -0.98274857 0.35273355
3444 0.30243298 1.5075463 -0.87916136 -0.7103081 1.1968354 -0.7173754 0.33090812 0.26349738 -0.027808318 0.15740842 0.1604701 0.937065 0.012255737 -0.15332957 -1.442951 0.5104824 -0.16702308 0.07081843 0.11041466 0.95987195 0.26583502 -0.30114537 -0.18043919 -2.0808477 0.81095177 -0.72308934 -0.41288757 -0.57303905 -0.77674145 0.9854497 0.6177633 -0.119257055 -0.14880301 -0.7973388 0.124728 -0.849474 0.019223884 -0.7544108 -0.49993524 -0.39817283 -0.10024372 0.25427857 -0.0073084757 0.603709 1.9420581 -1.1206747 -1.1053523 0.06467586 0.35282677 0.88471884 -0.35594922 -0.30638996 0.8167128 -0.7619 -0.3439291 -0.2254144 -0.2297372 -0.2519152 -0.43870494 0.5598585 1.235046 0.32348534 -0.71419007 -0.34782395
27 -0.64844084 0.044975385 -0.83253706 0.3315126 -0.387635 0.33025935 -0.16023457 0.36336246 0.93079907 0.62464553 0.7491682 0.19296949 0.78875875 0.98243225 0.6269026 -0.3508414 0.34902385 -0.53330505 -0.74977875 0.4006933 -0.6962257 0.16432959 -0.5934817 -1.8650448 0.40886232 -0.14363036 -0.21683891 -0.4683642 -0.7407137 -0.50815374 -0.5470247 0.5234386 -0.29719585 -1.8569987 -0.53414595 -0.93901026 -0.19210787 -0.770712 -0.61901927 -0.08289365 1.2990427 0.045319352 0.31859815 0.8376236 0.36964107 -0.81944156 -0.718539 0.73304147 0.36217785 -0.2787753 0.3050426 0.69240427 0.34468332 -0.097208954 0.40752265 -0.26187053 -0.57098997 -0.74051046 -0.17507671 0.55843097 1.1456318 -0.22391094 -1.5591323 -0.099663846
1743 0.29852906 0.3819769 0.11389962 0.8074387 -0.30599865 -0.61711925 -1.4714729 0.1291544 0.7126921 -0.5028582 1.6012198 -0.13683015 0.006686507 -0.09668431 -0.14145406 0.046372194 -0.45564666 -0.24581982 -0.43004665 0.8136463 0.33657715 0.59035695 -0.19426633 -1.0671843 0.35061303 -0.5256708 1.0330063 -0.9334821 -0.44416466 -0.5537869 1.1355535 0.5772237 -0.13765953 -0.9340408 -0.049763568 -0.64611566 -0.7385543 -0.41037422 0.31814924 1.1734555 -0.49975744 0.8270348 0.6640706 1.0257572 -0.26049277 -0.7282011 1.0736973 -0.34698117 -0.67840755 0.11587657 0.5704302 0.08416803 1.0531645 0.20291789 -0.7680285 -1.5453212 0.45579228 -0.07369767 -0.866145 0.51297253 0.7726867 1.3337872 -0.77866113 -0.2148825
36 1.3589517 -0.87245756 0.3284777 0.2958367 -0.067524426 -0.98638356 0.04256699 -0.4580076 0.8453203 0.18549654 0.92917275 -0.048380643 0.49186411 -0.60528487 -0.08132995 -0.13340956 0.6983427 0.17967562 -0.027554067 0.65340483 0.10415136 0.17629987 0.9076476 -1.6019095 0.8914997 0.46836093 0.060923632 -0.12312504 0.6362209 -0.35679165 -0.78863275 1.1157001 -1.004578 -1.5638572 -0.86171025 -0.6550601 0.41770294 0.17037542 0.28536558 0.9022912 0.572644 0.37340167 -0.24227583 -0.06367664 1.3218482 -0.2558312 0.7067167 0.41349506 -0.4231668 0.44677758 0.13151632 0.32775426 1.2722292 0.42965144 -0.31147417 -1.6842439 0.120527625 0.18471587 1.0148149 0.40954775 0.65298116 -0.102334276 -0.642291 -1.2322056
3351 0.74368054 0.18615395 -1.8430076 1.1757076 -0.69505745 -0.04416974 -0.3995774 0.5905366 0.9075819 0.012028286 1.5439005 -0.44405848 0.56123126 -0.5504606 0.2666517 0.8061779 0.32199305 0.76917696 0.06318983 0.32814303 0.40403834 0.40166005 -0.29398277 -1.4737537 -0.29036856 -0.71648765 0.8694157 -0.23531872 0.39351198 -0.08561652 0.083734736 0.3086766 -0.038956728 -0.9829395 0.43322322 -0.5011486 -0.3286901 0.5885743 1.2639136 1.7040428 0.40305135 0.5918857 0.42137408 -1.0802939 1.1869531 -0.50778043 0.11248992 -0.8721934 -1.0653304 0.38918522 -0.245366 0.24367322 0.7366331 0.5776265 1.202655 -0.2835431 0.252361 0.27221772 0.17079331 1.0648857 -0.29374275 -0.004823429 -0.9449152 -0.516403
2004 1.2560301 0.43972915 -0.691764 0.83521783 -0.51661164 0.5650419 0.7197459 -0.25980014 1.6673348 -0.07619652 -0.050617166 0.16727276 -0.2567219 -1.1660885 -1.0749385 0.03176617 0.6273504 -0.15083627 0.18291391 0.40311566 -0.43921745 -0.4503587 -0.8762349 -1.478715 -0.20038845 -0.27871722 -0.59970117 -1.0834241 0.04954495 0.88462126 -0.7866352 1.0791825 0.07194725 -0.76154083 -0.48703414 -0.30522186 -0.50721693 -0.21482842 -0.6620172 -0.049283724 0.79387546 0.981752 0.025786554 0.7973628 1.4185632 -1.3963164 -0.15133588 0.51424605 -0.16361706 0.8473025 -0.36746284 0.07173875 0.08629931 0.3637791 -1.0117344 -1.8194026 -0.07705916 0.2521279 -0.5326997 0.8575765 0.49113908 0.4005733 -1.0056715 -0.6072821
2393 -0.7943755 0.93850493 -0.35592997 0.33371615 0.7272191 -0.08304452 -1.0122544 0.3284376 0.2059739 -0.39718458 0.74905735 -1.3184816 0.30104533 -0.24662574 -0.80188185 0.13422716 -0.0076525803 -0.5588827 -0.18674122 1.2868434 0.85646427 0.23672578 0.08219036 -0.5794248 -0.483416 -0.19512229 0.11336184 -1.5449604 -0.637763 -0.6417949 0.6543267 1.2163328 0.1797392 -1.0649017 -0.94910187 0.11136582 0.08350993 -0.4012442 -0.7238894 0.74288446 -0.1468909 0.57721823 -0.07453488 0.2774126 0.16205008 -0.16873245 -0.4163908 -0.54116243 -1.1711326 0.21916606 -0.11304015 0.5298622 -0.22962534 0.5917989 -0.60808796 -1.1578616 -0.32724032 -0.67990464 -0.9442846 -0.61592084 1.293262 0.21491434 -0.9717561 -0.7073932
21 -0.88823414 0.27598634 0.35288393 0.09157564 -0.26091748 -1.7242923 -1.5036427 -0.24021941 1.1784816 0.2078591 -0.10932414 0.1741524 0.4727191 0.7615883 -0.18545786 0.032710597 0.36268318 0.7523889 0.76300985 0.5930645 -1.1830934 1.1142868 0.1161261 -0.23264544 -0.031746034 -0.0752241 0.42622042 -1.1307365 -0.37582105 -1.5257374 0.18733096 1.0567616 -0.14259495 -1.5928549 -1.0194111 -0.42601034 0.0028647115 -0.6418011 0.2598468 -0.027190842 1.1161034 0.1593475 -0.025694722 -0.3126014 0.4071476 -0.23567994 0.3769538 -0.11892081 -0.9491079 -0.3947569 0.40302485 0.2923303 0.30748153 1.1459239 0.61837673 -1.4019367 -0.41657466 -0.11132901 -0.106483854 1.2088649 0.86145127 -0.21055983 -0.08646854 -0.92635626
772 0.04740634 -1.0851864 -0.7981593 0.3709158 -0.7027532 -0.23420091 -0.8463133 0.51010865 1.620484 -0.09539268 0.116488926 0.87729394 0.115145154 -0.2453413 -0.9499969 -0.9954422 -0.21877784 0.30136093 0.046037782 -0.04405031 0.8616797 0.29944083 1.4933689 -0.5921737 0.65702444 -1.012719 0.57274216 -1.1867777 0.2756615 0.00504048 0.458787 0.77038807 -0.6681624 -0.19835411 -0.88430095 -1.1191251 -0.6324071 0.7082776 1.7684878 0.2972129 -0.332339 0.641685 0.11099263 -0.10346728 -0.5945336 0.7784897 0.39303645 -0.11101583 -0.6018851 0.72424686 -1.1904379 0.016224554 0.37839326 0.46931133 -0.33673555 -0.8200557 0.24383728 0.823219 0.2941055 0.57344574 0.25220037 0.33770838 -0.56159717 0.70297015
2787 0.7636029 -0.4004199 -1.2320819 1.5233252 0.53449154 0.2513592 -0.15104432 0.4354645 0.5243123 0.39648148 0.7354783 0.26150787 0.032098968 -0.08338051 -1.2054484 0.030203866 0.728637 0.19334769 0.50041294 0.31024137 -0.25315395 -1.0714093 -0.026179012 -2.1599164 0.67413616 0.06574742 0.12736383 -1.1250261 0.07349214 0.5435719 -0.83239305 0.076704174 -0.053459495 -1.20083 0.4489075 0.14604129 0.40768278 0.9692535 0.118307546 1.0495908 -0.055827614 0.86474967 0.06798028 -0.9833698 0.59535503 -0.25608 -1.0187837 0.6290527 0.14777258 -0.2412579 -1.0364653 0.22973363 0.2696583 0.6466735 0.18723209 -0.28005365 0.84315985 -0.17835583 0.3762609 1.2280415 0.9663871 0.1254849 -0.35838106 -1.2092626
2657 -0.80185676 0.028013198 -0.36272785 0.28505296 -0.29924163 -0.27655452 0.24751921 0.6439921 0.84484136 0.43186 0.53459924 0.9846505 -0.30195463 -0.6544087 -0.63827044 0.29936406 0.19308448 0.06071079 -0.61716413 0.19544387 0.22211282 1.2276498 0.9196015 -0.011441342 -0.6026659 -0.38779497 -0.38728988 -0.8570339 0.51535475 -1.7307832 0.5351997 0.2976902 -0.35486016 -1.5373985 -1.4747233 -0.9529265 -0.85097605 0.08731665 -0.63367224 0.2652912 -0.66446805 0.40893576 0.95489514 -0.39581692 1.123207 -0.013070584 0.4247611 -0.46834534 0.13370931 0.60687345 0.45877796 0.80827063 1.0561614 -0.38987637 0.5048077 -0.28666738 0.3288624 1.1052287 0.18635772 1.6612728 -0.69370896 -0.31487432 -1.0103576 0.020562354
342 -0.7944167 0.31165263 -0.68877715 0.058889803 -0.18305564 0.30285376 0.6446827 0.3853451 1.225584 -0.35321867 0.017666625 0.05688491 -0.3921766 -1.8308245 -0.80292845 -0.99304295 -0.13057521 0.09481322 0.2610026 0.55997777 0.18411314 0.7459778 0.46073568 -1.0681852 -1.2117285 -0.43521038 -0.7517507 -1.2472936 -0.3174131 -0.714622 -1.0771203 -0.17278369 0.8075656 -1.3399988 -0.80736357 0.73000747 -0.4643882 -0.3640655 -1.2955862 -0.97799087 0.055411868 -0.5076085 -0.7011825 -0.1472089 0.48901454 -1.1365361 -0.24546425 -0.28525314 -0.13379258 0.4289743 -0.30730206 0.7321121 -0.017932229 0.24992634 -0.72639906 -0.4580942 -0.7922161 -0.052502338 -0.6842817 0.16546008 -0.11383143 -0.013544856 -1.5358166 0.55138654
2394 -0.8691268 0.93299985 -0.51081663 0.15068842 0.95756495 -0.6684243 -0.7641027 0.34854537 -0.19798331 -0.6118819 0.81792563 -1.0981652 0.1162768 -0.1547257 -0.94144315 -0.14049296 -0.007798101 -0.45727074 -0.15601738 1.392195 0.86408365 0.1446151 -0.08876662 -0.4315687 -0.17932336 -1.0386726 0.39951333 -1.3760492 -0.76110214 -0.6722303 0.48636422 1.4452589 -0.05339718 -1.0650499 -0.9630752 -0.2706497 -0.14226359 -0.7602069 -1.0499688 0.93583524 -0.30063996 0.5254628 -0.0033195282 0.13512094 0.2573953 -0.33118168 -0.4889632 -0.456826 -1.2590154 -0.016214276 -0.079125 0.8039346 -0.11214077 0.65920556 -0.55366087 -1.3648274 -0.16931964 -0.8615454 -0.26469207 -0.29391557 0.85431105 -0.23764487 -0.7433807 -0.612714
1648 -1.3394471 0.33653018 -1.367001 0.08502319 0.7370625 -0.42613813 -1.0551594 0.87055385 0.47554013 -0.069808 0.09022197 0.617889 0.86411494 -0.020865705 -0.18115442 0.22129142 -0.53717804 -0.31074056 -0.12983276 1.564114 0.5255661 0.546987 -0.019570986 -0.48221144 -0.41017005 -1.074329 0.8494709 -0.603907 0.13016029 -0.041257318 0.41456318 1.4245518 -0.2861439 -1.0536435 -0.5913872 -0.28927368 -0.6040066 -0.41677806 0.29643553 0.25653484 -1.2244269 -0.004040076 -0.2464513 -0.8609639 -0.008752313 -0.4951641 -0.93025917 -0.56864184 -1.0502003 -0.006174541 -0.36043683 0.82246727 0.7232462 0.9758673 -0.33364126 0.3771229 -0.60679847 1.4939425 -1.2794805 -0.38458908 -0.2104201 0.3060139 -1.5648565 0.23073253
124 -0.19081165 0.22249268 0.5308713 1.0301248 -0.53143114 -0.0089225685 -0.43210205 -0.06935942 0.48304528 -0.039524868 0.015400048 -0.1529752 0.00782697 0.63364226 -0.7910953 -0.7998487 -0.8411373 -1.8606539 0.8822784 1.1389621 -0.102232315 0.102828376 -0.41531333 0.32537943 0.18278193 -1.1361411 -0.36062917 -0.9393381 -1.2625602 -0.83333635 -0.38926607 0.5127675 -0.6653384 -1.0440664 0.16433825 -0.4872317 -0.28352383 1.003751 -0.9732518 -0.32505468 0.9815489 0.3755687 0.24678284 0.38096282 1.7331486 0.13790268 -1.0661523 0.21047445 0.40038863 0.26644546 -0.9258427 0.2178911 -0.6172427 -0.13297227 0.022845034 -0.12566604 -0.7019709 0.87317634 0.079967834 0.71614 -0.20640838 -1.1150266 -0.8631862 -1.0843798
34 0.6812752 -1.5859963 -0.52294934 0.5497321 0.2005677 -0.5747935 -0.7781485 0.420092 0.33134806 -0.13977012 0.7294154 0.018672066 0.2731533 -0.35013774 0.3449652 0.060640432 0.054303035 0.33914408 0.1862871 0.34158564 0.12447931 0.124511085 0.59055024 -1.1826432 1.0442648 0.66638654 0.07642691 -0.3538546 0.30884168 -0.80301225 -0.57737017 0.87401474 -1.1705266 -1.4132172 -0.9335662 0.30165702 0.58267397 0.50991535 0.6670664 0.22691365 0.50305474 0.21800545 -0.85313284 -0.28024396 0.48750612 0.08720239 0.026428996 0.499139 -0.63387936 0.28618142 0.035017107 0.3067052 1.226758 0.675353 0.49230984 -1.4652796 -0.13981993 0.00011774343 1.3395323 0.06585001 0.90953666 0.12994707 -1.0561632 -1.2572118
2302 -1.5736183 0.5152946 -0.9062205 0.5570717 0.9243488 0.35303366 -0.910863 0.9947852 0.18595271 0.2566404 0.7523978 -0.14394192 -0.386369 -1.5409356 -1.2361054 0.43725467 -0.7899817 0.018634638 0.30878133 1.1870147 0.86426896 0.5904373 0.2532202 -0.7557666 -0.18390752 -0.5348984 0.00068625336 -0.42469057 0.19549 -0.91966176 -0.27699026 0.25114852 -0.48322794 -1.0336602 -0.78390884 0.7267266 -0.0798566 0.84235454 -0.11745433 0.44999406 -0.22586203 1.2984838 -0.122755535 -1.3998829 0.2636675 0.13950473 -0.12416198 0.24187268 0.3362334 0.2457343 -0.58077466 0.040221002 0.2569413 0.08865989 0.7563511 0.66659117 -0.08291544 1.6384056 -0.4079579 -0.04068352 0.65500015 0.9315621 -1.3124913 -0.11828778
187 0.2898199 -0.1726983 -0.23674339 0.546087 0.34233922 -0.13536525 -0.59915775 0.66783524 1.3913406 0.41490263 0.046545707 -0.4103661 -0.09794833 -1.3909309 -0.9101606 -0.021754822 -0.5385985 -0.123165585 0.62258613 1.3387741 0.09206718 -0.12542732 0.58659494 -1.1436012 -0.35517022 -0.5908048 0.16660859 0.097932816 -0.6146339 -0.03224378 0.40798992 -0.22193243 -0.59785813 -0.19448364 1.0938144 0.49480748 0.4931853 1.1406837 -0.5826116 0.69155395 1.2114753 0.094219975 0.61641335 -0.3105427 1.6769829 -1.1230744 -0.18659581 1.3068105 0.50348043 -0.49665934 -0.22390656 -0.67969185 0.032414295 -0.21100155 0.72581834 0.4289378 -0.054000154 -0.6038412 -0.37232348 0.67523736 1.2104056 0.072752506 -1.2495492 -0.90911686
2187 -0.013936333 0.10845976 -0.734191 0.67281663 0.19601165 0.3071048 -0.8140492 1.6193526 -0.2613678 0.35458255 1.254131 0.4070833 0.51190805 0.84937215 0.06793347 0.31171867 -0.27076024 -0.6184042 0.20978232 1.5970665 -0.486066 0.63829815 -0.10588545 -1.2693018 -0.11326681 -0.30038348 -0.11218129 0.28746158 0.42480087 -1.5046191 0.08899324 1.1018314 0.06893969 -1.3565267 -0.90351295 0.14939341 0.3634328 -0.28386635 0.6071455 0.436844 0.33257318 0.73554945 0.7660875 -0.97683144 -0.6723912 -1.0199478 -0.02774446 0.3897218 0.048188496 -0.07486068 -0.072270505 0.3179943 0.8397508 0.2072122 1.4118344 0.14283754 -0.70578986 -0.13014193 -0.58899915 -0.03740313 0.9877706 0.04114572 -1.8603445 -0.9839168
1118 -0.5389413 1.054913 0.71763724 1.2067993 -0.23302111 0.10017306 0.13017343 0.07291646 0.8054542 -0.6234924 -0.21676964 0.21153383 0.3204513 -1.6978319 -0.031243276 -0.31763646 -0.47860092 -0.024981227 -0.041512895 1.5450257 -0.8700356 -0.46062675 0.5607341 -0.5061876 -0.810206 -0.026042895 -0.69434273 -1.0423034 0.17502978 -0.85086644 0.2576638 0.8438695 -0.18057787 -0.74661857 -0.35878164 -0.5362433 0.40048644 1.0524418 -0.080377445 0.12536302 0.3051149 1.1500423 0.19342035 -1.076134 0.21851838 -0.8185012 0.58445084 0.07403379 -0.55907625 -0.042581595 -0.056485713 0.2565015 0.17771141 -0.18064758 0.2675166 -1.0961107 -0.35425407 0.9925642 -1.4570476 0.84672046 1.2992282 -0.33868822 -1.0976743 0.29776055
2392 0.09038411 -0.2649118 -0.3610386 0.53976446 0.44264546 -0.47694048 -0.43215415 0.054798245 0.92834926 0.17560196 0.663442 -0.3023517 -0.66981035 -0.28386286 -0.046363574 -1.3267713 0.14086142 -1.285513 -0.34634486 0.6030213 -0.10749052 -0.6496502 0.03498057 -0.6795789 -0.4560756 1.1516435 -0.034309916 -0.9816982 0.05888749 0.3245708 0.665373 1.2812527 -1.1286745 -1.2972473 -0.7641683 -0.13747104 0.75812244 0.33102405 -0.31491178 0.7164726 0.3946831 0.18153581 -0.14017993 -0.7537676 0.31349266 -0.060820766 -0.30238727 -0.11941762 1.0247697 0.6279848 -1.0228722 -0.10969349 -0.6707232 0.14523865 0.23344514 -1.5803072 -0.38813773 0.9947448 -0.9381069 0.34784296 0.71948755 0.72199416 0.10906418 -0.9406291
1374 -0.35293114 0.087094195 -0.49457175 0.019764284 0.20274505 -0.31217876 -0.5525471 1.9909656 0.08324021 -0.25065207 0.611015 1.4139435 -0.48693946 0.10614443 -0.01089211 -0.17255452 -0.21910898 0.36458117 0.76837915 0.47784245 1.3071996 0.16477978 1.0927432 -1.1677058 -0.72837025 -0.045179103 0.2223225 0.24098714 -0.8501487 -0.87485075 1.9920818 0.78567904 0.2973735 -0.8840793 0.21121335 -0.006493365 -0.039954547 0.612688 0.4391949 0.054351617 0.02887989 0.18831322 0.996007 -0.6853687 -0.085096195 -0.3992663 -0.43457997 0.34736398 0.5470108 -0.81936777 -0.4577778 -0.6731769 0.01665287 0.21646915 0.5237701 0.065718584 -0.28001744 -0.7824704 -1.1738499 1.4407572 0.3076412 0.33432004 -1.339278 -1.0600392
459 -0.41857162 0.41502386 0.5373989 -0.6522208 0.13938771 -0.24987024 0.054215074 -0.31563047 0.070357144 1.0378809 1.2305354 1.2848287 0.7878436 -0.021118708 -0.53306377 -0.6944938 -1.1210104 0.1961312 0.21788788 1.4332925 0.07863599 -0.06354663 0.31594878 -0.94441366 -0.09923763 -0.9965076 0.71779394 -1.1528146 -1.3864871 -0.27107072 0.9870122 0.43792054 -1.3450477 -1.1246579 0.13861099 -0.36807907 -0.28759405 0.013981689 -0.39070842 -0.86543006 1.2123288 1.1963887 1.1130096 0.15369008 0.21079485 -0.5310171 -0.4450983 0.50050944 0.3588156 -0.019921225 -0.56149095 0.016982129 -0.7834396 0.5865422 -0.470356 0.34525385 -0.5342913 -0.87273294 -0.6595581 0.8541024 0.5955298 0.037318684 -0.30935878 -0.6070789
1339 -0.011360969 0.9823999 -1.3217703 0.03511723 0.22245876 0.13026492 -0.11437249 1.7273035 0.2906831 -0.7624516 0.6403869 0.84773326 -0.2209068 0.022121157 0.7224702 -0.37305364 -0.11308102 0.056446027 0.2723052 0.38034907 -0.117590845 -1.0951909 0.3764174 -1.3924974 1.0145389 -0.5841939 0.20391923 -0.07413488 -0.6463023 -0.118707865 0.84603137 0.41506836 0.74133027 -1.4000534 0.99622023 0.15442605 -0.35579112 0.25826555 0.41908804 -0.10827141 0.95711744 -0.28204238 0.4850396 -0.7588717 1.8468087 -0.07962311 -0.06700966 0.5540942 0.59710747 0.19849157 -0.92498535 -0.9724353 0.8721408 0.5551216 -0.5674445 0.0047332263 -0.09066482 -0.009232303 0.30307266 -0.5552379 0.8181651 -0.7134684 -1.2060072 0.24822994
890 -1.3182884 -0.12774093 -1.2090616 0.32674226 1.16845 -0.019368231 -0.6541715 1.0893664 -0.13720976 0.15714774 0.22782227 0.6980391 -0.16294935 1.0380455 0.07580662 0.10386743 -0.5103894 -0.55238104 -0.56953543 0.82004046 -0.1014209 -0.079510115 0.053985506 -0.78978634 0.37262338 0.76931334 1.0014031 -0.23523617 0.17168462 -0.46816185 0.77328056 1.4214361 -0.26198605 -0.70643425 -0.31725892 0.12512363 -0.21221119 0.032125268 -0.110109255 0.81829697 -0.64606804 0.4827575 -0.15206172 -0.97514987 0.4950425 -0.8807497 0.37307003 -0.39475936 0.45353937 -0.2178233 -0.9826865 0.48261094 -0.7121334 1.3289459 -0.24337386 -0.4522331 -0.22293662 0.3957673 -1.1274449 1.0638977 0.62417597 0.120140515 -1.16989 -1.8691261
445 0.36930215 -1.7914954 -0.7047877 1.013775 0.18444607 0.0058464706 -0.853818 0.39232284 0.66649956 -0.77062553 -0.056050148 0.92730224 -0.26331243 0.5944898 0.43442005 -0.10647265 0.36126167 0.4065277 0.94801164 0.11248211 -0.6565263 0.859483 0.1080963 -0.23256892 0.22863469 -0.07289425 1.189399 -0.6346114 -0.12717539 0.04470253 0.7021321 0.945814 -0.58016413 -1.4018147 -0.050723113 0.23549123 0.0022368478 0.510229 1.0968381 0.9762287 -1.3307654 -0.5652999 0.011988772 0.22094665 0.317169 -0.048647378 0.60756457 -0.108511955 -0.6365259 -0.6933106 -0.8033876 0.037735187 1.7844889 0.8676346 -0.49285477 -0.4355186 -0.39318773 0.81189764 -0.3081025 0.9640918 -0.29142696 1.0053715 -0.7381774 -0.07728219
1647 -1.1208683 0.36469895 -1.1720848 -0.17969856 0.91926086 -0.35960075 -1.1600058 0.862706 0.49265295 0.11133185 0.08450299 0.51442486 0.9245208 -0.056766514 -0.21518198 0.3462609 -0.6578752 -0.37935126 -0.05517276 1.662392 0.6432644 0.45002437 0.16130693 -0.66156733 -0.49979794 -0.9077046 0.8506612 -0.6652066 -0.08453944 0.14944157 0.4356387 1.1136945 -0.034179423 -1.3666345 -0.40130526 -0.23388693 -0.54528797 -0.34791452 0.11285715 0.21071382 -1.0606413 -0.303474 -0.27598003 -1.1184744 0.077772595 -0.4264727 -1.0107157 -0.29561916 -1.0748498 0.07927174 -0.3674667 0.8648611 0.95837575 1.0481253 -0.4783522 0.54758215 -0.35185733 1.2214717 -1.0254488 -0.45056567 -0.20542239 0.36661878 -1.4598864 0.1371264
2876 -0.84330124 0.09159341 -1.5601382 0.5920565 0.1537447 0.42468947 0.5283675 0.73474556 1.0641354 0.39459574 0.40623757 1.1877486 0.123197645 -0.794567 -0.44284898 0.14012967 -0.11706748 1.0687416 -0.04952914 0.59030753 0.568239 0.11412996 -0.42209703 -1.5599391 -0.34176236 -0.050399218 0.7412907 -0.1732765 -0.2916489 -0.32006636 0.8008266 0.5364773 0.10672474 -0.802407 -0.83242935 -0.3380918 0.13535082 1.0272434 0.04542397 -0.41209304 -0.5826615 0.65164053 0.62552136 0.381917 -0.051916245 -1.0157574 -0.3925063 -0.8184877 0.17660259 -0.32123622 -1.1946915 -0.2275543 0.31012484 -0.7462134 1.1713612 0.1890281 0.102910064 0.5175481 -0.8323391 0.755319 -0.6990161 0.04271145 -2.1758358 -0.092357725
604 -0.9990523 -0.2931292 -2.2434907 0.60820127 0.40083218 0.80853695 0.48312977 0.006836745 0.010473457 -0.20242359 0.44547743 1.203362 0.2985069 -0.1880981 -0.85056466 -0.2324519 0.45547333 0.8559563 0.4191874 -0.09952253 1.105512 0.05454577 0.39909413 -0.26463282 0.5993464 -0.6085707 1.3405212 -0.56091714 -0.3367293 0.12055583 0.9622528 0.84069115 -0.28963688 -1.2912195 0.12008058 -0.5000661 0.27549085 0.74797994 1.1066576 0.18115598 -0.99718 0.7429719 1.143274 -0.81075436 -0.16441825 -0.008355253 -0.43474665 -0.16457325 0.36371818 -0.27106082 -1.3928874 -0.10661272 0.20871566 0.28640828 0.55054826 0.6816737 -0.2388994 0.6864175 -0.94723463 0.44167158 -0.2591058 0.2036043 -1.1417377 0.03763275
2220 -1.4316342 -1.0948374 -1.1431179 0.95202494 0.31969234 0.31599542 -0.46889812 -0.8236369 0.19544043 -0.20955989 0.21412794 -1.2984682 0.05574289 -0.2471792 -0.25231147 -0.07370919 -0.63933873 0.2539979 -0.11606641 1.5741322 0.0401571 -0.064089656 -0.17217809 0.4282369 -0.025508668 -0.4527526 0.7249348 -0.78317547 -0.62965494 -1.2460952 0.9699289 0.28013942 -0.2724368 -1.0427793 -0.61547524 -0.17247581 -0.2707783 1.229163 0.3999995 0.3424717 -0.2619769 0.32283586 0.55287606 -0.33175534 0.5490156 0.5843675 -0.5654955 -0.2824095 -0.84292454 -0.27083355 -0.5173898 0.111424044 0.38225684 0.83126265 -1.0691134 0.5918982 -0.7098547 1.800005 -0.5820812 0.5246327 -1.0935205 0.5866729 -0.6962222 -0.9003915
1468 -0.7832538 -0.94413316 -1.0203568 -0.30255955 0.9977975 -0.3344802 -0.45868048 0.88060695 0.47534072 -0.07976883 0.7078974 0.71351326 -0.6919286 0.11161805 -1.535114 0.14476842 1.0962534 0.573689 0.3114847 -0.065693334 0.44488156 0.61326015 0.82844293 -1.4799945 -0.52735233 0.6850017 0.07489367 -0.5447279 -0.51581967 -0.107417405 1.1189419 0.8944608 0.32265687 -1.286028 -0.518682 -0.2819425 -0.62299085 0.4230425 -0.11595249 -0.5028073 -1.0379896 1.0395945 0.9225704 0.9709914 0.6510069 0.22937083 -0.22061144 0.026629385 0.2949515 0.9035499 -0.6397248 -0.22987522 -1.0519301 -0.11451928 -0.32140392 0.1534592 -0.06379345 0.28697598 -0.34856534 0.9505184 0.2964633 1.1287465 -1.129309 -0.044861514
2173 0.7664209 -0.7248756 -1.1630244 -0.7077581 1.0666411 0.76685405 -0.1433186 0.36948794 0.61933875 0.35705686 0.11061366 0.046589356 -1.0658513 0.14650056 -0.7275064 -0.020298416 0.34378436 0.05563131 -0.00012921412 0.63399667 0.3908267 -0.30365524 1.1102208 -1.7849574 0.12485615 0.2838786 0.5601976 -1.0332094 -0.89807814 0.7092702 0.6634129 -0.3643404 0.3351612 -0.85576177 0.298711 0.03807485 0.101777084 0.5479356 -0.02841565 -0.31107873 -1.1539927 -0.1515148 0.6108708 1.5023173 1.7456553 -0.36035863 -1.2554076 -0.85476446 0.11354695 0.12402879 -1.158678 -0.28871933 -0.7504261 0.31337798 -1.2547078 0.36823195 -0.5435558 -0.023933522 -0.3271777 0.16419172 0.049029827 -0.25925735 -1.1518667 0.06952144
1932 -0.34942245 -0.13847388 -1.0138206 0.52145654 1.3462535 0.15738949 -0.2064518 0.26894915 -0.28049472 -0.5668217 -0.14173505 0.09060998 0.15943614 0.28190717 0.11537142 0.7889614 0.73906404 0.48319846 -0.5172166 0.653964 -0.65341073 -0.013380455 0.19989128 -0.83353794 -0.11066441 0.37072548 0.83821833 -1.4966589 -0.08437536 0.6839506 0.3723044 0.9820145 -0.108822614 -1.4497797 -0.11449541 -0.38955268 0.40161833 0.007968449 -0.42826378 0.88103104 -1.0371861 0.50449425 0.69021416 0.5770997 1.5995553 -0.57353616 -0.24909757 -0.39972183 -0.33493155 -0.88389844 -1.558727 0.89937 1.4343487 0.47292447 -0.4953901 -0.656315 -0.27169487 0.6579787 -0.84274936 0.48371786 -0.1345849 0.8893745 0.57974035 -0.63045585
857 -1.0226437 -0.3273976 -1.5764781 0.4271428 0.6272917 -0.32600564 -1.7523441 0.5382067 0.7786403 0.19470276 -0.3706354 0.3613701 -0.21482201 0.116551355 0.342713 0.45956075 -0.8810393 0.6249023 -0.43663108 0.8807133 0.77568704 0.31691575 -0.00466663 -1.2132419 1.0770779 0.566755 0.38374043 -0.6219246 -0.0003064481 -0.81172407 1.5426681 0.38158512 0.57544553 -0.3574939 -1.1898851 0.6470811 -0.2547033 0.25746682 0.8773104 -0.75592965 -0.50360256 0.3512005 0.0007832075 0.9324661 1.4035882 0.6169504 0.031929456 0.5370635 0.3539702 0.14810097 -0.34616855 -1.0348247 0.19599299 0.7046046 0.1453213 -0.85824805 -0.2053298 0.9563911 -0.20207867 -0.12511818 -0.4040499 -0.20867866 0.04804781 0.5811964
1731 -0.06910816 -0.063743174 -1.4924892 1.0344058 -0.9232587 -0.036835697 -0.14152932 0.9108533 1.1816653 -1.1680934 -0.33069956 0.064407244 0.3346934 0.6849651 0.52746177 0.35435212 0.1666955 0.63918215 0.01800298 1.2140123 0.24908566 -0.43357995 0.42342252 -0.26462656 0.343292 0.31500503 0.388809 -1.0690982 -0.7822936 -1.1674304 1.1637806 0.043627474 0.19611573 -0.4086321 -0.7368217 -0.75869644 -0.47308984 0.19923314 0.8612476 0.124197066 -0.2161859 0.4537037 -0.104120195 0.73462105 0.58765554 0.6201122 0.90962875 -0.5172731 -0.44401363 -0.7770421 0.34208667 0.36744848 1.2947507 -0.6137288 0.075320214 -0.3549967 -0.084415965 1.6042079 -0.89968705 0.83351064 -0.013806664 0.3669176 -0.95571095 -0.07875388
1209 -1.0672786 0.28467304 -0.22718264 0.86184096 0.10253691 -0.36584562 -0.06367945 0.5415401 -0.4641953 -0.62709886 0.47382787 0.5856763 -0.30728492 -0.835118 -0.026439996 -0.28560147 -0.89150864 -1.107925 -0.25281286 1.7469257 -0.044809468 0.101081625 0.5775098 -0.029128043 0.07983226 0.7282504 -0.18366368 -1.8034348 -0.08364989 -0.63090515 1.0745125 0.2219606 -0.45454076 -0.73941636 -0.0030137787 0.23546745 -0.0064398446 0.18927135 0.9595927 0.25071642 -0.91208553 1.0880581 0.85635984 -0.16061921 -0.22657505 -0.26121062 1.1443934 -0.8855474 -0.008041326 -0.8409232 -1.3500204 -0.061461024 -0.53314483 -0.52931327 0.411104 0.44779024 -0.47995514 0.37985793 -1.033751 0.2280485 0.43956032 0.50289655 -1.2844769 0.70308024
170 -1.1776958 -0.07018433 -1.3507894 0.18689758 1.1149396 0.13553241 -0.3233078 -0.07306782 0.42062476 -0.37807468 0.6973324 -0.55485356 0.08023838 -0.6670981 -0.8972792 -0.2071284 0.2783293 0.6644749 -0.026588125 0.8049467 0.42378855 -0.3853545 -0.2764609 -0.66587466 0.39342064 -0.31074846 0.66402197 -0.54707956 0.55215114 0.82152295 0.60916066 -0.25102073 0.052417204 -1.3581208 -0.2297026 -0.287077 -0.4391276 0.8037047 0.6572965 -0.15550908 -0.5727921 1.898435 1.400667 0.849526 1.5083495 0.3040595 0.8439114 0.13966143 0.2815101 0.6000498 -1.6236142 -0.6273269 0.57182187 -0.55246663 0.7053447 0.14546429 0.3201794 1.1381618 -0.3947661 0.43273613 1.198168 -0.116820775 -0.20249535 0.11504193
2525 -0.4100032 0.34789637 -1.3675501 1.0755987 0.26582643 -1.1860696 -0.6026959 0.30270734 0.80694 -0.59557736 0.89885163 -0.25096858 0.20373411 0.091724254 0.9739946 0.13053259 -1.1752203 -0.45495418 -1.5321301 0.14917561 -0.14546764 -0.03342849 -0.27456912 -1.4775528 -0.05705509 0.62963206 1.5036811 -1.2939166 -0.079111755 -0.66592485 0.38250905 0.76106733 -0.48595285 -0.14846987 -0.53392756 -0.005556025 -0.35581705 0.29370257 -0.30260724 0.973213 -0.6301253 0.39408895 0.33459175 0.022502143 0.88551813 -0.79869074 -0.050983462 -0.17718169 -0.36759174 0.25012302 -1.1847662 0.6693381 0.19261594 -0.36734536 0.41587603 -0.92969954 0.107523 0.85704744 -0.32523772 -0.06387263 -0.09871928 1.0091808 -0.7254291 -0.004408107
563 -0.45605117 0.05795142 -0.87554 0.08175967 0.33987984 -0.50450873 -0.94295496 0.92296076 1.2867782 0.1087436 0.020694653 0.7218133 0.11130833 0.9240444 -1.0484223 -1.1136025 -1.4535482 0.05950118 -0.05610377 0.6932248 0.42440787 -0.74974483 1.3859526 -0.79275525 -0.22326405 -0.70919955 0.38087282 -0.96854126 0.7530975 0.018692583 0.66449136 1.1268865 -0.14374554 -0.40764636 -0.22578096 0.39595938 -0.48240733 0.40813676 1.3800778 0.732618 -1.1137035 0.020413483 1.3184977 -0.6668114 0.08166971 -0.07255339 0.12340546 0.3741206 -0.23895739 0.22257759 -1.0496207 0.36787143 0.041280136 0.58324635 -0.19863094 0.4412233 0.14500572 -0.16896711 0.6597293 -0.12621717 -0.56352323 0.8236116 -1.1422782 0.5007932
2877 -0.66390556 0.16973165 -1.7258831 0.64721674 0.4753423 0.42605576 0.6466115 0.80558425 1.0986955 0.30924654 0.5535962 0.6523652 0.34967092 -0.83615196 -0.34077135 0.04364454 -0.27252248 1.0343815 -0.07288336 0.6160965 0.42783493 0.12710392 -0.3463654 -1.545407 -0.8620192 -0.04807012 0.8335551 -0.0042485953 -0.47748175 -0.27408525 0.69765234 0.7648387 0.19003557 -0.7465194 -0.6941614 -0.43985304 -0.056759115 1.0368978 0.18966094 -0.28099638 -0.78183925 0.6361511 0.4801993 0.10589754 0.17235114 -0.9754821 -0.3624199 -0.81760997 0.0971325 -0.046914972 -1.451706 0.08348648 0.6614276 -0.7104108 0.70450985 0.23150896 0.53555924 0.7877313 -0.698453 0.43035132 -0.71161693 0.21048571 -1.893485 -0.07157621
605 -0.79303116 -0.52293754 -2.062542 0.3837313 0.5330076 0.9474075 0.39898846 0.21231543 -0.0119511 -0.41407079 0.7455225 1.2018559 0.41851175 -0.0936157 -0.8931038 -0.098314695 0.56386405 0.6348599 0.4407884 -0.071521886 1.2247508 0.33209243 0.36699358 -0.30795366 0.3240167 -0.5852701 1.4358264 -0.559095 -0.46662587 0.2252868 1.028693 0.84238553 -0.41503942 -1.0257554 0.140241 -0.34689516 0.3512178 0.68604976 0.9885584 0.063275464 -1.0006618 0.78334886 1.2381638 -0.5830203 -0.052384533 -0.1935399 -0.5007339 -0.41053802 0.3136185 -0.13461664 -1.5682977 -0.11544196 0.06369402 0.15440667 0.3948774 0.5347982 -0.3792676 0.28396487 -0.8679846 0.33977604 -0.18382746 0.13565949 -1.4392775 -0.0283162
1469 -0.8869975 -0.798591 -0.8254097 -0.4636514 0.9291183 -0.49930155 -0.59283984 0.6273528 0.73969585 0.17404686 0.60915345 0.7141645 -0.6157221 0.0899355 -1.5131527 0.32008696 1.2168983 0.5716067 0.45908612 0.13221666 0.3677136 0.58795035 0.90216744 -1.3891956 -0.4355809 0.8104616 -0.014237859 -1.0653862 -0.3249712 0.06440029 1.0929596 0.8242645 0.48990527 -1.2416599 -0.2494818 -0.1805664 -0.7041377 0.42293975 -0.07622107 -0.61810935 -1.1258105 0.8093017 0.9627403 0.7954225 0.64339757 0.58922213 -0.043031413 0.095201015 0.25048876 0.8770915 -0.7401431 -0.016905932 -1.0546598 0.022362648 -0.35131657 0.12379633 0.042743884 0.16649102 -0.3469671 0.90725666 0.34083486 0.8489766 -1.0110133 -0.27358162
2303 -1.8020172 0.34725386 -0.5596277 0.3114013 1.1082934 0.46469966 -0.8653497 0.71974146 0.31847304 0.33716816 0.559354 0.08782536 -0.45218396 -1.2200613 -1.3191081 0.50553846 -0.8630432 0.012919396 0.36599123 1.283477 0.7936544 0.69575745 0.33437893 -0.7929612 -0.23253733 -0.54582095 0.009489934 -0.5733112 0.3490399 -0.8520135 -0.10265978 0.5851513 -0.7404589 -0.8953925 -0.9862693 0.7714553 0.1591321 0.7533651 -0.24771325 0.14208753 -0.09520553 1.3756293 0.22412582 -1.162925 0.18267234 -0.06402606 -0.08633851 0.33157578 0.5404954 0.37060636 -0.7101176 0.041219003 0.009971202 0.08107027 0.5643427 0.6303716 -0.26982385 1.40543 -0.43047705 0.038759205 0.69879425 0.9529701 -1.3467151 -0.3400693
270 -0.3455345 -0.74198824 -1.4065256 -0.080395915 0.76088303 0.48791772 1.1571378 0.50234413 -0.08182691 0.06870342 0.1937396 -0.47217983 0.9597587 -1.2072433 0.4665576 0.6218579 0.7987901 -0.7152958 -0.4511071 1.2978194 0.02782686 0.37830952 -0.11074281 -1.1965803 0.45263246 -0.75839293 -0.37104258 -0.20284851 -1.4526062 -0.40364376 0.9586298 0.012557602 -1.0911853 -0.7015345 0.45198026 -0.6166132 0.1970622 0.8952306 -0.5109773 0.9635664 0.028357623 0.45706144 -0.64059144 -0.38716736 1.4595357 0.2990028 -0.41030172 0.055163182 0.08229503 -0.0662736 -0.6759114 -0.5093675 0.12088407 -0.1858457 0.32667556 0.261614 -0.4824632 1.4774704 -0.04695996 1.0894974 -0.45675325 -0.578424 -0.71105033 -0.792383
1040 -0.18884158 0.24708906 -1.6252512 1.1448029 -0.024447069 -0.0012559494 1.0381522 1.5913202 0.45418411 -0.68774253 0.20711936 -0.09704729 -0.24609013 -1.2786384 -0.8600197 0.27469054 0.43617958 -0.38068515 0.9184605 0.2071098 0.284397 -0.27151787 -0.19967479 -1.3337618 0.092566706 -0.16446878 0.09835067 -1.4473352 -0.571967 -0.11184889 0.15239847 0.33585283 -0.34328136 -0.7129973 0.72642183 0.45866632 0.053193346 1.5421206 -0.35291392 0.5670492 0.2880892 1.0658474 -0.23285179 -0.7134972 1.0406226 -0.11092908 0.20490721 0.08637327 -0.2074728 -0.8965059 -0.6544354 0.61485815 0.92258674 -0.05562047 0.22662804 -0.01320343 -0.09583629 0.5432007 0.79633075 0.97785175 -0.5534944 1.1562893 -0.7288313 0.14945
1876 -1.6723514 0.06501596 -1.6095358 0.7668877 -0.055384513 -0.5500153 0.20621575 0.85094243 1.198 -1.1115583 0.6180644 0.1684968 -0.27496338 -0.63386834 -0.7604744 -0.6217231 -0.05831203 0.76372993 -0.011525961 1.5598445 0.16024855 0.501829 0.1895618 -0.44191626 0.53248984 -0.19955525 0.34208924 -0.061744403 0.31080085 -1.1655253 1.0091805 -0.065120794 0.2694699 0.062530935 -0.9414912 0.11814925 -0.46909127 0.26778138 0.74039584 1.2399156 0.08611237 0.86635643 -0.30019948 -0.1088768 -0.1139745 0.0041348925 1.4498055 0.459715 -0.10964203 -0.09040774 0.0570225 -0.7235727 1.3683734 0.7606234 0.20537339 -0.6674881 0.28435776 0.7866288 -0.24493128 0.5350283 -0.91552883 0.37707555 -0.6455568 0.27319124
488 -1.1924965 -0.18545835 -1.4894512 0.82989913 0.3494949 -0.026672717 -0.5000268 0.0916094 -0.37053844 0.7843059 0.19760612 0.06383388 -1.0895431 -0.5089855 -0.61547816 0.122657955 -0.4428701 0.6868021 0.6284536 -0.3392217 -0.48914176 0.5954898 0.7914183 -0.9836498 0.5990459 0.49425447 0.43879917 -1.4986275 -0.29241788 -1.0028745 0.6995216 -0.13283437 0.9642745 -0.937378 -0.4724476 0.98494494 -0.22031999 -0.08345327 -0.0015445586 0.075611815 -1.313871 -0.5835116 -0.25235036 -0.46535048 0.4016471 -0.16398418 0.00909182 0.22205137 0.057219993 0.001394019 -0.76877004 0.9478753 0.5573902 0.38994217 -0.41564682 -0.34907204 -0.30600303 0.18281095 -0.5535251 -0.375765 1.2921995 1.0444189 -0.7111236 0.5030838
3029 0.18799329 -0.6590964 -0.8010553 0.35138482 -0.264867 0.44884378 -0.6252987 2.0832345 0.571635 -1.0169204 0.013119768 0.40410027 -0.23863529 -0.3350719 0.7214341 -0.94396245 -0.15878114 0.031104434 0.19565226 0.7999771 0.31544685 -0.5440205 0.7879427 -0.6052838 -0.49606466 -0.3742817 -0.00393622 -0.46388862 -1.4607604 -0.22449401 0.8143244 -0.14319432 -0.1954937 -1.3870015 0.8193539 0.33565858 -0.4866232 0.68395346 -0.019437758 0.8271415 -0.19433779 0.1704837 -0.23358406 -0.41942775 0.30471778 1.0212364 0.83558995 -0.46784717 0.24427934 -0.77818716 -0.7492613 -0.3972174 -0.56799424 -0.17136255 -0.16436903 -0.98038554 0.053419057 0.56715894 0.64478606 0.3954516 0.38589558 -0.30824488 -1.5939232 -0.9078282
889 -1.0600079 -0.091814466 -1.3820986 0.44327644 1.2757355 -0.30147243 -0.5914042 0.98254335 -0.092187606 0.22643805 0.08975682 0.6359027 -0.11003117 0.83892405 0.096097045 0.0863207 -0.5483723 -0.7966998 -0.7120374 1.066021 -0.061534565 -0.4470638 -0.116504565 -0.8199664 0.5402289 0.718306 1.0078768 0.00022391151 0.0422148 -0.18470949 0.7054519 1.6227133 -0.52951497 -0.7734491 -0.33917332 0.012811639 -0.44846228 -0.12235032 -0.012586963 0.71240467 -0.6722492 0.5920914 -0.17343797 -1.080623 0.35266668 -0.9139789 0.03506599 -0.46327633 0.59520924 -0.31226626 -0.97106206 0.3576249 -0.62498486 1.0527227 -0.22442706 -0.33920178 0.053437784 0.60731924 -0.7674922 1.1618718 0.52746236 0.29904333 -1.1678004 -2.0237296
2160 0.48701513 -0.8172231 -1.7470963 1.5528463 -0.45246986 0.043197997 0.13833438 1.3082032 -0.2184323 -0.4080747 -0.54264855 0.93265235 -0.116495185 0.023730712 0.43954405 -0.14247067 -0.52923673 1.0090383 0.4271685 0.1336284 -0.45363906 -0.7029396 0.9005266 -0.8947238 0.3515831 0.53636485 -0.03677883 -0.5820776 -0.8611902 -1.6008447 0.6288751 0.2014151 0.079961956 -0.96622086 0.19941323 -0.99740255 -0.85228145 0.67297554 0.9401367 0.114856295 -0.092141055 0.12098738 -1.4389154 -0.34699 0.71163994 -0.12321602 0.018773712 -0.1941615 -0.19567028 -0.81751835 0.19266915 0.032059763 1.3563114 -0.027722424 -0.19686586 -0.9227466 -0.20524456 0.7202664 0.0057904315 0.91681623 0.80613613 0.04512205 -0.46332166 0.6199406
2008 -1.3490218 -0.9615559 -1.4444381 0.66688734 0.74684685 0.37392986 0.6440008 0.3776411 0.44286126 -0.54193705 0.14813362 -0.5752609 -0.70703685 -0.2926794 -0.886527 -0.24443778 0.7851637 -1.2808213 0.62237746 -0.2422019 0.14221582 1.1564214 0.29213423 -0.4797883 -0.12509535 0.20113404 -0.35401195 -1.477536 -0.99796915 -0.06943208 0.6614874 0.59086347 -0.9118402 -0.065887704 -0.6932795 0.80415225 -0.0401611 0.49436226 -0.8124489 0.17961928 0.11294897 1.2263916 -0.13117868 0.5101789 0.23097786 0.24545257 0.089169316 0.52168113 0.5441499 -0.07620153 -1.1690385 0.052233398 0.046883214 1.2186753 -0.49500778 -0.7396407 0.1617093 0.99060977 0.0726005 0.15716417 0.9418118 -0.42483723 -0.41189608 -0.83532995
146 0.19218984 -1.3850111 -0.8824311 0.31287456 0.46368933 -0.21951991 -0.8387625 1.3490636 0.3310647 -0.29290602 1.0129896 -0.58606446 -0.14464216 0.6918451 -0.46872836 -0.32982337 -0.59179884 -0.8281652 0.23350601 0.26803592 0.41932902 0.07642754 0.8078587 -0.6455013 0.44316456 0.5296176 -0.11575652 -0.64882076 -0.09327587 -0.34280246 -0.8402665 0.489329 -1.5499556 -1.6499219 -0.8479828 0.5455054 0.31931284 0.56445223 0.41315216 -0.5300263 0.8875474 0.50024325 0.5281149 -0.08476334 0.53341603 0.6251703 -0.3465083 0.21774733 -0.3829508 0.06400726 0.37555718 0.64619243 0.45532122 0.34027398 1.0585653 -0.711828 -0.22007383 -0.56734395 1.3143567 0.2212591 1.0204167 0.28900886 -1.2804345 -0.55406165
773 0.15961595 -1.0472106 -0.8229472 0.31002516 -0.71032846 0.111329615 -0.7823158 0.56652665 1.6475539 0.06578458 0.021834314 0.81299484 0.40936193 -0.19357723 -0.8156797 -0.9269733 -0.30773184 0.3565562 0.13361195 -0.109267786 0.6872817 0.23464485 1.6317706 -0.6217531 0.1560671 -0.8955269 0.53236896 -0.9269798 0.21538493 0.104182936 0.5301273 0.8553479 -0.5771148 -0.48482016 -0.93148184 -0.8872416 -0.6099135 0.75464344 1.8393501 0.19025366 -0.11272803 0.7745506 0.27332038 -0.06904873 -0.6317449 0.57507885 0.35418877 -0.038462345 -0.31033748 0.89707035 -0.94683254 -0.06679878 0.23542362 0.38970044 -0.35871372 -0.66466576 -0.011615891 0.64252037 0.36265853 0.5338216 0.45085615 0.24485514 -0.55878395 0.9507312
1041 -0.28268448 0.38765112 -1.5915656 1.0192994 -0.039128173 -0.03457278 1.0108086 1.6739559 0.63979137 -0.8455464 0.13809669 -0.08161787 -0.016310267 -1.1244977 -0.84679073 0.30385616 0.41783458 -0.3375448 0.89750654 0.23977506 0.25837815 -0.04337235 -0.24693215 -1.3098862 0.14407721 -0.15622875 -0.21149212 -1.5196698 -0.5681501 0.026289262 0.11627811 0.36163485 -0.25688118 -0.63858944 0.33125523 0.4659884 0.14433067 1.6747104 -0.28036562 0.66000944 0.18339208 0.7786575 0.009994955 -0.6582298 1.052892 -0.17155012 0.30775836 0.0606826 -0.2873614 -0.95717496 -0.61514235 0.7107136 0.7819439 -0.028403608 0.45482257 0.1341976 -0.0557816 0.68876195 0.7049886 0.84952146 -0.5308659 1.3276911 -0.79788077 0.5422972
274 -0.74834675 -0.6576566 -0.86736107 -0.10397744 0.8756525 0.6525926 -0.040511634 0.6918803 0.76672333 -0.40890175 0.12778637 1.2572927 0.17777227 0.8456278 -0.5034182 -0.60429376 -0.28726298 0.44952235 -0.06514523 0.32444552 -0.08800828 -0.3877972 1.0828938 -1.5160937 -0.1805521 -0.3881461 0.4368805 -1.4277892 -0.9235178 0.13720368 1.2207795 0.094623536 -0.16147244 -0.23452799 0.17201272 0.55862564 -0.2832884 0.95731014 -0.2855998 -0.2727615 -0.44844347 0.99976844 1.1235399 0.36170676 0.2631459 -0.1427891 0.14740565 1.5063357 1.0657886 0.02233492 -1.3817209 0.00392616 -0.45454678 0.2561032 -0.5995148 1.4078782 -0.690058 -0.08262365 -0.54936236 0.68205005 1.1689631 0.20007426 -0.33300847 -0.011352526
3150 0.53419906 -0.21556677 -0.92851895 0.9893158 -0.80342114 -0.2332503 -0.9176827 1.155765 0.41017523 -0.4659728 0.42568126 0.79487336 -0.75146544 0.73052907 -0.31704935 -0.18894129 -0.41488862 0.18849489 0.080278724 0.7986171 0.27458653 -0.32987195 1.4758235 -1.8579468 1.3417451 0.84911203 -0.08022031 -0.28606796 -0.89588064 -0.89074755 1.0138224 -0.7125489 0.7631447 -0.25080228 -0.2635655 0.17867967 0.19201605 1.0308751 0.43424562 0.32755822 -0.067497686 0.9931172 -0.2526128 -0.18486479 0.25277153 0.35012212 0.28629017 0.81076044 0.60978633 0.76796764 -0.29788128 -0.7242963 0.2773952 -0.065877125 0.028434994 -1.5288296 0.002975386 0.23670286 0.28843507 -0.24370727 0.6321314 0.8383606 -0.19619362 -0.37048727
1375 -0.3337495 0.107620925 -0.5936879 0.03461132 0.2766905 -0.11528701 -0.5952418 2.0299087 -0.1476018 -0.030401876 0.57617795 1.3310554 -0.50889945 0.4300528 -0.038797278 -0.009711863 -0.07303506 0.25429615 0.9163275 0.32439968 1.1744535 0.2696463 1.0587498 -0.92727184 -0.7975962 -0.057919 0.026506562 0.020661246 -1.0892174 -0.8337986 1.897914 0.94228774 0.25807196 -1.0259243 -0.028953547 0.1600744 0.14740987 0.6525778 0.5070446 0.0221615 -0.036247443 0.44512275 1.0071701 -0.81098 -0.107700735 -0.10616023 -0.5090537 0.14229482 0.6252694 -0.52427113 -0.5350856 -0.46008873 -0.31312314 0.046538386 1.1132025 -0.08116606 -0.6840322 -0.9109932 -0.95858866 1.4791107 0.48504126 0.2747968 -1.2542529 -1.1718913
2093 0.08235784 0.1324323 -0.701098 -0.18000819 1.7764908 -0.087077975 -0.22085704 0.79736495 0.9277405 -0.56364346 1.7040197 0.10884557 0.12505089 -0.3176895 -0.3652351 0.21386813 -0.79967034 -0.28045958 -0.2544716 0.63614833 0.8537531 -0.21148376 0.013665495 -0.9019015 0.3814106 -0.84288013 0.6963643 -0.98587835 0.04430084 -0.41743663 0.9053458 -0.22324957 -0.87579036 -0.44797915 -0.89746577 0.35154393 -1.0453569 1.2567085 0.43013105 0.32846093 -0.57845306 0.6682795 1.041482 -0.2542594 -0.25961372 0.6054034 0.54424256 0.51452523 0.72666824 -0.43835694 -0.57879806 0.2503568 0.6721163 0.38864878 -0.41500542 0.54398346 -0.14767046 0.952009 0.41172832 0.049703665 0.70027894 1.3523369 -1.3444496 -0.5967876
222 -0.3746053 -0.37731588 -0.8980398 0.77045715 0.45391947 -0.022399202 0.16745545 1.2863611 0.47844136 -0.5743854 -0.22072008 0.7102068 0.15631889 0.32781395 -0.0627377 0.28696498 0.052513905 -0.4674014 -1.0866636 0.70332533 -1.0669948 1.1824468 0.6249653 -1.3884768 0.13292798 0.4183791 -0.066921294 0.103952795 -0.49552628 -1.0095596 -0.14581333 -0.43075427 -0.006955187 -0.69888794 -0.43755427 -0.43827635 -0.39696062 -0.31257755 -0.39142293 0.5212219 0.48402444 0.06887201 -0.5670992 -0.086772785 1.7980666 0.3863545 0.6470041 -0.0315529 -0.25486052 -0.6452068 0.23569554 -0.030030284 1.8019632 0.31081277 1.674655 -0.34264985 0.0022157568 0.57845867 -0.25153828 0.2349386 1.3496814 -0.4539288 -0.22999576 -1.1881891
538 0.85280865 -0.91164404 -0.8751977 1.4215375 0.0070894277 1.0797486 0.07042627 0.31103402 -0.6819186 0.97186655 0.91283995 0.5959514 -0.31737384 -0.18092942 -0.96489936 0.08647973 0.47990033 -1.0105633 -0.2964993 -0.13480122 0.35241395 -0.12815146 0.027307328 -0.91454554 0.7239658 -0.3988927 -0.12701893 -1.0656042 0.33933693 -0.023914468 -0.051646087 -0.38937885 0.15313576 -2.3376403 0.6606039 -0.8135906 -0.83151066 0.057887685 -0.22950947 0.7946736 -0.46251595 0.95037997 1.3251148 -0.51671094 1.0734491 -0.7625243 -0.27572015 0.38860247 0.81317043 -0.19991308 -0.47784844 1.1060091 0.22027935 -0.0380321 -0.5726202 -0.14642394 -0.3818715 0.4688448 0.33129933 0.18456972 -0.050847404 0.07170089 -0.7828453 -0.20640384
2211 -0.51626545 -0.034991577 -1.3192947 0.7977539 -0.24892361 -0.0041379193 -0.6199056 0.12004773 1.1180353 -0.046127364 0.009787665 0.13356905 1.005861 0.04950189 -1.1794581 -0.98131365 -0.8783861 0.14846128 -0.92616993 1.0062147 0.26565027 0.31253293 0.65115374 -0.4817021 -0.63151646 0.34548053 0.3785422 -1.1039667 0.04762173 0.10647674 -0.35017934 1.9102995 -0.25014877 -1.6463696 -0.92053235 -0.3867578 -0.31022137 0.031363603 1.5182445 0.9107779 0.12547441 0.5749528 1.0467862 -0.5102919 0.646718 -0.42158234 0.58363956 -0.52395725 -0.1104881 0.06021046 0.13595928 0.44901067 0.46694505 0.49647275 0.120948665 0.12308539 0.52553874 0.71233857 0.54114175 -0.58190644 -0.111885145 0.22818594 -0.293333 1.6183833
3252 0.6686572 -0.5104517 -0.8530082 1.2397138 1.5246097 0.67612725 -0.5890104 0.06345519 -0.07198321 -0.21224575 0.99397004 -0.37343317 0.17693822 -0.28499794 -1.2417336 -0.39592117 -0.8135907 0.6426643 -0.48782924 0.42259765 -0.36454067 0.14890096 1.6287892 -0.9167888 -0.09716935 0.23637922 0.43703684 -0.36803228 0.21935505 -0.8554131 0.18112248 -0.8688831 -0.65981364 -0.38079688 -0.27554354 -0.030292686 0.07061099 -0.118472815 0.9229278 0.43887383 -0.2830174 0.7714638 0.549481 0.29597577 0.5353729 -1.5049623 0.14856078 0.2687266 0.36910498 0.102848515 -1.2531762 -0.054885186 1.6094667 -0.4679751 -0.22351323 0.2079803 -0.032513704 -0.90034753 -0.028294452 -0.4356023 0.27380684 -0.8737705 -1.314397 -0.4018987
19 0.017162584 -0.17213841 -0.9865337 -0.12794726 -0.35069495 -0.16419874 0.7221864 0.5928705 -0.28324685 -0.15872745 0.89007205 0.58002925 0.35381177 0.71604747 0.25652078 -0.5243115 1.0226966 -0.22518645 -0.125677 -0.34639394 0.07567012 0.022999862 0.52365786 -1.8947868 0.4545054 0.05393232 -0.116509095 -0.041884106 -0.524451 0.26048782 1.3791668 0.63834786 -0.7740616 -1.771147 -0.3749351 -0.34967786 -0.20652458 0.9839687 1.4727271 0.9333886 -0.62375075 0.1920546 0.5399557 0.4308957 0.1636489 -0.19237237 0.15228604 -1.0580479 0.12671907 -0.008934466 -1.3222986 0.48256916 0.16849248 -0.27539513 -0.16016391 -0.17399085 -0.17512974 0.66880596 0.32058614 0.046556786 0.22942619 0.40519238 -1.676442 0.5611802
2037 0.28697056 -0.18880102 -1.182014 0.94086 0.2225808 -0.61530095 -0.6868882 0.56769276 0.5651149 -1.0300034 0.37717158 0.13179453 -1.1314646 0.83080846 -1.2091253 -1.4664842 -0.037826084 -0.39961353 -0.41402394 -0.6132676 -0.42771792 0.40833175 0.32672018 -1.4044443 -0.5240596 0.14992806 -0.2411376 -0.6587312 -0.6409023 -0.46922728 0.3807333 0.21583207 0.8777489 -0.41392824 0.13300343 0.029362408 0.54083735 -0.73246694 0.014863533 -0.26408204 -0.85223085 -0.24659686 0.043258693 0.96122926 1.2475926 -1.2804006 0.24470869 -0.03607225 -0.32497483 0.49651808 -0.9271554 0.24210101 1.3208294 -0.36647433 -0.9156502 -0.843375 -0.17891686 -0.31903017 -0.9201294 0.0016558478 0.2661801 -0.9569975 -1.1862396 -0.18350837
1534 0.40686005 -0.460764 -1.2749954 0.62166905 0.08569109 0.6187683 -1.0867821 0.19129562 0.5573976 -0.7412172 0.6795038 -0.76592267 -0.01121666 1.373878 0.29527324 -0.3786459 0.21645549 -1.2730895 -1.0904813 -0.22466129 0.5860159 0.7021395 0.7317772 -1.1093516 0.2879325 -0.2113361 0.21698593 -1.445663 0.3781477 -0.9358938 0.18036887 0.9572169 -0.0034897008 -1.5997165 -1.4735316 -0.18369192 -0.04680608 -0.29863554 0.42002442 0.348705 0.28120115 -0.2048272 0.2588072 0.5215923 0.46508044 0.6123595 0.61984277 0.25791082 0.05832442 0.26259524 -0.9215029 1.1124254 0.76937693 -0.056580544 0.22345914 0.5220334 -0.7872964 0.42013273 -0.42395392 -0.32315934 0.12877467 0.5638229 -0.996776 -0.61829984
3650 0.5626579 -0.26393953 -0.6670585 0.64001054 0.3159299 -0.71650934 0.045859005 0.19626978 0.6794642 0.014703377 0.18274687 0.29115495 -0.50651914 -0.484091 -0.7340176 0.3572398 0.2032519 0.29860005 1.1500789 0.50375146 -1.3533896 -0.31934977 -0.5243021 -1.0327837 0.36870325 0.4203541 0.7860036 -0.78782153 0.02170471 -0.3806308 -0.5147191 0.3710013 0.0095401155 -1.4992832 -0.39774048 0.40958112 0.11908054 -0.5635577 0.3487532 -0.34565306 -0.2904557 0.38415205 0.10560078 1.2106111 1.074578 -1.1299974 1.146253 -0.24687304 -1.0456715 0.05597899 0.36636215 0.2222867 1.7539272 0.0020032797 0.6748934 -0.4378733 0.027190743 0.6470675 -0.85507005 0.50081164 1.3196857 0.4443169 -2.1820784 0.09398298
307 0.28430045 0.17728959 -0.05817727 1.4993196 -0.3710508 -0.237454 0.37920934 0.5331564 0.76166844 0.074585974 0.6620975 0.66314846 -0.20806815 0.039560232 -1.3307369 -0.86824983 -0.60547745 0.4737033 -0.2951232 1.2697892 -0.5962893 -0.47802737 0.705504 -1.0545055 -0.12750094 -0.013857654 -0.69908434 -1.1175673 0.46761447 -0.82358795 -0.07666389 -0.7749679 -0.5843834 -1.1698297 0.80193686 -0.33056638 0.24099098 0.34362763 0.06472802 0.99370635 -0.6153443 0.35265425 -0.07630888 -0.67685884 1.3121058 -0.10231233 0.48367828 -0.7048053 -0.38790455 -0.18268113 -0.24936679 0.7604328 1.1283263 -0.823508 0.8019444 0.4982094 0.60412306 0.93520653 -0.08134885 0.69314563 -0.08630845 -0.9717517 -1.0264754 0.85791796
2397 -0.002265105 -0.9898639 -1.6644187 -0.28149796 0.12498018 1.4432153 0.23079383 0.439772 -1.2103554 -0.34274745 0.63691586 0.42702493 0.12321712 -0.28723085 -1.4843781 -0.7346944 0.1100837 -1.1609868 0.46642354 0.1538995 1.0484078 0.2944394 1.1098443 -1.1737063 0.4862377 -0.28215006 -0.046162244 -0.4391386 -0.57764614 0.11668666 1.6118478 -0.4230239 -1.3153967 -0.98017675 0.3179319 0.30814603 -0.38149387 0.5581083 0.8946374 0.09978515 0.45645237 0.61134994 0.09796053 0.17523108 0.579543 0.37863356 0.34387594 -0.02993905 0.7784803 0.55478686 -0.6276771 -0.18521878 -0.39336243 -0.13172838 0.26546934 -0.38394722 -1.4511292 -0.023185484 -0.10888189 -0.593556 0.33594358 -0.6317359 -0.35375047 0.13244334
33 0.44537038 -1.6911106 -1.1548634 0.22268583 0.39268112 -0.2814127 -0.7483419 0.941636 0.09080064 -0.2985602 0.63146704 -0.08019467 -0.25656304 0.514372 0.10572665 -0.15531306 0.18257706 -0.14590253 0.205477 0.069416925 0.11515541 0.24575903 0.5350677 -0.9988707 0.6065903 0.56422836 0.06727486 -0.16941653 0.28291622 -0.7258373 -0.79922396 0.9296966 -1.296478 -1.7579057 -0.93806595 0.36675468 0.7760551 0.45155132 0.32960963 -0.18090643 0.86631393 0.2172338 -0.44951248 -0.29700187 0.7001492 0.37407267 -0.60785663 -0.06337088 -0.5593419 0.1318127 0.036692627 0.39186525 0.5448372 0.3580593 0.7706836 -1.1088063 -0.20472454 -0.14688767 1.155768 0.44832918 1.0767925 -0.18291721 -1.2813358 -0.9527878
1170 -0.7625379 -0.2384099 -0.71616757 0.80983794 1.274504 -0.21868539 -0.08240664 -0.5403459 0.82269275 -0.16355732 -0.0520495 -0.22834289 -0.9046589 -0.91462135 -0.9821831 0.21714029 0.76985663 0.021465236 -0.32135352 0.3285979 -0.89868116 0.84226876 0.8625913 -0.68801 -0.32248843 0.93871135 0.8981525 -0.8465376 0.94094115 0.0091574695 -0.4565667 -0.22046173 0.05404133 -0.8779827 -0.48354933 0.42545474 0.47152415 -0.32441366 -0.26523584 0.20958467 -0.4632602 0.54451656 0.6629103 0.5353423 1.3539053 -1.0323641 0.18319301 0.16614436 -0.048250757 0.0431226 -1.3999438 0.36963904 1.7546966 0.3049528 0.37343228 -0.45799997 0.18724102 1.1531495 -0.30590177 0.48962313 0.77342784 -0.73739725 -0.745491 -1.2795012
1858 0.3275932 -0.29950765 -0.9271586 -0.07589788 0.46559197 1.4908535 0.94147 0.8583581 0.037479244 -0.15123627 -0.17321025 -0.20368579 -0.024498729 0.6893043 -0.9148852 -0.09322954 0.44892403 -1.2918452 0.7821687 0.8225608 -0.38032597 -0.34453076 1.2469859 -0.8200738 -0.5426582 -0.10313203 -0.3422643 -0.6139873 -1.1888504 -0.59850127 0.5212521 0.2596606 -0.657162 -1.1468414 -1.181854 -0.5312869 -0.9053176 0.9498508 -0.032961562 -0.10055474 -0.12837885 0.107946336 0.04802474 -0.023473362 0.6913469 0.48615986 -0.9445765 -0.41411743 0.71692824 -0.40045556 -1.0105066 0.8439095 -0.28424686 -0.4408122 -0.52800256 -0.12042841 -0.22723027 1.0581765 0.15273112 -0.730022 1.0773424 0.55651206 -0.512304 -0.252457
1817 0.58931583 -0.37422162 -0.9591603 0.98950034 0.28849503 0.26809016 -0.478545 -0.09841654 0.6000567 0.58077925 -0.10204913 0.5947218 -0.9227451 0.36004108 -0.39114317 -0.9791846 -1.2247096 -0.8956101 -0.004100864 0.6884402 -0.14147913 -1.0635409 -0.043415003 -1.2537252 0.661874 -0.16751851 0.86741054 -1.3532459 -0.5697515 0.9729835 0.29737735 0.17871569 -0.92641646 -0.7071889 0.31611672 0.4755954 -0.5368663 0.38139507 0.30194888 1.0620065 -0.37102968 0.13954735 0.26093653 0.37542632 -0.22166108 -0.26781926 -0.15023573 1.360455 0.9047013 -0.60132694 -1.7023779 0.40916547 0.3539427 0.67887783 -1.0615206 -0.2954271 -0.18400311 0.6575027 -0.08747012 -0.8292111 0.6907425 0.59726584 -0.78689516 -0.3222644
2788 0.6352575 -0.16282396 -1.035488 1.4633754 0.5883987 0.18384565 -0.15719149 0.3759322 0.611711 0.37832922 0.6495297 0.35989955 0.14247675 0.046519313 -1.3000453 0.17078729 0.8620487 0.20272207 0.49055496 0.35550445 -0.32561436 -1.0092496 0.12599236 -2.1578302 0.5588483 0.09244697 -0.06804074 -1.2355297 -0.13921426 0.54053915 -0.62186956 -0.109330565 0.107026964 -1.354503 0.44042388 0.4166841 0.58341765 1.0390307 -0.05054573 0.9006698 -0.087410964 0.83054125 0.2846694 -0.814003 0.59744036 -0.25476107 -1.1929902 0.8383543 0.013421252 -0.34335217 -1.0216357 0.31230244 0.23770826 0.60168344 0.18181181 -0.37369972 0.7268971 -0.3224406 0.540791 1.1955572 0.8751524 0.2449241 -0.36730593 -1.2362492
3635 0.3852362 -0.43744898 0.0033887846 1.2670634 -0.3091387 0.39557594 -0.86538464 -0.28210035 0.076977715 0.1468467 0.21868303 0.14718819 -0.54958296 0.25525382 -0.9311195 -0.07175877 -0.050100446 0.89567524 0.808649 0.36428365 -0.40649468 0.8499016 0.46178222 -0.437604 -0.43676805 0.64839303 -0.15345043 -1.1795315 -0.006039453 -1.3902277 -0.0026891662 0.60138345 0.19158258 -1.5213579 -1.4637296 0.1630122 -0.59929293 0.2682561 0.7107065 -0.30539066 -0.16507877 -0.25891438 0.517163 1.6754876 0.4981281 -0.8446966 -0.14982155 -0.029962854 0.1637622 -1.0244558 -0.25979063 0.9209752 0.15486766 -0.39539376 -0.6475577 -0.08158317 -0.38359722 0.074488334 -0.3207276 0.16530544 0.6341519 0.41023228 -2.0699604 0.27292383
2884 0.42045453 -1.7097735 -0.91274756 0.6029914 0.43061206 -0.1638936 0.5708314 0.52566975 0.7174166 -0.22381337 1.6766942 0.47759035 0.24616534 -0.42665187 -0.85524595 -0.024683949 0.27560115 0.6090681 -0.1579882 0.1972308 0.301301 0.21977259 1.3066498 -1.60192 0.41482306 -0.08851618 0.0956681 -0.34557655 -0.882104 -0.36570242 0.97533476 -0.61802125 -0.0508326 -0.6967593 -0.3485352 -0.0029793861 -0.046683896 0.9810352 0.6884032 0.32781133 -1.0034078 0.779762 1.3493793 0.87457573 -0.14891796 -0.19366951 0.38552657 0.8124835 0.6773709 0.075832784 -0.42453772 -0.12526745 1.3975443 -0.14429244 -0.47906554 0.5916541 0.42785123 0.52973247 0.5551449 0.8061587 -0.03204844 1.041308 -0.5717599 0.19709864
2656 -0.8377594 0.042094868 -0.028708605 0.18900792 -0.13867785 -0.33376196 0.40238413 0.6384681 0.9796296 0.331156 0.3302715 1.1209221 -0.18797326 -0.6594847 -0.8871612 0.33160898 0.42287722 0.057953183 -0.2899672 0.3392628 0.11714424 1.1459162 0.8750206 0.16245839 -0.6601438 -0.48392144 -0.533961 -0.8990384 0.51911867 -1.5621152 0.589723 0.5907006 -0.3342933 -1.3592438 -1.6399852 -1.0711442 -0.40701884 0.02426143 -0.6535473 0.10905074 -0.50992304 0.4718623 1.2000792 -0.38796568 0.97872525 -0.026800701 0.41420406 -0.019171385 0.22026679 0.59353054 0.43505302 0.89661086 1.1095786 -0.5389828 0.46223012 -0.31388447 0.20948292 1.008307 -0.041349903 1.6692965 -0.6068336 0.25736198 -0.9600848 0.09840254
2094 -0.28144383 -0.13767366 -0.89703363 -0.09755773 1.8083501 0.08279077 -0.45104495 0.88949955 0.47313687 -0.4367171 1.5960202 0.07840957 0.19103491 -0.19699691 -0.57858557 -0.11160056 -0.85831016 -0.2678999 -0.19963038 0.598209 0.5172186 0.1687449 -0.30832142 -0.87530124 0.35141706 -0.5716297 0.6602572 -0.88937104 0.5750225 -0.3045171 0.8407331 -0.091011114 -0.90408057 -0.24883668 -1.0821047 0.4829807 -1.2183205 1.4278178 0.64420563 0.36104393 -0.45464176 0.745475 0.8888721 -0.17743267 -0.3225014 0.20193982 0.5584397 0.45652407 0.71060085 -0.16480888 -0.7987864 0.2926815 0.7176461 0.634386 -0.30493617 0.26393104 -0.16466042 0.8582494 0.3431087 0.24188891 0.76295775 1.3689889 -1.410574 -0.82097906
1340 0.25685865 0.8402729 -1.3553896 -0.03985485 0.29727164 0.1562353 -0.018140808 1.4664458 0.18585561 -0.45748347 0.37521985 1.1859826 -0.16830109 0.15446167 0.9075713 -0.20222312 -0.042626932 0.52646416 0.10357994 0.24950832 -0.18520528 -1.228507 0.50495154 -1.3239468 1.0048299 -0.71627486 0.0706299 -0.16910648 -0.7034546 -0.028168257 0.76382506 0.39188796 0.5902395 -1.7442746 1.0981654 -0.20984685 -0.35803443 0.5380326 0.5077301 -0.021542318 0.9626941 0.050742775 0.6189224 -0.60304075 1.7687291 0.09489372 0.15537027 0.5805206 0.6998155 0.36962909 -0.852322 -0.9321098 0.6327895 0.11742884 -0.46558243 0.3386342 -0.41691184 0.14942124 0.41602838 -0.09469229 0.8981691 -0.64945084 -1.1583208 0.01682966
829 -0.49911496 0.06860137 -0.40601626 0.110922895 0.7016633 -0.22516942 -1.1311212 -0.20166807 0.334634 0.44469446 0.39900878 -0.10561491 0.87649035 0.37406108 -0.41796857 -1.2777765 -1.3386118 -1.0681794 -0.646186 0.40482336 0.09234372 -0.6129302 1.3346957 -1.6951945 -0.14667623 -0.29402333 0.8157698 -1.1724138 -1.0902421 -0.9762506 1.2972137 0.2713455 -0.74917233 -0.81327885 -0.4057473 0.018825598 -0.11624044 0.4895494 0.4154462 0.4354821 0.5813084 0.06145759 -0.21918888 -0.12284506 -0.24759203 0.35330287 -1.0446488 0.3683829 0.15715355 0.3916806 -1.259882 -0.38129967 0.047241192 0.58534914 -1.4311775 -0.7348339 0.2765777 0.013014332 0.2993026 -0.4269112 -0.10919723 0.54253817 0.20093404 -0.43285957
1457 0.25124636 -0.8635761 -1.1508136 0.8201041 0.017434267 0.6947545 0.23917256 0.9468121 1.3066692 -0.31465572 0.28003725 -0.92048705 -0.9054173 -1.9869609 -0.5908666 -1.1070566 0.71539825 -0.18350975 -0.08688889 0.6957468 0.3174553 0.80183667 0.9240542 -0.7537438 -0.2733755 -0.38507348 -0.9912545 -0.84084195 0.27873072 -0.29279587 -0.8102125 0.36082122 0.15338327 -1.3706819 -0.85292536 0.2878722 -0.3461467 0.119646214 -0.077148825 0.19164509 -0.5580099 0.605354 -0.43162546 -0.14196613 0.7265962 -0.4648615 0.56068075 -0.16820289 0.55403316 0.044543903 -0.81726503 0.10286326 0.31845403 -1.0879672 -0.8477003 -0.71189505 0.613893 1.3870997 0.13527432 0.119887896 -0.53320414 -0.30778176 -0.55032027 0.3600724
3716 0.30879983 -0.19623815 -1.0050447 1.1786603 0.9011742 0.27330172 0.101257846 0.16385452 0.90725935 -0.726673 -0.06714419 -0.5757339 -0.7046974 -0.11237467 -0.47838718 -0.050171215 -0.26409888 -1.5293936 -0.4285038 0.29249907 -0.56856155 -0.5703304 1.0689017 -0.55710983 -0.8748494 0.32256877 0.25262365 -1.2444556 0.03421493 -0.3670563 -0.1002482 0.23838335 0.17542665 -1.1029584 0.50863945 1.5165461 -0.04996594 0.17857984 -0.50503296 0.82774997 -0.3889799 -0.062410254 0.66279376 0.3973619 1.2128501 0.01802175 0.6711667 0.90117615 0.15761746 -0.6959252 -1.0506257 0.21361583 1.4310931 0.11247367 0.05606771 0.50073785 -0.36062384 0.36068997 0.048615713 -0.27356762 0.1799767 0.6205572 -0.6628076 -1.2338008
3742 0.9610557 -1.0575037 0.18446785 0.4908098 -0.075886406 0.09137492 -0.78527826 -0.17462109 0.57027936 -0.6073849 0.34254912 -0.06969728 0.6039962 0.6637673 -0.35032445 -0.13694733 0.27728733 0.039629195 1.7941872 0.47505865 0.26018327 1.2275318 0.17292796 -0.5404043 0.3901981 -1.2456716 0.17927447 -1.0363994 -1.0176288 0.23382924 0.27536267 0.63966215 -1.6591566 -0.9022499 -0.48112106 -0.035756677 -0.3194521 1.0379747 1.0158391 0.29179394 -0.001737171 1.2658337 0.054317158 0.8660675 -0.22798584 0.08702623 0.91923463 0.88629806 -0.18732426 0.307937 -0.7759932 -0.62654465 -0.154215 0.9456912 -0.31335494 -0.45783553 -0.46947306 0.06414723 0.9051985 0.85691243 0.5666053 -0.7424547 -0.7103117 -0.26769558
2186 -0.08723922 -0.006928866 -0.8189921 0.60380244 0.14118731 0.40584823 -0.7687632 1.4547367 -0.06101846 0.37659076 1.3555266 0.37794617 0.79831636 0.77321243 0.022444835 0.401706 -0.2865353 -0.52001053 0.083448015 1.6747069 -0.60628814 0.85128725 0.15217958 -1.3257673 -0.08897701 -0.16088279 -0.36205867 0.17453663 0.45305216 -1.4684328 0.03460516 1.0014898 0.13266556 -1.4279869 -0.81838804 0.115084246 0.24503759 -0.08957716 0.73862517 0.3508833 0.6636891 0.56722176 0.9962902 -0.6953054 -0.62110496 -0.7329509 -0.050912783 0.6063123 0.019388663 -0.06638108 0.2521543 0.0899666 0.75092363 0.017542103 1.2770907 0.31181377 -0.94202125 -0.07208956 -0.68331385 -0.29801854 0.91178167 0.33134523 -1.6342446 -0.739281
229 0.5159922 0.363963 -0.79779536 0.34240332 0.4226333 0.1568395 0.1467208 0.3308433 0.6887322 -0.38454175 1.0542264 0.11469644 -0.10912666 0.771526 -1.4695112 0.36869773 -0.06962037 0.026175698 0.5691436 0.42479217 -0.25137126 0.2998257 1.5037304 -1.5456996 0.1285089 0.24662313 0.08705885 -0.52343476 0.23270054 -0.19176467 0.45625362 0.21954568 0.16220386 -0.822078 0.28858238 -0.6810917 -0.21809052 -0.25261015 0.8570634 -0.27223822 0.5838593 1.1693962 1.1600597 1.216679 0.60633177 -0.17990096 0.7343895 0.8990805 -0.20478189 0.32939053 -0.29912984 -0.91283005 1.7507472 0.41249284 0.9290178 -0.15416911 0.119052336 -0.41928086 -0.17267731 -0.6501675 1.3062154 -0.55550075 -0.06760349 -0.2395615
48 -0.07727847 -0.63369054 -0.3876144 1.5473734 0.16098402 1.4614023 -0.9369509 -0.10482363 0.2076598 -0.48591846 -0.7645574 -0.43963477 -0.08055251 0.6178303 -1.1089977 0.26766706 0.28957137 -0.5729966 1.1166303 0.45560628 -0.4199631 0.7326859 0.8352594 -0.24069443 0.19117016 -0.41744402 -0.043622434 -1.6944094 -0.22178428 -0.68844986 0.19799915 1.4012381 -0.030900097 -1.0240731 -0.7977789 0.6819448 0.38660142 0.16997305 -0.018434701 0.38659817 -0.002179115 -0.24204394 0.356415 -0.23724878 0.42510822 -0.05044749 -0.13990717 1.416562 0.22818488 -1.1840489 -0.64655584 0.97325087 1.3163719 0.8106006 -0.11507646 -0.076810785 -0.82929885 0.109727085 -0.32368967 -0.57392895 0.47900292 0.3451661 0.16473472 -0.32052073
1535 0.4076222 -0.3605477 -1.1919724 0.5675534 0.013074335 0.59826416 -0.75846475 0.019025423 0.47973853 -0.6271064 0.69340426 -0.60275024 0.01752964 1.3591654 0.2814251 -0.16163965 0.5759804 -1.1913456 -1.0592519 -0.1755106 0.53583604 0.6491012 0.62751347 -0.94032645 0.331117 -0.22139741 0.21749912 -1.3695765 0.3222488 -0.8616381 0.2588193 0.85912347 -0.17357427 -1.5749319 -1.490032 -0.34424746 -0.21634863 -0.29582435 0.46966705 0.2519187 0.4959674 -0.0032350046 0.33001643 0.8024518 0.5689671 1.0016112 0.78382313 -0.09667535 -0.023906745 0.39858294 -0.7650004 0.8415244 0.78907 -0.05478322 0.14971055 0.24287458 -0.81602997 0.304992 -0.22097056 -0.3586988 0.16341087 0.5634392 -1.1731114 -0.725354
3457 -0.8620176 -0.091597505 -1.309601 0.9359899 -0.11234384 0.04781936 -0.7636516 1.1359102 0.28388053 -1.1369601 -0.23862307 0.42439672 0.42965826 0.25668317 -1.6890504 -0.22605115 0.98603946 -0.2138706 -0.6240796 0.67002535 0.9966965 0.5817046 0.365134 -0.27674016 -0.4133114 -0.3791446 -0.34681037 -0.56802887 -0.29366845 -0.5175654 0.23959424 1.0848337 0.36347106 -0.884991 -1.0754966 -0.3048112 -0.3823885 -0.6613532 -0.54677635 0.7571197 -0.3522341 1.2370089 1.4360541 -0.0062588756 0.66054803 -0.6203438 -0.36912134 -0.12333203 0.22204983 -0.07437125 -0.40761805 0.92384326 0.47739202 -0.29016158 1.3620166 0.5097777 -0.09981706 0.17913352 0.17409934 0.24837439 -0.55051917 -0.08603203 -0.9177911 0.06008816
3491 -0.55749744 -0.04078215 -1.3621727 -0.17014739 -0.16792847 0.42601183 -0.41015548 0.22258215 0.6207036 -0.39583462 0.4838353 0.3104643 0.8093207 0.6365561 -0.32818362 -0.51285857 -0.28623846 -1.4407154 -0.0619817 1.49336 0.544876 0.37632447 -0.1688944 0.1345707 0.100299425 -1.188125 1.1168365 -0.46817204 0.36368287 -0.08114646 0.19089268 1.0313811 -0.3693088 -1.7312187 -1.0642058 -0.34937522 -0.9336374 -0.87598056 0.7592024 0.48262164 -0.32020405 0.67831916 0.8199959 0.51318103 0.22582172 0.122294806 1.129573 -0.05452029 -0.35881954 0.1324171 -0.49897996 0.35999924 1.1068958 0.6256094 0.7363426 -0.10783474 -0.334752 1.1800537 -0.9168261 -0.65099204 -0.72255033 -0.13177149 -1.0383031 0.40461737
3042 0.14783052 -0.23657072 -0.47478467 0.7031408 0.23839115 -0.6775779 -1.1872624 0.4786053 1.8970658 -0.22551075 0.11897855 -0.43534663 0.05217261 -0.27504963 0.7427067 -0.018699178 0.9009506 0.39542526 0.0060198694 0.51017416 -0.04341692 0.17498736 -0.6728081 -0.90949064 0.24029973 -1.508238 0.26411518 -0.30383813 -0.6950587 -0.53446376 0.48343718 0.8572824 -0.09029999 -1.2944274 0.7627407 -0.17454769 -1.422484 -0.34416443 -0.5815155 1.6981249 -0.52336377 0.13857827 0.43051517 0.6667891 0.24569799 0.20558226 0.046086807 0.5125889 -0.51811695 -0.67747164 -0.27496102 0.11922827 0.55788046 0.7595638 -0.018015053 -0.24963999 0.19574343 0.94449973 0.7122044 0.6376876 -0.36423743 -0.22372098 -1.800962 -1.0021083
1877 -1.4704214 0.071965754 -1.3289814 0.9095347 0.082469426 -0.73065597 0.3967714 0.83458763 1.0275909 -1.3241682 0.6285426 0.2851258 -0.21185227 -0.9185635 -0.60062355 -0.4322224 -0.011477346 0.69651526 -0.038855314 1.6217724 0.071809635 0.46069857 0.2410291 -0.5452455 0.5470593 -0.26455668 0.06377085 -0.1977573 0.16900133 -1.1624428 1.0225006 -0.034043718 0.18130083 0.17735597 -1.0111068 0.20476826 -0.2376042 0.3592786 0.47861135 1.2453321 -0.0073042396 0.9515016 -0.34208214 -0.3711305 -0.04395392 -0.04393548 1.459922 0.5379514 -0.2703741 -0.38690224 0.13959603 -0.53116184 1.4401305 0.48459208 0.1659623 -0.6260026 0.038329676 0.7172936 -0.112121694 0.94624317 -0.98213214 0.390294 -0.43674272 0.3024504
1744 0.29520825 0.41562986 0.17299889 0.6818767 -0.19152908 -0.6958832 -1.4475576 0.013668518 0.7076679 -0.33576468 1.9805132 -0.058198597 0.08974216 0.037428595 -0.42384243 0.12640893 -0.44769523 -0.29134032 -0.49360198 0.74194545 0.48872444 0.59335446 -0.17643823 -1.2598623 0.5258724 -0.7128352 0.9715544 -0.95517176 -0.33067843 -0.3881235 1.1274934 0.25302675 -0.17166987 -0.86851394 0.2790381 -0.6851484 -0.6421753 -0.50159675 0.46520478 1.0584124 -0.28131875 0.63535655 1.3399674 1.0244656 -0.1219206 -0.9030407 0.9607643 -0.2666706 -0.586786 0.15722895 0.36551613 -0.027893862 0.8714463 0.09606771 -0.5511952 -1.4034923 0.57953054 -0.40050948 -0.8187951 0.23593114 0.89332867 1.0191659 -0.9379886 -0.32428482
2383 -1.2074541 -0.44106576 -0.98180676 0.9763183 0.3321112 0.0010745722 -1.5831101 0.40446138 0.73568535 -0.17882188 0.54506254 0.02393166 -0.52262706 0.51340425 -0.34045428 0.3837046 0.17456222 -0.029450482 -0.79491764 0.7244947 0.46720555 1.0812634 0.8462515 -0.16800697 -0.4485349 -0.07990587 0.71746856 -0.53497183 1.2911942 -0.8212814 0.3184228 1.3009292 0.24862814 -1.5561208 -1.532843 0.16827776 -0.2776311 0.24174958 0.97368884 0.7908422 -0.72567016 0.8281132 0.6518471 -0.13899654 0.2083316 -0.07542595 0.9343739 -0.0015237612 -0.21254312 0.43127573 -0.66450566 0.7188894 0.58180577 0.680162 0.18245645 -0.11768775 -0.07255316 1.4370862 -0.14660968 0.0056576706 -0.2920692 -0.07098454 -1.7160102 -0.4641714
3564 -0.38292167 -0.855161 -0.191241 0.27689597 0.53298414 -0.6128233 -0.049622413 0.40937763 1.0718107 -0.76203746 0.037816 -0.06416916 -0.054423485 -0.96783584 -0.91413456 -0.09371623 1.3027725 -0.7572541 0.718987 0.7654064 -0.4339244 0.91529036 0.3362199 -1.2775657 -0.10954976 -0.2990737 -0.14698821 -0.08151755 -0.23710513 -0.16763484 1.0035876 -0.48795956 -0.8888011 -0.47335264 0.23027952 0.81504446 0.20589538 0.6112173 -1.2283891 0.57857186 0.34118992 0.3488951 -0.00302244 0.8402404 0.6819052 -1.2474431 0.17460935 1.7994599 0.58281 0.020100126 0.03995582 -0.8478621 0.61452556 0.053325657 0.18357348 -0.07249858 -0.7524084 0.21456112 0.4848321 0.4143029 0.8110635 -0.595549 -1.8615425 -0.14591561
2462 -0.4998945 -0.27836025 -1.2628403 0.0020950239 0.42114672 0.113307424 0.53932565 0.6300037 0.9754122 -0.4534587 1.2364199 -0.23321189 -0.120326936 0.12291583 -1.0606116 -0.03309713 -0.4220384 -0.33318222 0.6690039 1.9707623 0.36999083 0.8133977 0.29537603 -0.8719973 0.5958998 -0.81636095 0.32212844 -0.41527095 -1.0378441 -0.68134636 -0.40251973 -0.70268136 -0.23003058 -0.5501949 0.39440835 0.08721956 -0.5119254 -0.7029349 -0.6941229 0.9017243 -0.6298649 0.57095593 -0.97480696 0.2844918 0.38953683 0.19253974 1.3027052 -0.22409368 -0.23357396 0.6473598 0.07571161 -0.9333378 1.368954 0.93717694 1.1633312 -0.024363589 0.075494595 0.6543904 0.41618443 -0.21971945 0.14686793 -1.5829415 -0.47900927 0.48289973
3356 0.88444984 -1.0375731 -1.6397896 1.1594352 0.16895571 -0.13077067 -1.026353 -0.07569705 1.8659099 0.3868216 0.538723 -0.15493557 0.08540143 -0.48367 -0.4581159 -0.270474 0.41400728 1.1620808 0.7824039 0.042891786 -0.3549924 0.08220127 1.1526994 -0.69148374 -0.03240263 -0.16411908 1.4853547 0.15676843 0.11040989 -0.506795 0.9572079 -0.075458564 -0.08485711 -1.0807953 1.0349643 -0.10195634 -0.0109675145 0.14197119 1.0811455 0.77960676 0.22677433 0.4353139 0.32334512 0.14807317 0.7656744 -0.47787136 0.7073819 0.87767494 0.116748095 -0.31277213 0.016432544 -0.42732996 0.7659865 0.21535516 0.5315569 -0.2261161 0.1671754 -0.19038314 0.035966188 0.12440428 0.48583132 -0.46484244 -0.7535211 0.2674737
636 0.10039545 -0.5787682 -0.03654103 0.13854538 0.8516181 0.3053217 0.7930486 -0.66295636 1.1802453 0.11009013 0.455876 -0.79167664 0.6941851 -1.254894 -1.2818837 0.0024585577 -0.09048625 -1.2217702 0.95701087 1.5853682 -0.072357126 0.17194633 0.4850301 0.059503924 -1.0818354 -0.5667669 0.8812399 -1.3238991 -0.2530604 -0.13813068 0.011973385 -0.5226655 -1.2101837 -0.7448233 -0.33568716 0.03946863 -0.4833043 0.45428032 -0.7159025 0.37382323 -0.17898993 1.0808156 0.9746083 0.44073647 1.495184 0.892726 0.15881181 1.0865064 0.17374286 0.23789562 -0.39316338 0.44412434 0.34299004 0.09571055 -0.13919419 -0.076496065 -0.022682609 0.82387954 -0.14910278 0.013733365 0.4837409 0.06441775 -0.17827179 -0.5844536
444 0.3351613 -1.9318154 -0.91670257 1.2819351 0.1292992 0.07875163 -0.89661634 0.41441324 0.7009719 -0.5760071 -0.10938824 0.5480616 -0.5436544 0.6550668 0.47660953 -0.15336533 0.3602657 0.4614308 0.9117838 -0.032930784 -0.5917827 0.78800535 0.07015027 -0.12428274 0.23118354 0.13934356 1.1691735 -0.7150336 -0.095671766 0.15976298 0.64473444 1.041964 -0.4692249 -1.4461794 0.14831433 0.17801316 -0.020083778 0.466772 1.0741556 1.1415722 -1.3625714 -0.15254855 0.04297511 0.3627867 0.34791678 -0.11384837 0.50124264 -0.23591426 -0.40739572 -0.7297381 -0.9311716 0.07753924 1.3275523 0.7055216 -0.6610323 -0.14942871 -0.377433 1.0320638 -0.233996 1.1114124 -0.37511885 0.9299863 -0.93439716 -0.24909182
2590 0.43113667 -0.37035567 -0.5772694 0.2156651 0.09499726 0.21032234 -0.08278885 0.3042051 1.2801988 -1.140464 0.90851194 -0.34398186 -0.6973682 0.02699883 -0.63045734 0.08396764 1.3055546 -0.669453 -0.030813418 0.25638366 -0.4485439 0.64649427 -0.36436117 -1.4119265 0.021367049 0.06376799 0.39749387 -0.9683949 -0.16457672 -0.16018735 0.3833176 0.76875585 0.11056185 -0.9876145 -0.19040276 0.14903384 -0.51801395 -0.321634 -0.603824 0.7674048 -0.8746849 0.85196424 -0.21260762 1.8621405 0.9740105 -0.41500983 0.9478237 -0.04587011 0.1357978 0.30141005 -0.45656732 -0.15212394 0.5964111 0.09055494 -0.5843535 -1.7607838 0.6038607 1.188922 -0.21035735 0.49644148 0.89732295 -0.19098118 -0.34499496 -0.07827396
2589 0.30053484 -0.29395548 -0.27991214 0.38792077 0.24362655 -0.10751598 -0.5784507 0.49590167 1.5043114 -1.1430386 0.61922234 -0.35619676 -0.6852366 -0.09545833 -0.64954454 0.12222004 1.0621887 -0.59863603 -0.14161451 0.5656077 -0.50350237 0.60266685 -0.3132734 -1.8120025 -0.100653686 0.11804661 0.25036198 -1.0402365 0.12852505 -0.23067723 0.357908 0.98685753 -0.014665063 -0.798077 -0.13437216 0.14965363 -0.50629264 -0.5244851 -0.7468274 0.8066763 -0.9140032 0.98014736 -0.5976487 1.6816318 0.7593959 -0.4278801 0.9406827 -0.018707283 0.25260097 0.41908756 -0.45569924 0.071313836 0.5173563 -0.020125616 -0.6405875 -1.6764122 0.65740633 1.3537166 -0.12577306 0.722729 0.6849244 -0.17666924 -0.2619588 -0.17172559
2934 -0.1499451 -0.2157804 -0.57361937 2.0166142 -0.09696251 1.0082729 -0.793769 0.2562475 0.7372335 0.077049114 0.3918806 -0.28065056 0.151179 -0.41729444 -0.45758292 0.2638163 -0.16422114 -0.20039374 -0.7319857 1.2873827 0.20478332 0.29651928 0.25096864 -0.79306126 -0.64052415 -0.89072466 -0.41792464 -0.60466313 -0.34565732 -1.2752026 0.24020611 0.033869408 0.7657989 -0.7119527 -0.112213776 -0.1820615 0.15516938 0.4966663 -0.11787801 2.0038476 -1.367928 0.9351367 0.29082185 -1.3390439 0.17134978 0.26112255 0.27062774 0.7629953 -0.15345596 -0.3580747 0.005925132 0.50806326 0.2981801 0.017325835 1.338476 -0.08874476 0.1507438 0.73678553 0.002707562 1.1744872 -0.058903966 -0.4596983 -0.97596544 -1.0129042
62 0.34901392 -0.51066214 -0.47854853 1.2905153 -0.09820109 0.3657971 -1.2733552 0.68954766 0.7937975 -0.05769089 0.56522346 0.02391916 -0.790107 -0.56617594 0.77120733 -0.23291107 -1.1336259 -1.0431812 -0.092819735 1.0087069 0.16586538 0.23285528 0.28006163 -0.9841155 0.34121543 -0.12131541 0.97677344 -0.4256111 0.586113 -1.157102 0.28501183 0.6415804 0.30475354 -1.0214124 0.75089824 0.46197587 -0.1601253 -0.28115863 1.1806755 1.2975698 -0.024425605 -0.13701448 -0.63101506 -0.65796214 0.26498973 0.01584851 0.6808405 0.101485945 0.4821474 -0.42882386 0.24386972 0.61580116 -0.5817011 0.8364817 -0.27500585 -0.8660509 -0.49521503 -0.19580685 0.05257676 0.08675099 0.16597849 -0.19279374 -1.6813341 -1.3246845
257 -0.294564 0.018434275 -1.2600057 0.81576765 0.11298747 0.957522 0.4489975 0.13569282 0.75297606 -0.3120716 0.8366936 -1.4045215 -0.36441126 -0.8460033 -0.13185976 0.15681309 -0.14340787 -1.0678635 0.59459156 1.0690007 0.7068252 0.84711087 -0.22752398 0.7781831 -0.051229842 -0.57115436 0.13401191 -0.92906153 0.44150832 -0.06409311 0.44301 -0.17080246 -0.10791728 -1.2701986 0.05995993 -0.011439026 -0.6290587 -0.4042948 0.16723835 0.39701754 -0.13045225 1.5588562 -0.21317956 0.07041436 1.4084996 0.9200901 0.8992005 0.6147046 -0.0851212 -0.23941734 -0.06542422 -0.81217086 0.84778017 0.3754259 0.34054053 -1.1565326 -0.62978405 1.2693801 -0.8616576 0.122909635 -0.1586876 -0.47758082 -0.17030676 -0.60458577
1437 0.7992143 0.2164659 -0.6507742 -0.1729597 -0.06154309 0.6489057 -0.32014856 0.90264803 0.766746 -0.14794512 0.8412753 0.5265366 0.15640835 0.90794265 -0.23892316 0.5387582 0.20323299 -0.25020745 0.3940001 0.45620254 1.2764219 1.0756022 1.245195 -1.5805109 -0.5501595 -0.9381664 1.2895404 -0.008445737 0.054715086 0.22797619 0.7310571 -0.13598344 -0.3740739 -0.7601412 -0.10352715 -0.9746439 -0.9561212 -0.55117524 0.94169265 1.1792891 -0.7956036 0.87309307 0.6477612 0.06531811 0.26342148 -0.43999344 0.6117183 0.26427555 -0.35460266 0.1458546 -0.6595152 0.23263481 1.2066942 0.30050683 0.8493851 -0.10443039 -0.62697136 0.2427634 -0.17384881 -0.11555611 -1.3113264 0.13934983 -0.47585833 0.2062973
1498 0.9090031 -0.35728967 -0.098373964 0.51122737 -0.12928945 0.8071283 -0.06263547 0.8140153 1.0760643 -0.07309361 0.8099281 0.9408799 -0.028357022 -1.8319066 -1.4968764 -0.52884626 -0.3067483 -0.46176633 0.860809 0.8958614 -0.34009793 0.84357893 0.33773142 -1.3164718 -0.50528497 -0.6239525 -0.051267143 -1.167842 0.12794551 -0.0436593 -0.6181979 0.008556546 -0.042136952 -1.3195127 -0.26571795 1.5550963 0.011431178 -0.034242507 -0.5043538 0.16272357 -0.58031917 0.15502988 0.23403612 -0.43082178 -0.27215162 -0.7065152 1.2821255 0.6064775 1.0459957 0.19555573 -0.40860763 0.35667893 1.1033366 -0.19242956 0.5348892 -0.88229436 -0.16780569 0.06416313 -0.00086371525 -0.25493595 0.02602483 0.49331033 -0.5731344 0.8049174
1506 0.47756305 -0.97759277 -0.48522583 1.1362671 -0.078952424 -0.21190667 -1.3437052 -0.19256431 0.63239825 -0.15041381 0.9868046 -0.08428467 -1.1603512 0.7729604 -0.43413287 -0.7701163 0.6996464 -0.24738875 1.2179147 0.1572244 -1.1804639 1.058324 0.2147153 -1.4546407 0.4861295 0.1964184 1.0271757 -1.4555991 -0.15405425 -0.38624078 0.6447562 0.41583955 0.5973778 -0.6816637 0.5151306 0.69196767 0.0859107 -0.2171652 -0.03435971 0.5929381 -0.63323855 0.15199898 0.24910906 1.390829 0.37502193 -0.62367344 1.0188662 0.5163164 0.12862341 -0.3693827 -0.90243506 0.15912041 -0.23354197 0.5188979 -0.51352453 -0.66958046 0.08287285 -0.41898546 -0.09195354 0.3769706 0.9706319 -0.41473785 -1.4759475 0.293715
2127 0.42309192 -1.5164713 -1.2435994 1.1048404 -0.43310386 0.3611294 -0.18224491 -0.7499929 1.1168834 -0.38350406 0.34667218 -0.6009832 0.013476059 -1.0049453 -0.74238575 -0.32591316 -0.16036382 -0.36240506 0.2659263 0.80824494 0.8549406 0.072112516 0.36403534 0.22031882 0.5477514 -0.5632549 1.2767438 -1.2177416 0.81915885 -0.5132434 0.7927804 0.9580528 -0.82752556 -1.5847921 -0.06243094 -0.13918963 -0.28486678 -0.14609112 0.60548675 1.2284267 0.49290645 0.18152821 -0.026645422 0.67646396 0.5335636 0.52027625 1.1006057 0.80894226 0.04514707 -1.1705185 0.5178739 -0.15758988 0.34704602 0.67249054 -0.016153373 -0.39134014 -0.08222771 1.0698923 -0.21090983 0.8492162 -0.5540809 -0.36058563 -0.55307496 0.25338918
2126 0.6293819 -1.4456067 -1.4047248 1.0276023 -0.36490402 0.23733287 -0.05607597 -0.7944616 0.9874881 -0.36814976 0.41219965 -0.813903 0.015321845 -1.0452735 -0.7610234 -0.4038652 -0.13154778 -0.3255915 0.123399176 0.9917107 0.7635495 -0.056147415 0.37780324 0.2984389 0.64422965 -0.7016578 1.3579812 -1.369778 0.6997386 -0.52406603 0.564352 0.9993539 -0.8923882 -1.5287412 -0.072880186 -0.21043016 -0.26122364 -0.37604976 0.51864153 1.2558649 0.46467766 0.25886384 0.21837175 0.6198925 0.8392771 0.49552128 0.99885744 0.63315403 0.1304251 -1.2287041 0.5567028 -0.042113412 0.27328658 0.5181342 0.011158247 -0.3606241 0.0010990347 0.91863745 0.0766057 0.9345263 -0.72799236 -0.25119373 -0.37843135 0.29025152
2842 0.54359865 -0.65661883 -1.5510727 0.096440956 0.51715577 0.6375275 0.5818081 -0.17446172 1.0203863 0.17304675 1.1604896 0.30381805 -0.91403073 0.3287327 0.15952134 -0.008493489 0.06425939 -0.5020544 -0.56918967 -0.9801171 -0.18900418 0.6412598 -0.18123952 -1.437328 -0.13111605 -0.23976578 0.94998854 -0.8437509 0.26318088 0.16167748 0.45717603 0.39190793 0.35313863 -1.1949642 0.11545469 -0.12312153 -0.3733624 -0.86839527 0.30552506 1.155727 -1.4668359 0.0078038643 -0.25109124 0.571314 1.0816488 -0.3632611 0.7464434 0.05086907 0.3134394 0.5827905 -0.123454906 0.0140904775 0.32579988 0.42169076 -0.19632049 -1.1067234 -0.600577 0.6939173 -0.83272076 -0.14391887 1.0888885 0.58193874 -1.0099 0.4325909
2390 0.6139943 -0.3369075 -0.8500847 -0.6094723 -0.33754924 0.7490339 0.63025826 1.451154 -0.382191 -0.11215644 1.4979105 0.06124564 -0.18517715 -0.12513755 -0.8067916 -0.7758504 0.26284343 -1.7567106 0.2978225 0.124614604 0.34026605 0.23248744 1.2133476 -0.54928195 0.19207169 -0.3625593 -0.06762912 -0.3359027 -0.9284828 -0.7092965 1.179908 0.16198096 -0.77575433 -1.0108272 0.75792235 0.13462485 -0.9694999 -0.20306729 0.506757 0.5116696 -0.06505043 0.52060896 0.47503012 -0.36936435 1.6786381 0.86372775 0.6357415 0.18630427 0.489192 -0.08013241 0.36752763 -0.7328117 -0.47669253 0.4520102 -0.02671855 -0.78729665 -1.2608088 -0.022132484 -0.015735261 -0.08513695 -0.12472345 -0.7192632 -0.1384536 0.14963254
3490 -0.47173658 0.10239956 -1.5017964 -0.19385572 -0.0080384305 0.6740132 -0.12963355 0.4010568 0.5026026 -0.36986965 0.5307236 0.37267733 0.9059071 0.5478526 -0.45186445 -0.38461602 -0.3966059 -1.3845884 0.06375138 1.2181444 0.3904743 0.18698066 -0.12563436 0.14782643 0.18122663 -1.064174 1.1635822 -0.49354008 0.27514756 0.0039050584 0.2635461 0.9208984 -0.4027363 -1.9015335 -0.94605094 -0.19172032 -1.0978304 -0.6897736 0.60486054 0.3821529 -0.2933467 0.6090791 0.77067494 0.46808034 0.20144571 0.043397963 1.2956976 -0.06404635 -0.30139124 0.18334174 -0.65371877 0.39426002 1.1898165 0.45799905 0.85351586 -0.17174277 -0.21644764 1.0313015 -0.8225521 -0.8866692 -0.36079746 -0.1016028 -1.014508 0.4388788
784 -0.3618077 -0.40833643 -0.34791604 1.3384018 0.5024751 0.893521 -0.16670935 -0.37439638 -0.5446747 0.23945954 0.6639424 0.44839942 0.4114539 -1.1028736 -0.38314337 -0.20876469 -0.77108467 0.090124026 0.08372078 1.4243243 -0.15547302 0.62020504 0.14603984 0.36097473 0.8103428 -0.07401897 0.6336345 -0.55495065 0.19744214 -0.4273195 1.023572 0.021639623 -1.5247658 -0.76361644 -0.9176405 -0.11527704 -0.82700837 0.8819243 0.48564622 0.7376513 -0.21733682 1.5401857 0.36392227 -0.22526741 -0.41777894 -1.6589628 0.33454683 0.58942664 0.5706157 0.03363234 -0.62783146 0.09199416 0.94740915 0.050036833 0.047939945 -0.3399301 -0.5073017 0.55538225 0.04351901 0.5448344 0.47278357 -1.5988077 -0.7966654 -0.008985214
2638 1.4102316 -0.5632565 -1.4288183 0.71287286 0.44978902 0.11863321 0.41769442 0.76969266 0.87171996 -0.45993456 0.4977804 0.55698746 -0.2073235 -0.43442094 -1.4805793 -0.45285636 0.9153546 -0.7309489 0.24037066 0.57956105 0.3836982 -0.002223969 -0.54821074 -0.70571387 0.6103565 -0.6975436 0.6537646 -0.7142508 -0.78734714 0.82574165 0.55856067 0.7736786 -0.87935424 -1.0075644 0.4925062 -0.827284 -0.69673085 -0.41949123 0.4287347 0.9542376 -0.084878966 1.3449358 0.94970787 0.6274681 0.2635215 0.008775043 1.1614466 0.055132866 0.9791354 -0.5584387 0.10509523 0.03606105 -0.055446234 -0.73584723 0.36923638 -0.25440124 0.19170502 0.2904364 0.42638484 0.7151089 -0.24579313 -0.061103255 -1.088048 0.14840682
286 0.40233073 -1.6737187 -0.7710086 0.62595636 -0.5689926 0.7032348 -0.99604404 1.0676247 0.28768405 0.34808213 1.2479873 0.25743064 0.7043214 0.53068656 0.7566792 -0.5512593 0.25182384 -2.1454086 -0.5786204 0.16415243 0.3303936 0.77636904 0.4913705 -1.053026 0.104875155 -0.38564512 0.83365405 -0.31819668 -0.8297966 -0.49530697 0.98424506 0.6385608 -0.67870915 -1.4556142 0.029401246 0.10772547 -0.86579984 -0.083847865 0.022701306 1.35949 -0.23625235 -0.47318628 0.073616706 0.3875496 0.46921632 0.47577327 -0.22143747 0.10335189 0.34143135 0.5872426 0.038739566 -0.2886592 0.47885332 0.48947465 -0.6060511 -0.37151435 -0.598754 0.13397197 -0.37477478 0.028236708 0.12970088 -0.5378415 -1.5245967 -0.34623232
287 0.36348245 -1.7351696 -0.70254266 0.8810993 -0.62414336 0.7179703 -0.93101156 1.0359241 0.06502779 0.4241878 1.2219244 0.21646143 0.36569566 0.3024317 0.76669383 -0.36116987 0.47632623 -2.2397323 -0.3490978 0.33948728 0.221439 0.8297155 0.2869186 -0.92227066 0.20792183 -0.43769792 0.9131485 -0.38962948 -0.8492485 -0.5188813 0.7898977 0.66912925 -0.68464494 -1.575314 0.057332687 0.26787904 -0.83596474 -0.17282945 -0.16982381 1.5362843 -0.249374 -0.47351807 -0.14047197 0.47130585 0.44802648 0.26002204 -0.3181239 -0.05173728 0.3598032 0.22563793 -0.05902348 -0.10118924 0.5027699 0.5863307 -0.6005743 -0.56316763 -0.5289166 0.29410696 -0.34615168 0.15665802 -0.027226241 -0.46201432 -1.4683678 -0.5287571
2883 0.24857299 -1.5449537 -0.92388076 0.68291736 0.5421794 -0.15194581 0.38313308 0.59126735 0.8410763 -0.32526484 1.4736942 0.46433803 0.24690895 -0.46735108 -0.8825257 0.083512224 0.5406047 0.52176654 -0.22029158 0.15725866 0.34818557 0.22954842 1.2010522 -1.6135613 0.42984694 -0.04581694 0.02712172 -0.20145111 -0.93371266 -0.16515486 0.80060107 -0.532081 -0.08303705 -0.7338685 -0.28662694 -0.059480786 -0.098458365 1.0475242 0.6903497 0.48892263 -1.1869793 0.82116014 1.3210095 0.7459076 0.0028451981 -0.15254514 0.31780297 0.80775666 0.67490894 0.14746456 -0.6452382 -0.111274354 1.4609911 -0.090076156 -0.38308793 0.2996089 0.7415966 0.6885814 0.5656388 0.64634746 0.05534667 1.1991184 -0.63490176 -0.02761857
2901 -0.72838515 0.024966238 0.33439136 0.17918876 0.48348114 -0.24307998 -1.2743793 -0.96551627 0.917849 0.19990386 0.13083483 -0.50768495 -1.3583837 -1.1438265 -0.86631423 -0.06791171 -0.4718646 1.4961215 -0.0033389444 1.1751727 -0.31238577 0.31070417 0.94076747 -1.5267743 -0.39941597 -0.33034956 -0.22838868 -1.1148502 -0.989458 -1.2524793 1.1931175 0.30769885 0.31311753 -0.2741433 -0.3866845 0.7438647 -0.51147145 0.014348206 0.23241857 -0.20450118 -0.85397637 0.31764278 0.5261832 1.097205 -0.86994207 -0.09059357 0.2511514 0.22237311 0.17583442 -0.75311387 -0.7083908 0.105204515 -0.29198045 0.22516248 -0.09835175 0.6178959 -0.30742893 0.03704269 -0.47900698 0.32776508 0.92703557 0.03776409 -0.9188787 -1.3821862
830 -0.48434466 0.2936508 -0.50121593 0.25843886 0.6436711 -0.25964642 -0.97703195 -0.17790666 0.07780183 0.5123509 0.8705962 -0.361249 0.549928 0.2406471 -0.42765737 -1.3077964 -1.1878027 -0.9023996 -0.7312558 0.34880945 0.041857336 -0.57405055 1.2102464 -1.7583269 -0.033002503 0.09298367 0.86754787 -1.3073398 -0.85230094 -0.6525379 1.0414674 0.28088963 -0.7145985 -1.1172391 -0.048695903 -0.08590354 -0.3419348 0.58424145 0.4618674 0.5366344 0.23458222 0.036788154 -0.29513007 -0.0091212215 -0.062026914 -0.0010837327 -1.0389804 0.0011376234 0.015426107 0.57185906 -1.4531788 -0.17191197 0.301006 0.59733534 -1.6170824 -0.6781005 0.6191737 -0.046424586 0.30655605 -0.62442464 0.04755893 0.3411717 0.1245006 -0.6289357
1128 -0.68282586 -0.14802289 0.081308335 0.35785496 -0.29140517 0.29050863 0.09874776 -0.45375332 -0.05900833 0.018328426 1.2225269 -0.122314274 -0.29946974 -0.7629435 -0.3408869 -0.82080716 -0.4753907 -1.5205958 0.46940833 1.7871125 -1.0036017 0.95813864 0.21652819 -0.7906386 -0.41729724 -0.051523264 0.97822994 -0.87552726 -0.41331795 0.02768253 -0.099580705 0.3956182 -0.7487052 -0.6124842 0.58394873 0.36608273 -0.45181236 -0.22179163 0.040328495 0.9940167 -0.24127991 0.90358806 1.2479086 0.50777245 0.619793 -1.0282955 0.9112478 -0.24170221 0.13611512 -0.4993216 -1.0458984 -0.2137974 0.27526984 0.25232372 -0.07235985 0.37793824 0.2588028 0.32031307 -0.6133989 -0.39842215 1.0063368 -0.5760778 -1.0086348 0.9853484
1630 -0.8429932 0.23265912 -0.3823948 0.9284857 0.9348439 -0.7718444 -1.246599 -0.5370552 1.0291364 -1.2035874 -0.91325825 0.63959557 -0.57200044 -0.15356646 -0.674602 -1.0800427 -0.20174877 -0.17686725 -0.2987012 0.5451328 -0.03724259 0.81490225 0.152283 -0.62536275 -0.22226296 -0.4422386 -0.15495646 -1.0267777 -1.045664 -1.1795744 0.6552646 0.506275 -0.061688352 -0.4932172 -0.7969275 0.9551458 0.6671986 0.18936674 -0.44856176 -0.7733247 -0.17408407 0.034572117 0.20330141 0.27882704 -0.93597066 -1.2431324 -0.82089806 1.5939559 0.5409222 -1.1635447 -0.4595404 0.29941362 0.28065965 0.48729506 -0.25617832 -0.18320407 -1.3518265 -0.10872491 0.28518352 0.5158001 0.13615562 0.15648039 -0.77754 -0.7261322
355 -0.11048822 0.25955597 -0.53205645 -0.6740753 0.13266273 0.49875787 0.38697866 0.29132688 0.45227706 -0.12524505 0.000256963 0.5980991 0.03873776 -0.038558327 -0.9763876 -0.7115499 0.8735129 -0.62852883 0.54100645 0.41190103 -0.69960177 0.5699428 0.7846315 -1.4129317 -0.44780353 0.4453464 -0.61358947 -0.6403316 -1.1270366 -0.3409875 1.050925 0.2655792 0.032137603 -0.42809346 0.19871487 -0.6500456 0.35904315 0.047592983 0.11146863 -1.1534832 0.87403435 1.3553274 0.6213139 0.57185096 -0.026018059 -1.3045263 -0.5510525 0.787217 0.8199579 0.26929408 -0.5417681 -0.42642817 -0.37259886 0.02617551 0.39587852 -1.8637592 -0.96357507 -1.0054373 -1.0958853 0.3010624 0.09877297 -0.82421607 -0.10219956 -1.1310564
393 -0.63806385 0.0007763412 -0.59482217 0.21460587 0.6433038 -0.36445746 -1.0473796 0.700382 -0.026356904 -0.743176 -0.59076554 0.8968272 -1.1406986 0.22186555 -0.8543317 -0.57038724 -0.65874153 0.4382509 0.22665435 0.939346 -0.72818965 -0.50185 1.4819999 -1.7713442 -0.05718063 1.0147555 0.5488823 0.21312442 -0.016806927 -0.127484 0.46815586 0.5518711 0.100218885 -0.30652153 -0.01031904 -0.048802212 0.055946685 0.7721006 -0.24194427 0.39529595 -0.3853972 -0.017596439 0.07961619 0.31981048 1.7417227 -1.0484672 -0.4121796 0.04995354 0.74405605 0.5775762 -1.2008139 -0.11670153 0.65227306 -0.28840157 0.119861215 -0.52291536 0.93810636 0.08543954 0.048712093 0.54016614 0.9362616 -0.2445163 -0.58817554 -0.9708432
1231 0.09464505 0.5163891 0.0496759 0.294387 0.71673137 -0.2510799 -0.1460975 -0.094703324 0.16465509 0.15225892 1.4027839 0.23216303 -0.5465587 -0.6944931 -0.38143274 -1.545018 -1.5103928 -1.2804475 0.08627716 1.3146604 -0.26972464 0.010712834 0.6821848 -0.6123106 -0.16168645 -0.45983925 0.35316497 -1.1805699 -0.3559036 0.2046782 0.5920269 0.61774707 -0.82871586 -0.652967 -0.061245017 1.0553873 -0.15858673 0.52947813 1.2032211 0.116034 -0.23850608 0.39372423 1.361789 -0.934429 -0.9269808 -0.48164728 0.65652037 -0.33459088 0.47309053 0.5264616 -1.1719532 -0.9300862 0.06491718 0.63987404 0.6417868 -0.45458296 0.45926568 0.20621495 -0.68074334 -0.18154284 1.4593555 -1.1594428 -0.93540657 -0.03330055
176 -0.76873 1.0849693 -0.8975606 1.0690091 -0.097912535 0.3824992 -0.63747615 0.5408967 1.5095363 0.10724328 -0.7909542 -0.50621086 -0.43457502 -1.056586 0.029306108 -1.1763426 -1.3076829 0.06653012 -0.1008179 1.9014531 -0.7298541 -0.5108297 -0.32310084 -0.22341517 -1.218348 -0.58440876 -0.59717435 -1.2124653 -0.7252016 -0.64794534 0.42316222 0.17587024 0.057591747 0.27551162 0.23842148 0.7309242 -0.2329643 -0.36909744 -0.5830307 0.45433247 -0.15083826 0.398439 -0.052544717 -0.71369857 0.6053693 -0.47095564 -0.27925998 -0.04315868 0.34486917 -0.95571584 -0.329421 0.58679634 0.39182952 0.16423066 0.32121724 -0.35796198 -0.17327118 0.463428 -1.1004516 0.52695477 -0.014461347 -1.0645914 -0.6851838 -1.1448781
3388 -0.5097384 0.530312 0.38530004 0.5653662 0.678343 -0.38007793 0.18683675 -0.79128665 -0.30277288 -1.0444115 0.4164188 1.4756544 0.18129909 -0.67040175 -0.8882683 -0.2944981 0.029252805 -0.7022629 0.76303256 0.87010825 -0.710808 0.36915737 0.115206115 -0.74594045 0.28356886 -0.36573824 0.7440886 -0.9309477 -0.5474179 -0.3514347 0.89517075 -0.38317505 -0.40610024 -0.4487355 0.73628587 -0.004745937 0.047008917 -0.2274218 -0.63607454 0.08016732 0.26447156 0.3892254 1.2366887 -0.2785346 0.54085046 -0.67952883 -0.17953461 1.1609496 0.47359693 -0.70157987 -0.5582143 -0.37560406 0.16617174 1.0275432 0.2673796 -0.2954274 -1.2992548 -1.2250564 -0.22797826 0.5403921 1.4591498 -0.93567777 -0.4106013 -0.8119568
3715 0.526886 -0.345916 -0.8479826 1.2040288 0.61562043 0.17677666 -0.36861673 0.3383304 0.8362383 -0.68259454 -0.25633803 -0.40655968 -0.24926363 0.5368379 -0.036862835 0.055522364 0.00267142 -1.2414172 -0.42793968 0.094117135 -0.8054681 -0.5353772 0.87021923 -0.78376526 -0.57671213 0.46070388 0.2764998 -1.0695832 -0.315258 -0.44283488 0.15173419 0.4878338 0.29051387 -1.386845 0.64747196 1.3660166 0.16279499 0.24782145 -0.23458563 0.8342871 -0.28591582 -0.26680997 0.6305409 0.6040244 1.4503899 0.25562418 0.71079344 1.1019814 0.26035076 -0.85267407 -0.99794286 0.12993379 1.404096 0.14714143 0.04493537 0.25881484 -0.39862004 0.1807901 0.020098869 -0.07958147 0.42898002 0.7332999 -0.5020638 -1.2209458
3062 -0.017646698 -0.5191509 -1.5058194 0.6934311 0.17222966 -0.08940014 0.1965724 0.3809358 0.94282633 -0.46621186 0.59242076 0.15513888 -0.42338443 0.09519205 -0.39001775 -0.6027173 -0.49732918 -0.5438667 0.1903979 1.3606733 -1.4223391 0.13784875 0.3139159 -1.4558282 0.29259062 0.725605 0.12034963 -1.2982918 -1.9079418 -0.659608 0.42839196 -0.91302 -0.24913539 0.5628725 0.2721821 0.7100865 -0.10264592 0.37450042 -0.29495403 -0.6275448 0.79677236 0.27499914 0.8637843 1.0054059 0.39536342 0.22741394 -1.3484437 0.34643126 -0.2669245 -0.2614339 0.36319062 -1.1167752 0.7480965 0.016110899 0.13690619 -0.0073966375 -0.48412892 0.05330833 -0.44648218 -0.6575103 0.31520155 -0.26125938 -1.0468959 0.13152705
1119 -0.43648297 1.0419655 0.6959533 0.83314455 -0.09634332 -0.06575766 0.17398842 0.2802373 0.58138716 -0.36828512 0.069181874 0.21906076 0.6643633 -1.6536463 -0.18688829 -0.06348157 -0.47655538 -0.21883158 -0.09638793 1.6049752 -1.0101888 -0.36709312 0.6878137 -0.73956907 -0.7318173 0.05378742 -0.5904894 -0.98097193 -0.02382907 -0.89958286 0.38345093 0.5495871 -0.47511163 -0.6754817 -0.32055792 -0.67628723 0.5127105 1.1909082 -0.00817555 0.23530532 0.48619658 1.1251873 0.36697257 -1.2589657 0.58504575 -0.7146193 0.4466576 0.12199718 -0.35581598 -0.11169234 0.22617695 0.4512783 0.12837611 -0.44761083 0.46358234 -0.98507583 -0.18417542 0.76379955 -1.2761711 0.8798607 1.4755685 -0.30985954 -1.0112633 0.27044332
1910 0.13109371 0.2608327 -0.17013213 0.2595214 1.0937678 -0.24440055 -0.03027984 0.1055177 0.6328202 -0.2653592 0.10131688 0.60628974 -0.01622451 -0.22410299 -0.59601796 -0.8875648 -0.6813755 0.30711657 -0.07425854 0.55084234 -0.21103325 0.023034059 2.03467 -1.2792243 -0.82498646 -0.34387705 -0.20631367 0.25685817 -1.2421005 -1.0482246 1.5169599 0.5179862 0.46299243 -0.8059857 0.3689567 -0.1380068 0.19378518 0.42263156 1.3709992 0.02503195 -0.34612226 0.15109664 1.1157113 -0.32212418 -0.3659857 0.38471624 0.5253301 0.42186227 0.5529496 -0.6939551 -0.4520627 -1.4079456 -0.037953038 0.05826908 0.55443084 0.08687622 0.4258474 -0.331585 -0.4479371 0.5462125 2.0647283 -0.35104263 -0.74667567 -1.036467
2309 0.07358912 0.27269396 -1.284246 1.3216177 0.9327899 0.5753163 -0.13830529 0.2421339 -0.69157994 -0.8749609 0.92734146 -0.28724948 -0.6996982 0.24201998 -0.48265085 0.47901604 -0.35386112 -0.91333514 -0.09186721 0.55975145 0.04042772 1.0557417 0.116183676 -0.40422255 1.3679017 0.5590059 0.3058068 -1.0565511 -0.9766695 -1.7799023 1.0028036 0.013416464 0.107359186 -0.57593685 -0.24901548 0.5175678 0.26654783 -0.9780808 0.07662363 -0.06693966 0.38840634 0.5230149 -0.10078882 -0.04885369 0.6397314 -0.19931337 -0.58086383 0.87817633 0.23208511 -1.3591423 0.35359251 -0.33348012 1.2378508 0.0017180251 0.19356573 -0.17380734 -1.5705181 -0.81011754 -0.30037078 0.20203832 0.5866057 -0.7458604 -0.32084137 -1.3215476
3310 -0.06273718 -0.3649477 -0.5875984 0.49782524 0.29911986 -0.13652837 -1.9677426 0.58273256 0.7772231 -0.5381323 0.205413 0.4091284 -1.6856229 0.051294144 0.15905777 -0.7962352 -1.2643276 0.38873982 0.5283444 1.1219398 -0.6553407 -0.34633332 1.4387376 -1.0160975 0.26096064 -0.2377455 1.1167368 -0.9122531 -0.23735024 -0.4499185 0.9257336 -0.688186 0.29012 -0.4062965 0.66954494 0.6820911 -0.46217003 0.19934288 -0.00391887 0.46278498 -0.055741917 -0.42695257 0.4211863 0.42658147 0.62426 0.2839075 0.043773074 1.0527568 0.48434862 -0.5321698 -0.83531564 -0.14895861 0.27778187 0.46842107 -0.5745947 0.44916162 -0.68300205 -0.6539683 0.7481136 -0.38258293 0.7268232 0.10478764 -0.80917364 -0.8780686
84 0.21549684 -1.3892343 -0.12816845 0.2334473 -0.08092454 0.547025 -0.81597304 -0.5774141 0.9621132 -0.049008727 -0.3317437 -1.0052222 -0.9790353 -0.6165522 0.15235439 -0.4427464 0.64170396 -0.3460961 0.0780254 0.854246 -0.3322263 1.07042 0.65529865 -0.79840845 0.025856989 -0.45510378 -0.064046934 -0.4295661 -1.3018134 -0.54617757 0.5739293 -0.15418944 -0.6055219 -0.5145067 0.2695634 0.62943846 -0.1809217 0.46912122 -0.28472307 -0.030343328 0.5352929 0.03620016 0.9509282 1.3873144 1.0413287 -0.25787866 0.19509844 0.035434354 -0.22204341 -0.9553683 -1.0429233 -0.20972401 -0.716282 0.6115843 0.57385045 -0.29388502 -0.3155245 0.26372612 0.19805053 0.59094113 -0.124554105 -2.032046 -1.0526876 -1.1612836
2291 -1.0678458 0.41880035 -1.1917527 0.09301835 0.60881925 0.08472057 -1.3582911 0.4849917 -0.09974053 -0.5832516 -1.0339606 0.6608519 -0.22048162 0.1282446 -1.265354 -1.1407692 -0.4068093 -0.44323757 -0.1329808 0.81663334 -0.2884984 0.29376382 0.99891347 -0.08671852 -1.0856236 0.12011775 0.4728255 -0.53339005 -0.20811363 -0.23184386 0.6492833 0.88568664 -0.14171201 -0.7699441 -0.060144108 0.6717573 0.21071757 -0.14075321 0.23536412 -0.30395386 0.16649655 0.11024072 0.6750022 -0.81006646 0.11083177 -1.5030948 -0.26878437 -0.5939046 -0.07753006 -0.56027246 -1.4824839 0.20024295 -0.25390458 0.60429627 0.18740474 0.015854191 -0.8356575 -0.93188864 -0.62579954 0.13273585 -0.016808806 -0.6003469 -1.235047 -0.8250769
3703 -0.37227237 -0.093205735 -0.53083915 -0.02291116 0.16078888 -0.4664343 -0.75549006 0.15086639 0.7922786 -0.47036526 -0.27610788 0.31189212 -0.7658728 -0.36750093 -0.4821243 -0.742106 -0.89115715 -0.10962409 -0.15080637 0.6963447 0.25515962 0.4676446 1.318257 -0.44655 -0.8322098 -0.6612187 0.53610027 -1.1800207 -0.049942035 -0.99127275 1.703048 -0.19683501 -0.3413965 0.47869536 0.39998388 -0.48170665 -0.73778 -0.5863027 -0.6832748 0.26370427 -0.5601855 0.72628725 -0.27480283 0.106495835 -0.04884486 -0.28169176 -0.07289041 1.0455507 -0.83139616 -0.027759137 0.34444687 -0.078493886 -0.16331981 0.32448107 0.009294999 0.8607904 -2.032527 0.036463223 -1.1527348 0.61015385 -0.20119098 -0.6438907 -1.8237772 0.18350933
3253 0.49183267 -0.56466556 -1.0946081 1.3030688 1.3826116 0.64913017 -0.8035118 0.035886068 -0.050760828 -0.50241226 0.8093812 -0.201879 0.20455383 -0.24593684 -1.2479562 -0.45908824 -0.9484708 0.95736074 -0.40827745 0.41524756 -0.4676181 0.059264164 1.389337 -0.97722054 -0.02347548 0.18006133 0.7616593 -0.3915228 0.5565144 -0.9463711 0.20884274 -0.66524726 -0.68730986 -0.24955554 -0.37013873 0.09554101 0.016860543 0.0034875856 1.1768962 0.47703123 -0.39684832 0.87616473 0.18757784 0.39620492 0.52381396 -1.4063731 0.34906578 0.3749332 0.07030424 -0.005785594 -1.3346525 0.22377177 1.6804643 -0.26315162 -0.05640519 0.16091785 -0.01297128 -0.7373803 -0.12257891 -0.33473176 0.03630426 -0.74461776 -1.2532332 -0.37551907
685 -0.09271171 -0.092608094 0.06455797 0.9283155 0.32491633 0.10763821 -0.54663783 0.18617128 0.51379925 -0.5631955 -1.1303154 -0.46832946 -0.84185666 -1.1222028 -1.5723298 -1.5648052 -0.7934402 0.28480124 0.9048002 0.9722207 -0.15596184 0.55397195 0.7600007 -0.3725597 -0.7148726 -0.29939723 -0.9989118 -0.9133568 -0.67208445 -0.19411947 -0.28932515 0.06558153 -0.4447868 -0.928786 -0.44888565 0.7028105 -0.06555033 0.38084835 -0.8326711 -0.99099 0.3263383 1.7582511 0.08780734 0.3008202 0.46174437 -1.3428365 0.22945668 0.81536734 0.10029769 -0.43900716 -0.77131444 0.3109485 -0.14676578 0.3421533 -0.38850015 -0.41381526 -0.7863261 -0.5907983 0.5913379 0.46983945 -0.25432295 -1.0144776 -0.12705196 -0.25527683
1681 -0.28565043 -0.6338341 -0.23904957 0.6105002 0.09068735 0.71643025 0.27226812 -1.8774011 0.343565 -0.7504015 0.12810557 -0.65638405 -0.55405545 0.34716 -0.51885635 -0.8052699 -0.81874716 -1.628832 0.2637576 1.1618859 -0.61786103 0.2825267 -0.27091292 0.122453794 0.3656542 -0.9767238 0.71335155 -1.2376349 -0.53264683 -0.23930143 0.5614787 0.55387706 -0.8994279 -0.4073187 0.4508945 -0.4330331 0.011512512 -0.2506634 0.22527188 0.4067395 0.44331837 1.119707 -0.07197496 0.5435241 0.73164815 -0.24028982 0.09377083 0.78536075 -0.4572278 -0.74880123 -0.5630066 -0.23529178 0.025190886 1.1479979 -0.37676427 0.38904405 -1.5323629 0.6923559 -0.70852846 1.2972469 -0.27035952 -0.8712833 0.14779699 -0.647467
