3273 64
0 0.3158869 -0.40244853 -0.27606666 -1.2683239 -1.1468596 -0.6308973 -0.0077594784 -0.60350007 0.5083839 0.41677883 -0.5465752 0.41171283 0.13193253 -0.7557561 -0.414817 0.019088127 0.38699394 -0.43926945 0.4484625 -0.1484604 0.51185864 1.2830434 0.23768002 -0.61606497 -0.742637 0.13193132 -0.77385926 0.06257563 0.035090346 -0.30857715 -0.95915824 -0.6943157 -0.21006407 0.035252288 -0.2776202 -0.041083097 0.12208675 1.8466897 0.005401137 0.27846065 -0.14950898 0.20898928 0.42650455 -1.6064278 0.42169288 -0.5775476 0.70246774 0.75180155 0.17871445 0.10241126 0.27385032 1.5933945 0.08278925 0.51359195 -0.80210733 -0.06627695 -1.456935 0.47493222 -0.84843254 -1.3587141 -0.3285304 0.68090194 1.5013613 -0.32561535
3 1.0427867 -1.6490372 -0.9836428 -0.8965449 -0.534387 0.27297905 -0.25701374 -0.2063644 -0.23778558 0.9194306 -1.1619776 -0.1688248 0.0176664 -0.9675609 -0.33378685 -0.39266163 0.9317079 -0.76687896 0.7260929 -1.7991123 0.17645764 0.3915206 -0.47363946 -0.012155922 -0.41687503 -0.1857664 -0.46330908 -0.58670515 -0.3354625 -0.5696166 -0.62567663 -0.20909798 -0.73270494 -0.6703127 -0.4794711 -0.39998755 0.8889699 1.2064147 -0.7933576 -0.11454472 -1.2106273 0.14232573 0.08956631 -1.0877033 1.2583851 -1.0596415 -0.25448635 0.87286067 -0.23118661 -0.63153404 -0.46012673 0.86689574 0.613824 0.023839718 -0.9957896 -0.054179054 -0.6597671 0.7387062 -1.1748219 -0.9887857 0.32642594 0.08193856 0.72712755 -0.082591034
21 -0.34142107 -0.12222601 0.13443157 -0.7653283 -0.3726343 0.37113693 0.26641667 -0.2932864 -1.4077055 1.8424973 1.4499326 -0.09833063 -0.4889828 -0.47591677 -0.50997823 -0.65776813 -1.1015941 0.31176713 -0.21472633 0.3833839 -0.32957327 -0.45767945 0.1816879 0.094986476 0.4754399 -0.11785534 -2.0832496 1.0169383 0.39562267 -0.3582429 -0.1597386 0.0076261875 0.81202006 -0.34693047 0.7924176 -0.4689411 0.69279593 0.13826135 0.03807172 -0.057946272 -0.115958765 0.11819851 -0.5981144 -0.80555654 -0.17167936 0.2742965 0.0032665469 0.4428017 -0.25691926 -0.57469606 0.8032833 1.0306458 -0.4012053 -1.2810417 0.5944128 -0.05480347 -1.3286312 0.08228172 -2.004041 -0.29594928 -0.09571057 -0.0075891 0.3168988 0.30105853
2701 0.49087712 0.8191867 0.2831947 -1.1940527 0.26889497 -0.30700502 -1.0602965 -1.3284051 -1.2965926 -0.21200654 1.4860966 0.27923453 -0.120632164 -0.0036500583 -0.75589645 -0.3590679 -0.027376704 0.34540814 0.09006304 -0.908397 0.73529345 0.78671193 0.50402707 -1.211616 -0.8403504 0.53052497 -0.73521864 -0.31519923 -0.43976063 -0.90059316 0.10456897 -0.6161417 0.8425099 0.11376347 0.2692921 1.0508156 -0.58063704 0.38109076 0.83366483 -0.21334587 -0.18711591 -0.12451901 -0.053703725 -0.9589424 0.45807415 -0.49683437 0.19124201 0.012160587 -0.44977647 0.6265698 -0.53450555 0.10527991 -0.25977865 -0.18445578 -0.43907475 0.03651032 -0.08095298 0.1477371 -0.97274864 -0.13680823 0.06746474 0.8218003 1.3517305 -0.2751806
1291 0.3207592 -0.99984354 0.33624363 -0.6656959 -0.5072559 -0.21839088 0.018536184 -1.5792242 -1.2153434 -0.10420026 -0.79067093 -1.0239859 -0.7904079 -0.3141122 -0.5544624 -0.48234683 -0.07723528 0.037838217 0.23841737 -0.93192804 0.9797126 -0.7207869 -0.17503142 0.43945345 1.2469784 0.32391524 0.67077804 -0.65189314 -0.24497592 -0.6029899 0.38115445 -0.10089824 1.2187066 0.5365285 -0.12844323 -0.29577705 0.22796062 1.0187964 0.3165365 -0.91775477 0.074043736 -0.23373945 -0.66343594 -0.22973493 1.1926342 0.20944099 -1.7851685 0.8165929 -0.5706145 -0.59292656 -0.40731758 -1.0499024 -0.20342019 0.07477014 0.26109388 -0.38438237 -0.5041114 0.88847697 -1.2142764 1.0008622 0.9649097 0.5425782 0.4001978 -1.5315069
23 -0.31213272 -0.20708166 0.3515392 -0.48628476 -0.27902776 0.13765377 -0.2986785 0.64764726 -1.3828104 1.7765598 0.9006658 -0.46657053 -0.32422504 -0.7886527 -0.45201662 -1.2170929 -1.4674131 0.17827588 -0.80241793 0.53591347 0.05649988 0.6340509 0.39430243 0.2569596 0.64855826 0.31182018 -1.3387964 0.72942686 -0.35270756 -0.5674444 -0.38436836 -0.36206552 0.14896587 -0.12596762 0.7502524 -0.27895302 0.7095203 0.70647955 0.26736832 -0.46352872 -0.3582008 -0.57246655 -0.20427874 -0.75079554 -0.6806373 0.56029755 -0.4061582 -0.2611262 -0.63654274 -0.43985224 0.19319023 0.8174359 0.09666242 -0.12602189 0.32051817 -0.25624245 -1.1539757 -0.3190777 -1.2303743 -0.26253766 -0.21240956 -0.061147507 1.0841961 0.12946415
1264 0.5464263 -1.0264487 0.29731265 -0.7758977 -0.6712221 -0.065723136 0.11127767 -1.2952683 -1.2608213 0.48058566 -0.92500716 -0.56424224 -0.5506608 0.01761927 -0.79379874 -1.2680012 -0.5805305 -0.067135096 0.17764035 -0.8109221 0.7614318 -0.68699837 -0.22994572 0.51890135 1.6856935 -0.23239478 0.24043034 -0.4404386 -0.48772797 -0.26570022 0.47564498 0.26184845 0.69447184 -0.044987433 -0.20232305 -0.60817623 -0.37899193 0.8269929 0.8928237 -0.83130765 0.52229667 -0.055591047 -0.30532265 -0.88651294 1.6473396 -0.0011124958 -1.3205285 0.67976433 -0.47078958 -0.5789787 -0.7116642 -0.6650053 -0.71536016 0.034239467 0.15019226 -0.43786198 -0.412823 0.852842 -1.1852843 0.19948074 0.5174864 1.0080997 0.33609274 -0.7989027
1106 0.21772473 0.0736088 1.6331524 -0.6686007 0.07726959 -0.5352115 -0.5578984 0.14715289 -0.9299266 0.3812365 1.821265 -1.4186934 -1.6316983 -0.18061534 -0.47359744 0.48932838 -0.8068486 -0.43735707 -0.00095168204 -0.59323376 -0.7847578 0.9360839 0.42906532 0.19827023 -1.2882695 1.7947363 -0.6354875 -0.24578105 0.41203064 -0.92612076 -0.60887015 -0.09830143 0.6085809 0.01795973 1.1272347 -0.23105662 0.73390275 0.31636554 -0.14180028 -0.88498765 0.36160973 0.58437276 -0.50706565 -0.31104162 -0.061487008 0.3072442 -0.55695486 -0.6861878 -0.33762267 0.76463443 -0.2794408 0.9188504 0.6137443 -0.334744 0.20997965 0.17679814 -0.62071836 0.039536495 -0.61824715 -0.07913784 -0.26702058 -0.57508427 0.35367227 -0.45598987
2982 -0.107982 0.66688305 0.6817665 -1.1782731 0.27457678 -0.26912498 -0.55339 -1.4372241 -1.0918986 -0.17529514 1.4555619 0.32170382 -0.47001538 -0.596673 -0.7278015 -0.41354045 -0.13150226 0.46438134 -0.46996576 -0.8688523 0.9042474 0.9114796 0.20793839 -1.0016139 -0.78797615 0.2172883 -0.78671 0.0051116063 -0.7454686 -1.2041721 -0.27056643 -0.8191307 0.8842795 0.33035466 0.8779294 1.462397 -0.7713883 0.5540348 1.1720296 -0.3634297 -0.09636275 0.2917216 -0.1299815 -0.42795506 0.38880214 -0.28295952 0.3073925 -0.15451163 -0.29111835 0.086213425 -0.57366204 -0.07219881 0.41590452 -0.47051173 -0.7528671 -0.08522785 -0.6233797 -0.03276592 -0.40365693 -0.44592905 0.44245204 0.32972246 0.7995153 -0.44746062
1262 -0.27112117 -0.98732436 0.026628735 -0.7901514 -1.1829535 0.61210984 -0.12615424 -0.62778825 -0.94003594 0.15033379 -1.5185645 -0.25325474 -0.28245556 -1.1218959 0.27953136 -0.047886416 -0.2578941 -0.50839615 0.7265068 -0.10261328 -0.27698138 0.15058304 0.8061633 1.2436316 -0.073899515 -0.18512611 -0.5427444 -0.8401721 -0.36318326 -0.14317572 -0.32116428 -0.051070906 0.36723277 0.3035192 0.7623763 0.075197004 0.024947174 1.4106307 -0.0030764693 -0.88889074 -0.3712337 -0.2161948 -0.0046445397 0.35973126 -0.32085994 0.062400136 -0.56557274 1.1054173 0.16352262 -0.9403634 -0.84532595 0.26628658 -0.47231182 1.4300718 0.7002164 -0.67472255 -1.2198776 -0.26053566 0.0397232 -0.5428719 -0.22506234 0.34955484 1.9432589 -0.45693576
1268 0.5953837 -0.6759667 -0.724538 -0.9860871 0.39456055 0.46115002 0.3136367 -0.472735 -0.6342112 1.1715032 -0.9317747 0.85532296 -0.329964 -1.5928321 -1.1000874 0.15164779 -0.53040624 -0.029334763 0.08335791 -0.8595805 -0.035647694 -0.27850336 0.6869907 0.35515034 -0.10527659 0.19937027 -0.4825289 -0.32056537 -0.03570306 -0.5740691 0.095225535 -0.24203026 -0.33135054 -0.8635839 -0.25276542 -0.8449475 0.36044934 0.35434952 0.3096462 -0.4257426 -0.39838082 0.8842893 -0.8672636 -0.26217937 0.5685572 -0.64677054 -0.6499731 0.9229291 0.5505185 -1.1496376 -0.5291866 0.5547664 1.1033293 0.15508966 -0.2670711 -1.7391268 -1.1532491 -0.11441329 -0.6550799 -0.07764173 -0.22246732 0.53018904 1.1905584 -1.6694136
2161 1.5597174 0.68947905 -0.3937215 -0.7010881 -0.4755568 0.68894064 0.024185624 -0.40695223 -1.4834322 0.123561986 -0.4628841 0.35970488 -1.2275002 -0.14328542 -0.20107694 -0.68102133 -0.79404 1.0571034 0.9959329 -0.7230345 -0.34856924 0.1668303 -0.2940565 -0.62242544 -0.010665615 0.7052968 -1.1328768 -0.58033305 0.7943732 -0.05168598 -0.6620095 -0.4302477 1.2480146 0.34755385 0.16677287 -0.50109583 0.2867266 0.3424981 -1.3563033 -0.30602 -0.8171574 0.70433396 -0.69453555 -0.72769624 0.82816917 -0.33818683 0.09544691 -0.3310568 0.20177387 -1.2530111 -0.051863797 -0.15358783 -0.42155203 -0.8180856 -0.7986279 -0.07329559 -1.1808596 -0.429382 -0.79996026 0.52942634 0.39564025 0.069474064 0.817611 -0.32387832
68 1.5942495 0.38459662 0.6547769 0.25110343 -0.6345871 -1.1840624 -0.98231995 -2.2968605 -0.115580395 -0.3235462 0.92886525 -0.7913121 -1.4808133 -0.3148031 0.739976 0.20694973 -0.46549046 -0.69086456 -0.94731027 0.4339986 0.14091687 -0.037668962 0.09345442 -0.058203414 0.056394886 0.6579259 -0.55807704 -0.3254735 -0.9390525 -0.88158226 0.024491267 0.20401132 1.8687619 -0.68131644 0.6952037 -0.6964956 -0.11157522 0.5029406 -0.7196027 0.37216052 0.3850735 0.1955851 0.17373456 -0.5182725 0.7612149 -0.10190184 -1.0687702 0.67707896 0.21757138 -0.90349466 -0.899173 0.17229676 0.6588242 -0.052099634 1.1124271 -0.23805112 -0.5871552 -0.045208123 0.026172878 0.5761339 -0.32340476 0.8233356 -0.27174386 -0.5014795
1597 0.033617485 0.1266917 1.3464596 -0.43520987 -0.22265947 -0.77422386 -0.8018279 0.3846145 -0.85974205 0.29868975 1.8945031 -1.1401988 -1.7571185 -0.078397535 -0.4966685 0.12104274 -0.58481133 -0.22348443 -0.15671931 -0.55159277 -0.26013651 0.6857518 0.19647647 0.061987054 -1.006621 1.7215488 -0.9663887 -0.32529542 0.2824841 -1.2296991 -0.53279024 -0.14103872 0.69506675 0.166784 1.5506741 -0.40706986 0.9523292 0.39857644 -0.30570036 -0.7361425 0.3959126 0.3345914 -0.16064788 -0.12452927 0.13543965 0.37149355 -0.46801624 -0.6904234 -0.18912064 0.7738025 -0.04729483 1.2081839 0.6995767 -0.3120389 0.01176326 0.20225295 -0.3752056 0.42719862 -0.8497851 -0.3019297 -0.4214869 -0.8856052 0.4047038 0.00046695193
2719 0.292144 0.21724313 0.35712937 -0.8071685 0.11032733 0.6752723 0.3467303 -0.42752504 -1.4637171 0.85254675 -0.67579377 0.0060100416 -0.012037151 -1.2964629 -1.6312535 -0.38014477 -0.58291143 1.1649091 0.58505976 -0.33822557 0.35918087 0.24920578 1.0506675 0.49677598 -0.3266663 -0.14310841 -1.0854285 -0.65494806 0.16628164 -0.7420077 -1.2572646 -0.8933015 0.42268243 0.7788387 -0.18582216 -0.25247872 0.6413537 1.4212354 -0.1296634 -0.5209627 -0.5415449 -0.957556 -0.7826876 -0.8297632 -0.05155806 0.3861272 -0.96421033 -0.19807929 0.021865744 0.69325346 0.7563535 -1.2330015 -0.64058775 0.29748377 -0.637976 -0.15163326 0.26932845 0.56766623 -1.1268009 0.6756555 0.7002381 -0.026542611 1.2157936 -0.6252976
3045 0.98065853 -0.18923089 1.5109619 -0.3379416 -1.4063566 -1.133974 -0.9868984 -1.232672 0.018512577 0.8752402 -0.57618225 -0.4643865 -0.25032666 0.09935046 -0.8751163 -0.5826784 -0.13483556 0.8268563 -0.4519627 0.48903778 0.57851833 1.0067484 0.39660752 0.7391015 -0.1043725 0.20846717 -0.8477056 -0.402678 -1.0245297 -0.8503384 0.25370374 -0.6525918 1.0657275 0.7097276 0.7352794 -0.5042942 0.14729917 0.880741 -0.24899514 -0.6751999 -0.040626615 -0.57180256 0.78510183 -0.7175014 0.26170656 0.6231867 -0.3879269 0.14615987 0.23678243 -0.17868589 -0.2219274 0.9538367 -0.055257555 -0.13887858 -0.20973834 -0.19584681 -1.0023139 0.67014027 -0.1796103 0.5208168 -1.1896892 0.91827434 0.9621262 0.466291
5 1.0821306 0.20045564 -0.2584736 -1.269621 -0.52332664 0.046695974 0.9226737 -0.54045385 -0.66388035 0.21442361 0.34399268 0.10191923 -0.40528756 -0.6836807 -0.6092284 -0.30607095 -0.7454435 0.08875233 0.9877078 0.22410719 0.04020206 0.787436 0.8354962 -0.0030694087 -0.3095018 0.5996084 -0.8169245 0.72288984 -0.7335457 -0.32265633 -1.0018734 -0.26761332 -1.0351977 -1.0012567 -0.110311314 -0.06203601 0.619909 1.5057619 0.5939669 0.6186237 -0.10838571 0.33758938 -0.020451047 -1.2074069 0.8360771 0.013053022 0.14967224 0.90304726 0.21462764 -0.14828765 -0.16943572 1.1091508 0.28422144 0.79134005 0.63287354 0.08049402 -0.5494015 -0.219864 -0.26660472 -1.1208967 -0.18523517 -0.03952489 1.3286242 -0.9503457
1224 -0.19886374 0.074020214 0.7192764 -0.5860566 -0.5404058 -0.110620975 -0.1326508 0.33809513 -1.1297053 -0.04261827 0.86157686 -1.4118997 -0.5661066 -0.9337894 -0.5949871 -0.3063098 -0.74251354 -0.08112748 0.6295614 -0.34924364 -0.3476531 0.9037812 1.3235967 0.3407191 -0.3410973 1.1860114 0.0232875 0.08321289 -0.78906745 -0.19717944 -0.6820743 -0.16813718 0.4215788 0.7900309 0.33473974 -0.62830263 0.32226577 0.875314 -0.6284222 -0.9070075 -0.07834638 -0.38885432 0.77431715 -0.7247082 -0.10254095 1.4598111 -0.45545983 -0.14736542 -0.60724944 1.2587411 -0.08486495 0.30333874 0.574787 -0.50190544 0.3283177 -0.033018325 -0.8166942 0.5280402 -1.6302836 0.123247445 -0.36399743 0.645955 1.1534818 1.018346
2697 -0.22446841 0.045137923 1.4331096 -1.2520031 0.17066242 -1.0717498 -0.32733515 -1.0823197 -1.0746269 0.117822155 0.8368898 -0.17404748 -0.15036812 -1.0505178 0.32991475 0.40556225 -0.86750007 -0.25959158 1.0962473 -0.55878884 0.1179312 0.19359903 1.2437768 -1.1275871 -0.5573035 1.4641771 -1.2656959 0.72159725 -0.52071774 -1.0539396 -0.87873197 -0.41450852 0.18628012 0.2993935 0.54550534 -0.06578932 0.08640704 0.43975133 0.019885994 0.056118395 0.42855915 -0.52012116 0.41892752 -1.4424918 0.9694616 -0.19709733 -0.2216361 0.02808206 0.4703902 0.7685637 -0.058897674 0.099580735 -0.49545333 0.53756833 -0.83515143 -0.08677388 -0.026329154 -0.053943753 -1.2095726 0.015158395 -0.3451131 0.39654684 0.61316496 -0.2890164
1220 -0.15380698 0.32945886 0.4758579 -0.73072344 -0.76904404 -0.007479965 -0.06895861 0.5802192 -1.4091935 1.7324247 0.95452356 -0.3327377 -0.2718988 -0.25559765 -0.1700514 -1.0298401 -1.3814443 0.34405014 -0.5414901 0.16069764 0.106781006 0.7938293 0.6572698 0.43201065 0.3672495 0.45115286 -0.8284983 0.661954 -0.052853327 -0.9156027 -0.4586443 0.0075083184 0.47552672 -0.21912387 0.80039537 -0.31105065 0.7784049 0.61343765 0.23834488 -0.51527095 -0.365915 -0.58493567 -0.009624781 -0.80810386 -0.56401503 1.1761173 -0.3251186 -0.21967433 -0.19029842 -0.875948 0.69648314 0.6805763 -0.3228276 -0.22189195 0.13763149 -0.24848771 -1.5875844 -0.89749056 -0.70526093 -0.506883 -0.13605824 -0.30001566 1.7020336 -0.19104835
2991 0.2217948 0.34252542 0.1064702 -0.04678874 -0.45473635 -0.6018057 0.16570108 -0.7533307 -0.46111238 0.46797374 -0.032235682 -0.9425985 -1.616763 -0.7547684 0.45736837 -0.8741883 0.517319 0.3627667 0.581895 -0.77493757 1.24523 0.9472425 0.44414747 -1.0772182 0.62272745 0.37875402 -0.696649 -0.43955797 -1.1999636 -0.54871064 -0.70429486 -0.91043216 0.88110095 0.4982005 0.83184105 0.32111514 -0.8421534 0.28579038 -0.35339695 -0.7585114 -0.78635687 -0.0843769 -0.08978956 -0.10868015 0.7166525 0.3436207 0.4644493 0.40323672 -1.0053287 -0.50312793 0.54497755 0.80742604 0.80047095 0.028470425 0.06722956 -0.26232988 -1.5190983 0.7526416 -1.8514144 -0.047470037 -0.14380881 0.5392904 0.76574224 0.3013202
2907 -0.23616324 0.41172987 0.23148504 -0.8388212 -0.80197346 -0.09811567 0.0652494 -1.5490259 -0.8169748 0.33617678 0.70599705 0.099225625 -0.37150648 -0.5047285 -0.46776235 -0.13674536 -0.050225765 -0.095552936 0.4773662 -0.8354674 -0.06945659 -0.33210027 -0.5653647 -0.49821696 0.23571563 -0.24187979 -0.9680773 1.3512114 -0.086269654 -0.5921371 -0.32245252 -0.07805913 0.22595964 1.1134918 0.38520274 0.5706535 0.16612214 1.1480817 0.02623968 -1.167484 0.4847325 0.5459978 0.20453434 -0.157452 0.4246438 1.872553 0.41843113 0.2552614 -0.7235634 -0.7783985 -0.3966294 0.51593095 0.7460607 -0.39416984 -1.0864036 -1.0599499 -0.73351216 0.43419737 -1.9339439 0.041613467 0.15992984 -0.14180072 0.30349782 -0.7729133
3151 0.46440622 -0.096711256 0.106067695 -0.2580412 0.48963088 -0.3727366 -1.4234427 -0.7937724 -0.40049383 0.52828866 -1.0463543 -1.500453 -0.6157317 -0.8065906 -1.1910734 0.1029645 -0.57942206 0.13468751 -0.96472675 -1.449645 0.21931188 1.2895344 0.27863798 0.12532215 -0.80809414 1.3837233 0.6317948 -0.37102562 -0.32340428 -0.7682897 -0.30157158 -0.676808 0.22476338 0.6566915 -0.042900745 -0.2546946 0.34932545 1.5658001 0.9161074 -0.75553864 -0.4598241 0.012821879 0.18492481 -0.5574574 0.9739622 0.4216721 -0.32708508 0.47247714 0.16449973 0.6716367 -0.8598884 0.07892822 0.18130305 0.9365936 0.08503668 -0.1400918 -0.11070872 0.40250054 -1.3177681 -0.01038365 0.00447227 0.19989273 0.6526272 -0.6641898
2981 0.118889846 1.2853553 0.35856187 -0.77604073 0.008715726 -0.43673018 -1.1050923 -1.4483906 -1.0865194 -0.020883309 1.1990285 -0.044111677 0.0008681114 -0.033829626 -0.755273 -0.4747856 -0.0994003 0.57379574 0.03390812 -0.8487747 0.36831367 1.0094776 -0.016886292 -0.3704984 -0.73320657 0.27144897 -0.80055666 -0.31824526 -0.6693885 -1.2964617 -0.5300479 -0.84399664 0.53458583 -0.27129844 0.41423288 1.2813716 -0.6976513 0.6256234 0.73316896 -0.5801534 0.11221221 -0.036352616 0.034011897 -0.9006632 0.16150329 0.31444982 0.23398425 0.35570005 -0.4617347 0.52340466 -0.37866542 -0.06899848 -0.17252399 -0.21115936 -0.8510169 -0.189739 -0.28220344 0.6519733 -0.16394138 0.32881662 0.085884795 1.0323324 1.1205735 0.049231682
62 0.7741867 0.36034566 0.2724665 -0.30122477 0.886231 0.2286238 -1.4544063 0.29220587 -0.9362006 0.6129439 0.297494 0.58860576 -0.47046995 -0.771097 -1.02318 0.7541823 0.04910557 0.6078996 -0.5875556 -1.0568097 -1.0087483 0.7509776 0.83146256 0.8166387 -0.5919858 0.5951541 -0.9226068 -0.38987333 -0.5844405 -0.7288833 0.44958076 0.16343465 0.14262557 -0.3966385 1.306947 -0.7102775 0.41189352 1.086329 0.36361 -0.18264252 -0.57193226 -0.5655525 0.5156503 -0.4080505 -0.71138865 -0.18394823 0.16156499 0.3198596 0.05989316 1.3307272 1.0251641 1.5678196 -0.6179076 -0.62688434 0.33354405 0.2020714 -1.4382607 -0.57904136 -1.034559 -0.23157212 -0.46042517 0.8384593 1.2108763 0.46225756
2559 0.28514078 -0.5880259 -0.8845267 -1.2705916 -0.5719785 -0.6542152 -1.0600523 -0.9613808 -0.22236419 1.345773 0.14444444 0.49610722 -0.35828167 0.04113505 -0.42533472 -0.33629465 0.23178886 -0.83586437 -0.102702335 -0.6810199 0.59508866 1.230066 0.5577059 -0.038450737 -0.89907676 -0.40195966 -1.2004606 -0.17447257 0.017376715 0.05926138 0.036856838 -0.1420833 0.112387106 -0.33551955 -0.013671718 0.12558393 0.06960283 1.2872578 0.1443854 -0.021833662 0.16445859 0.43642792 0.15234096 -0.838806 0.4874937 -0.9447816 0.76607186 0.8185711 -0.38181546 0.3816316 0.23829387 1.4203445 0.3753465 0.13667423 -0.11194562 0.7896 -1.4465284 1.149245 -1.2279924 -0.99738103 -0.041451473 0.8828421 0.65292394 -0.06911203
24 -0.37050298 0.03812713 0.63040066 -0.790085 -0.6762036 0.31628174 -0.3334293 0.7761014 -1.336009 1.2111651 1.0651429 -0.6813669 -0.32532382 -1.07381 -0.4720994 -0.99193674 -1.2129318 0.21705343 -0.4532133 0.38079712 -0.06265659 0.931868 0.81526244 0.2146673 0.11216013 0.72535664 -0.81662166 0.6139746 -0.31570622 -0.25430682 -0.30675298 -0.32357007 0.28519592 0.08754872 0.41064918 -0.40632123 0.35374853 0.5964616 0.054264184 -0.72078013 0.21099576 -0.5763654 0.24747084 -0.64858836 -0.4045012 0.88940656 -0.28534293 -0.48253688 -0.70646304 -0.09910563 -0.2051617 0.7245772 0.049123857 -0.3843822 0.08071255 -0.58750683 -1.338497 0.006095321 -0.98127514 -0.057362653 -0.35787693 0.28178644 0.9099938 0.5343032
22 -0.029825095 -0.3570231 0.24925631 -0.49055672 -0.11348018 0.28724584 -0.027855217 0.07791352 -1.4973944 1.4057386 1.2728022 -0.5035816 -0.28822327 -0.61624193 -0.4885062 -0.9884528 -1.3686526 0.43193483 -0.5959415 0.7884874 -0.5961817 -0.13197863 0.15000854 -0.06514545 0.83602715 -0.19302136 -1.4428529 1.0153053 -0.051655017 -0.23436043 -0.30971077 -0.214093 0.27008837 -0.31816757 0.97883093 -0.39705813 0.8163391 0.23896235 0.16736642 -0.25640753 -0.01337669 -0.26012084 -0.60290074 -1.0085478 -0.0661408 0.38641626 -0.41809666 0.3321185 -0.34989098 -0.35892648 0.3803246 0.78438336 0.027786303 -0.7701238 0.5063732 0.071070276 -1.3049252 0.03198502 -1.3150959 -0.1559429 -0.1595756 -0.18661599 0.44712514 -0.21492971
2572 -0.34465417 0.18035321 1.1026592 -0.2565515 -0.50053275 -0.47589502 -0.5067711 -1.6188014 -0.6433512 0.54645824 0.7498351 0.12160204 -0.5369508 -0.6180977 0.053530335 -0.17165431 -0.54042655 -0.60219824 0.34159133 -0.58675945 0.10692838 0.8243611 0.50176054 -0.54918957 -0.6987962 0.5145717 -0.96863836 0.58584195 -0.43585536 -1.4029602 -0.74914026 0.2078722 0.4518757 0.003259415 0.66428995 -0.15026961 0.35268196 1.0234382 0.39502612 0.6130227 0.30544013 -0.7586609 0.7420971 -1.4280659 0.35470733 0.7864592 0.07525421 0.030916836 0.89666224 0.62172073 0.88481706 0.04229144 -0.6876399 0.6180795 -0.84140956 0.8632779 -0.39646235 0.23357373 -1.4156082 -0.22128654 -0.9846296 0.006109933 0.56374866 0.1328288
1786 0.016258137 0.47683665 0.8659813 -0.35322073 -0.17459136 0.027301172 -0.44846994 -0.19736008 -0.9437325 0.38197488 1.0926658 -1.085836 -0.8165551 -0.96476096 -0.21146975 -0.641255 -1.093381 0.06600984 -0.013338274 -0.26958483 0.0023337314 0.93918765 1.3674628 0.49706855 -0.5304131 1.005649 -0.50294805 0.39265314 -0.6539678 -0.36911997 -0.17470843 -0.28126168 0.6367714 0.58203596 -0.09299852 -0.43001834 0.069042034 0.99670136 -0.60389405 -0.5789342 -0.13950014 -0.47219005 0.113005556 -1.5982943 -0.28836685 1.2944366 -0.5083924 -0.1047457 -0.3154268 0.9989076 -0.026588986 0.43370983 0.53512895 -0.68648016 0.4127079 0.33177814 -1.2969369 0.77520704 -1.3567233 0.3761967 -0.47329915 1.324882 1.0122012 1.0619855
1227 0.010240471 -0.032419693 1.497112 -0.6123316 -0.47100222 -0.6523331 -0.78460985 -0.28590244 -0.8241421 0.43328628 1.6646147 -1.24494 -1.6927304 -0.22642419 0.28185993 0.88094467 -0.44958583 -0.28902477 0.23137327 -0.51614994 -0.78763384 0.7705917 0.8743651 0.41722152 -1.3052838 1.7616482 -0.7523748 -0.24192874 -0.3025661 -1.0762185 -0.47944638 -0.09406309 0.3151613 -0.19969662 0.60292035 0.21666755 0.71678114 0.41655004 -0.34045944 -0.6679068 0.30546376 0.5505979 -0.7732087 -0.15617937 0.13239338 -0.22071901 -0.41437984 -0.4520391 -0.22662635 0.21993542 -0.49662316 0.90728503 0.6161113 -0.3821173 0.270907 0.12807493 -0.580079 0.042124916 -0.8925874 0.3002509 -0.29614654 -0.70514 0.15131974 -0.38048366
2571 0.26433662 0.13242571 0.97976464 -0.22798331 -0.7349718 -0.001038799 -1.1320362 -1.6880305 -0.7316445 0.6259909 0.6029308 0.1994291 -0.22358613 -0.2568353 0.35418004 0.19420774 -0.53457034 -0.5983783 0.64537287 -0.46701598 -0.12225218 0.5686245 0.5373034 -0.2647096 -0.54328805 0.45792234 -0.8617043 0.3643699 -0.17650402 -1.2480866 -0.30223832 -0.0036658724 0.33534646 -0.24721992 0.6803087 0.27377537 0.6648684 0.9184217 0.28881326 0.5112757 -0.035214648 -1.0688183 0.38678923 -1.290524 0.1716131 0.69829834 -0.2960646 -0.115140945 0.91914386 0.26733208 1.0552096 -0.12404955 -0.67500496 0.46370745 -0.2203096 1.1969007 -1.3117632 0.116906404 -1.0425248 -0.50475734 -1.2280227 0.2509012 1.099078 0.3966775
1602 -0.05058397 -0.008090439 0.9700761 -0.7336067 0.41014224 -0.896991 -0.6135771 -0.41787872 -0.89630866 0.43433225 1.5155635 -0.92180425 -1.0252856 -0.36872506 -0.11293296 0.03727475 -0.8855825 -0.3926321 0.048789024 -0.7512045 -0.56745654 0.26224938 1.1045374 0.5826827 -1.3119115 1.4194152 -0.18428643 -0.29226252 -0.152421 -0.7606395 -0.37326837 0.25333345 -0.051368993 -0.15744977 0.10305237 -0.25896892 0.15948667 0.25622284 0.5418031 -0.58244616 -0.24984545 0.8928935 -0.43375653 -0.9863402 0.22754328 -0.092404895 -0.6702613 -0.13695204 -0.5097252 0.47228327 -1.004553 1.0630187 0.60508424 -0.38609397 0.7501693 -0.6553486 -0.2219362 0.08837649 -1.2544898 0.059117556 -0.2999014 0.023227079 0.31216195 -0.24768755
1974 0.37419397 -0.2313016 0.5688447 -0.43213642 -0.5444839 -0.106340185 0.13889882 -0.76643515 -0.70678395 1.9959224 0.97843283 0.11102092 -0.55651146 -0.2949298 -0.16328178 -0.25848675 -0.46162802 0.94632655 0.5556146 0.06051613 -0.12154921 0.19768736 -0.41744778 0.08945689 0.08872786 0.003530106 -1.9305924 0.77039844 0.75118935 -0.64436597 -0.09612439 -0.1371518 0.42404056 -0.16577882 0.5616984 -0.27249178 0.3574333 0.46623325 -0.10078715 -0.008322654 -0.24298717 0.08938845 0.05349051 -0.8172412 -0.1927353 0.7055008 0.22676991 0.32445008 -0.55343246 -0.1791745 0.47975624 1.2729194 -0.6544531 -1.4030608 0.33225167 -0.3086773 -1.7661626 0.62422025 -1.9974227 0.24650052 -0.19190171 0.31751612 0.43168402 0.7325813
915 0.42837754 -0.4039309 1.2103262 -0.88398004 0.12165414 -1.2393162 -1.1483914 -0.6544171 -0.8107436 0.50844043 0.37820527 -1.4342281 -1.0293057 -0.3531378 0.39799136 0.7383016 -0.23119983 -0.3332031 0.32889372 -0.5519543 -0.44750386 0.7439306 0.9234462 0.8429655 -1.8064615 1.3241398 -0.54867244 -0.15067986 -0.93943995 -0.48070621 -0.5264431 -0.17329584 -0.30992794 -0.9414975 -0.011980786 0.3891673 0.4830355 1.1007464 -0.43175322 -0.56722075 0.37254992 -0.12348562 -0.13473628 -0.61692977 0.35915464 -0.24022995 -0.66344166 -0.051102333 -0.49521273 0.4897649 -1.2332648 0.8882774 0.70652413 -0.5606849 0.810809 0.11817944 -0.8181255 -0.29348013 -1.0742682 0.33198148 0.23531657 0.042906865 -0.71496075 -0.016101573
2900 0.4416827 -0.46559924 -0.5455673 -1.3032107 -0.27204052 -0.67035013 -1.3145623 -1.0937986 -0.7637336 1.406325 0.25293848 0.5408871 -0.5970668 0.032952882 -0.32387906 0.15286076 0.2383835 -0.9025424 -0.3380094 -0.3600024 0.6186457 1.3260018 0.50802886 -0.24646924 -0.97571343 -0.06696771 -1.676209 -0.3815667 -0.48097193 -0.0287164 0.4251553 -0.1457765 0.32854193 -0.18947884 0.26804787 0.2798491 0.14803381 0.98138297 -0.056338493 -0.34151673 0.3089961 0.20774125 0.2877207 -0.73916095 0.31195414 -1.0599633 0.84543914 0.4518881 -0.3655416 0.49704307 0.053784728 1.3592422 0.4431145 0.25275794 -0.16538674 0.90507114 -1.365341 1.3300252 -1.2096967 -0.80273116 -0.06315662 1.1410248 0.75883454 0.061004054
1407 1.205879 -0.5559176 0.4060991 -0.23498587 0.11787039 -0.531712 -0.041125655 -0.99900514 -0.5735381 -0.2581152 -0.1111193 0.46710613 -0.6010204 -0.021541005 -0.54310465 -0.1208492 0.2980477 -1.0490035 1.4807948 -0.70782554 0.044903442 -0.5519755 0.49510542 -0.25543138 -0.94459605 0.80759984 -0.33952495 0.255053 -0.46066478 0.08472525 -0.16291183 0.8448275 -0.33655304 -1.2251036 0.5742276 -0.70410126 0.72695434 0.43530935 0.051334366 0.13948654 -0.27219534 0.846012 0.008436869 -1.006013 0.9502757 -0.042142373 -0.20583569 0.8938241 -0.8797094 0.29938105 -0.16565624 1.301483 -0.7644876 0.08571886 0.8914429 0.46290618 -0.16169173 -0.0007664967 -1.6146543 -1.1001261 0.18442625 1.0072033 0.23110363 0.9000976
2696 0.6416348 -1.7863675 0.12581809 0.24203637 -0.14933759 -0.55300295 -0.11816933 -0.79539174 -1.1256975 0.056859232 -0.5420096 0.78374046 -1.1681538 -0.35691145 -0.87782925 -0.7265419 0.6329207 0.2165427 0.5854355 -0.6364978 -0.1372678 0.010238563 -0.34853205 0.52110064 -0.6598702 -0.1119476 -1.5310493 -0.932103 0.20601563 0.04940266 1.4195536 -0.40394852 0.41347647 -0.02722636 0.77643186 0.15012479 -0.13212843 1.2606013 0.13620964 0.56630164 0.6555004 0.65466505 -0.033672985 0.4868907 0.41679177 -0.86990833 -0.47487068 0.29996854 -1.0621185 0.62894166 0.1059874 0.30497155 0.4067421 -0.44937852 0.1817758 -1.2313502 -0.15967162 0.6908937 -1.4313562 0.4319396 -0.119729154 0.5714972 0.8076647 -0.40429178
3152 0.28472108 -0.06494266 0.24904177 -0.55676115 0.24841858 -0.38243872 -1.4808481 -0.74830294 -0.4796299 0.36514455 -0.95742303 -1.2960762 -0.38656586 -0.85393906 -0.9358187 0.11616532 -0.59137475 0.2287091 -0.8599203 -1.4273902 0.1069954 1.2890298 0.5660002 0.0833053 -0.865996 1.2561923 0.8523516 -0.59255314 -0.53125674 -0.6577585 -0.17190352 -0.53746766 0.18881182 0.6534112 0.08545554 -0.507316 0.33986875 1.5850118 0.9656645 -1.0388848 -0.47037256 0.27858016 0.18307579 -0.1561549 0.8447947 0.05220695 -0.19266649 0.20297998 0.08940857 0.7837559 -0.7359516 0.25181857 0.153431 0.92219865 0.105471805 -0.5211646 -0.22395329 0.58078873 -1.1448402 0.039966706 -0.15915686 0.42887142 0.9867772 -0.32365504
2565 1.3893384 -0.3081854 1.045434 -1.1135808 0.081796505 -0.3460807 0.23149534 -0.7833379 -0.15349598 0.7269229 0.533603 0.20058104 -0.13985719 0.47332558 0.06908908 0.53702533 -0.34039873 0.7152673 0.7152861 -1.299479 0.04740118 1.0367604 0.15479094 -1.0751976 -0.7899521 1.4791739 -0.55588055 0.16849847 0.5895285 -1.163389 1.1446829 -0.5673389 -0.3624585 -0.29478773 1.3102167 -0.41722554 -0.53558326 0.7992026 0.41131365 0.0008265756 0.49582845 0.48621362 0.18474542 -0.4543404 -0.09226492 -0.73599553 0.37050605 -0.11541631 -0.25850794 0.4222514 0.14745905 1.059735 -0.08449462 -0.55585873 -0.12040103 -0.3817398 -0.23775421 0.034316048 -1.867327 -0.7571703 -0.060468536 0.23283452 0.22792993 0.0074110623
1503 0.96695423 0.31636468 0.9561577 -0.036094613 -0.38384455 0.1557332 0.33905402 -0.20185181 -0.7847235 0.64403075 0.3846917 0.84214795 -1.9800353 -0.12344299 -1.01737 0.050536137 -0.72693646 0.64482224 0.8554572 -0.7510969 1.9716214 -0.5313987 0.14604531 -0.17478086 -0.19085956 0.31292257 -1.6804582 -0.047745112 0.17856066 -0.6618187 0.61509496 -0.7413578 0.071333244 -0.3992554 -0.8429915 -0.28727886 1.3834865 1.3018036 0.19986121 0.07301183 -0.46744785 -0.078311466 -0.33564946 -0.94416815 0.36393923 0.19618566 -0.453849 0.12818812 -0.3843124 -0.09454538 0.323529 0.45238072 0.048039224 0.6627688 0.15277587 0.5936175 -0.76792413 0.79998374 -1.7092682 -0.40544432 0.5368864 -0.33856902 1.1136538 -0.22689858
1221 -0.26912653 0.44968784 0.6273239 -0.80670315 -0.82141477 0.09575724 -0.47748712 0.7723792 -1.451061 1.2210274 0.9180987 -0.32241157 -0.37227178 -0.5273518 -0.07796261 -0.93857414 -1.2368653 -0.055008944 -0.6254793 0.631349 0.28590468 0.86884946 0.724477 0.3322628 0.17648032 0.5664959 -0.788536 0.097855434 -0.24778756 -0.37643856 -0.6398539 -0.38829723 0.5312621 0.09082866 0.77350503 -0.1882261 0.44806123 0.8628349 0.110150486 -0.9286078 0.13663404 -0.70672053 0.26099697 -1.1352481 -0.41275957 0.90447676 -0.1725555 -0.45081812 -0.4069566 -0.4773087 0.22321802 0.8658039 -0.25784627 -0.31978676 -0.0939728 -0.5169658 -2.0010903 -0.2239812 -0.72687906 -0.14890349 -0.5566217 0.361421 1.4582524 0.47759807
3227 -0.023583204 -0.367913 0.549895 -0.3490768 0.3135433 0.08481673 0.77994907 -0.37453532 -0.95801985 0.18733323 -0.43042168 -0.94873 -1.7652763 -0.19850565 0.3138098 -1.2275746 -0.2268263 -0.2028816 0.9072438 -1.0638916 1.0448593 0.254123 0.11132717 0.46792972 0.9564875 0.81245416 -0.41839057 -0.6303677 0.5247758 -0.6266014 0.045762666 -0.13091256 1.0534647 -0.046187986 0.2695698 0.03432014 0.4156163 -0.09032891 0.014791017 0.21237068 -0.43196377 0.6640935 7.250191e-05 -1.1000218 0.35680988 0.6840909 -0.36692566 0.7634288 -0.26093915 -1.5648104 0.6905016 0.77686703 -0.36335516 0.85380304 1.2759469 0.2837972 -0.40367737 0.16487032 -0.7281599 -0.9224741 0.15608168 -0.13247907 1.7739133 0.5345146
1413 0.2400705 -0.0003068183 0.8724649 0.813337 -0.3785393 -0.8740203 -1.0927063 -0.61362773 -0.4754777 0.7244105 -0.87081456 -0.073817 -1.0910295 -0.27216765 -1.0556506 0.36540073 -0.3651164 -0.56598467 -0.063977614 -0.11332289 1.140671 -0.21709411 -0.04737275 1.028036 -0.5741954 0.7627713 -0.638201 -1.1431435 0.04309776 0.026838372 -0.40839982 0.76704067 1.0706259 -0.5478518 -0.62354386 -0.51314634 0.80002517 0.9544887 0.4084749 -0.4830245 -0.16374446 0.08743457 0.34558654 -1.3003312 0.77341115 0.71070606 -0.38158593 1.0599664 -0.027232982 -0.8124297 -0.43234658 0.11828391 0.54044247 0.21975744 0.5501991 0.5268995 -1.5300723 1.0270152 0.1884476 -0.6442729 -0.12229314 0.75964814 1.345288 -0.45939207
935 -0.5010774 -0.081476636 0.22930393 0.35553333 -0.4433483 -0.04584618 -0.3987326 -0.28503156 -2.0384283 1.2932138 -0.42260674 -0.644464 -2.3213112 -0.613953 -0.14840637 -0.9851974 -1.2070642 0.04608648 0.52398676 -0.10800553 1.0858988 -0.20963894 0.8391944 0.66296846 -0.7245343 0.4577509 0.08376703 -1.1318545 -0.16663186 -0.48566067 -0.3932168 0.2710979 0.8422675 0.87587535 -0.5771644 -0.53393674 0.6690935 1.2133691 -0.011401508 -0.67998934 0.49782684 -0.29321024 -0.053818814 -0.893737 0.7794097 0.63957924 -0.585645 0.12819394 -1.0949042 0.5147953 -0.28421032 -0.24635912 -0.28039703 0.5527847 0.1729309 -0.04696939 -0.50668263 0.6486326 -1.9186609 -0.80997294 -0.4377286 -0.06990229 1.1732484 -0.30993882
868 1.0154623 -0.22837429 -0.012782332 0.8496945 -0.034934636 -0.05789375 0.037506018 -0.91611737 -1.0025795 1.103895 0.23097166 0.037148103 -1.8906499 -0.9762433 0.23360789 0.34149936 -0.22571824 0.1921672 0.5069804 -0.20429774 0.72711223 -0.65400213 -0.56019235 0.085244425 -0.7231067 0.7493544 -0.38917843 -0.7492104 -0.34706274 -2.1260958 -0.5580201 0.006857973 -0.16490777 -0.048822723 -0.8045026 -0.6279031 0.84070843 1.2702862 0.4268803 -0.005390971 -1.6022604 0.14549488 0.39874768 -0.98860526 0.71117246 -0.357556 -0.98289406 0.47623575 -0.6791827 0.33860347 -0.89554226 1.0512568 0.30705982 -0.41088587 -0.37857985 -0.4417527 -1.167988 0.17912564 -1.7103193 0.0656981 -0.29205605 0.08885713 1.4070555 -0.087572224
806 1.2040439 0.58817995 0.55581594 0.19541506 0.67771757 -0.9725659 -0.17373732 -0.55314016 -1.4019365 1.7195224 0.26318264 -0.46291494 -1.6686546 -1.4104636 -0.3593818 -0.7992264 -0.30567965 0.64868325 0.3675174 -0.50057507 1.3886161 0.2706673 0.21329634 -0.1330291 -0.7394008 0.8516359 -0.34484762 -0.024057118 -0.38201454 -1.0202913 -0.85736954 0.40398055 0.062066305 -0.031069756 -1.0954634 -0.13430476 -0.35943848 0.9846544 0.34388494 -0.12489724 -0.29973748 -0.44725502 0.030006755 -1.3904911 0.7580239 0.25321886 -0.56829435 0.31258875 -1.3531554 0.4100048 -0.58981687 1.1459721 0.24447861 -0.2615526 0.3853479 0.6433924 -0.7692253 0.5071078 -2.0746953 0.27163494 -0.09714236 0.59695214 1.0622128 0.6870377
1747 0.36301875 -0.4708517 0.04491758 -0.86040473 -0.33160442 0.03332316 0.47972867 -0.38147527 -1.633149 0.4639439 -0.6709086 0.8768678 0.21693215 -0.88276756 -0.24877512 -0.46993667 -0.4880309 0.26357436 2.1502204 -0.3294227 1.115765 -0.45311862 -0.033958133 -0.3264115 0.37305546 0.06373787 -0.91581017 0.5867851 -0.33889467 0.25729778 0.0854203 -0.519155 0.20129913 0.03515994 -0.6807404 0.3453877 0.4393338 0.9585202 -0.39350992 -0.47922882 0.20268506 -0.21651638 0.27688813 -1.0723928 1.3326331 0.9953536 -0.29616243 0.3503809 -1.4696672 -1.023306 -0.24613516 0.2604372 0.24077608 -0.39389426 -0.62704015 -1.2526 -0.12506537 1.01736 -1.0276344 -0.46877244 0.9553895 -0.23664646 1.3652987 -0.5462274
2703 0.145977 -0.5729537 0.06501298 -0.48298335 -0.2253285 -0.26570773 0.6003037 -0.9912474 -1.2813097 1.4334848 0.13944282 0.6815687 -1.27706 0.3539044 0.8767875 -0.7864959 0.34995645 0.35817412 0.5169754 -1.7768195 0.32946554 0.52172905 -0.17958248 0.3056089 0.0572852 0.31685558 0.033259597 -0.7350645 -0.27013004 -1.0606809 0.23857127 -0.28816205 0.3050774 0.0051965527 0.1343604 -0.45595357 0.17307636 -0.24868052 0.13615713 0.036701515 0.5892991 -0.0071613267 0.28350815 -0.057689045 0.96737903 0.4439184 -0.61222255 1.5297225 -1.2732259 -0.967537 -0.8140102 1.4564708 0.6217069 -0.4024986 0.33335903 -0.8063157 -0.5050428 1.2196199 0.12985761 -0.07685654 -0.08188835 -0.1504186 1.3185124 -0.20581652
801 0.7152014 0.22833915 0.09040231 -0.3812287 -0.41512334 -0.7771263 0.40312162 -0.7714251 -1.3637449 1.2795912 0.479263 0.25781554 -1.2773424 -1.4577341 0.33647773 0.047199544 -0.80538005 0.9346749 0.74761 0.33274332 0.05652304 -0.364773 -0.26050806 -0.10755894 -0.4174629 1.2193797 -0.09293893 0.10925551 -0.09902462 -0.82414985 -0.5315864 -0.41072848 0.08857779 0.48709285 -0.31356534 -0.55737936 0.005286494 0.52316684 0.44472438 -0.44855478 -0.021530822 0.3541517 0.14496396 -0.84503794 0.47245428 0.20954756 -0.531669 0.46794647 -0.9945378 -0.47591814 -0.44639167 1.4859047 0.4368468 -1.5292608 -0.4885489 -1.1028767 -1.6705426 0.18549378 -2.0527947 1.295553 0.15427314 0.27998316 1.2412876 -0.0092505235
1083 0.58569485 0.14276657 0.47752345 0.380527 -0.44543508 -0.17890692 -0.11004981 -1.5217128 -0.73077166 0.011836346 -0.2616369 -0.52601117 -1.7729678 -1.20557 0.05472705 0.3267033 0.01804843 -0.806331 0.7282833 0.15289639 0.90037966 -0.47611117 0.25986466 0.30414736 -0.51938415 1.0474602 -0.16548502 -1.082887 -0.20133206 -1.4980843 -0.8570956 -0.9372006 -0.10669356 0.12265522 -0.053842686 0.40172908 0.2771381 0.92011803 0.2182919 -0.42192626 -1.4391999 0.13874683 -0.07692892 -1.3076905 0.626065 -0.20508276 -0.9505084 0.22705019 -0.23268034 0.19120163 -0.58257717 1.2267541 1.1188612 0.048256174 -0.28560996 -0.29882768 -1.496521 0.4129549 -1.464379 0.45056957 -1.0977482 0.7174243 1.1469902 -0.60690856
2822 0.019439517 0.024952851 1.499489 -1.3534714 0.39832315 -0.93347275 -0.31321865 -0.37919366 -1.4867666 -0.16585293 0.95365036 -0.38584608 -0.21337046 -0.6175246 0.05466093 0.81381226 -0.5400603 0.04940753 0.7409759 -0.6373548 0.0051287697 0.5461533 0.64958453 -1.2548943 -0.620485 1.3420713 -0.8136372 0.45558393 -0.35689265 -0.82700294 -0.68143755 -0.54355514 0.18817538 0.29960874 0.15311524 0.63372076 0.2917422 0.30442187 -0.14558 -0.24074098 0.13089962 -0.8457993 0.41172686 -1.8396596 0.6929618 -0.11836203 -0.080688134 -0.015910443 0.6344534 0.6416321 -0.61944616 0.07352829 -0.682144 -0.16886672 -0.83947486 -0.39172152 0.0015544841 -0.13065778 -1.3967465 0.13673785 -0.07432019 0.17897287 0.6700021 -0.2323652
2740 -0.14537674 0.105151415 0.942922 -0.90207124 -0.3318961 -0.4672509 0.03529618 -1.4634024 -1.0770833 1.1814425 -0.18566619 -0.47660226 -1.444431 -0.79690784 0.3407066 0.0017820734 -0.68045455 -0.2217314 0.5627158 -0.4717264 0.46121505 0.56589085 0.10417818 0.11411269 -0.24642624 1.2163266 0.5889466 -0.14097652 1.0485241 -0.59203225 -0.7773153 0.14434113 0.7289 0.09411705 -0.22096594 -0.10883371 0.37261033 -0.20468321 0.37755078 -1.1855524 0.85540557 0.49108583 0.27123123 -0.6953405 -0.32371828 0.18368345 -0.8559982 0.9801691 0.3928404 -1.4943609 -0.5767473 -0.8906605 -0.35881746 -0.46017373 -0.11899468 -0.8117784 -1.2087756 0.49148 -0.2564152 -0.07540822 0.01270015 -0.2136922 0.999888 -0.9554371
14 1.4039294 0.30863824 0.65001136 -0.026686126 -0.046995495 0.6140051 0.87441146 -0.299595 -0.8370819 -0.4928238 -0.40020528 -0.20637697 -1.5142881 -0.7707851 -0.41822278 0.38216686 -0.26025683 -0.21506241 1.6560254 0.5451317 0.63268584 -0.13918135 0.41205296 0.33397996 -0.20844638 0.88678384 -0.81053877 -0.7324256 0.029456837 -0.18294133 -1.2693347 -0.7993491 -0.16770607 -1.3810234 -0.09515447 -0.18412007 1.4312527 1.1864772 -0.4158012 -0.2568521 -0.33151048 0.36541688 0.41069776 -1.2324157 0.18527846 0.5294723 -0.039866023 0.6499064 -0.14977613 0.2699867 -0.7044636 0.6604931 -0.55187666 0.05951326 0.14336409 0.23588587 -0.31437984 0.2327353 -0.92304325 -0.43064144 -0.29381368 0.21967645 0.4160685 0.42497244
937 0.11776595 -0.929684 1.045088 0.93684405 -0.274832 -1.1372697 -1.2607868 -0.6754162 -1.6740123 1.0407717 -0.7136611 -0.7863565 -2.0109267 -0.30987918 0.12841399 -0.8634193 0.20410804 0.13381182 0.69212973 -0.5284734 1.563947 0.4804353 0.29614282 0.4247613 -0.49867788 0.708652 -0.5812294 -0.29186884 -0.39791667 -0.7129095 0.34734166 0.37110624 0.46958384 0.6607854 0.39329797 0.26817912 -0.09141949 1.351769 0.05485219 0.0033421882 1.1057664 -0.21476194 0.3140432 -0.52631813 1.0525513 0.573848 -0.7182979 -0.2528797 -0.29810363 0.24478066 -0.059054933 0.7856993 -0.4785929 -0.08777091 0.37642008 0.30064207 -0.9458997 0.9292314 -1.7840378 -0.16959733 -1.4877064 0.31547695 0.74028414 -0.0020205434
1226 0.089782506 -0.29605883 1.2827872 -0.699012 -0.13660504 -1.0847251 -1.0012839 -0.5416011 -0.92776215 0.55051476 1.0273219 -1.4561055 -1.2515988 -0.3377901 0.5569036 0.5397598 -0.6631626 -0.25473514 0.32399783 -0.3386554 -0.69969326 0.89889354 1.0249736 0.8706911 -1.3432738 1.5257207 -0.7653079 -0.28509283 -0.8639788 -0.83854246 -0.59482116 -0.08421594 0.09638538 -0.48867857 0.28921375 0.20182429 0.40845516 0.9106742 -0.10616781 -0.5680807 0.29650897 0.32616073 -0.2594881 -0.3656823 0.26397777 -0.14566605 -0.38266295 -0.33668804 -0.30976087 0.43703896 -0.72269636 0.88923234 0.5667756 -0.5413762 0.6201389 0.13514858 -0.632909 -0.19741602 -1.0298818 0.28366908 0.06420205 -0.40619388 -0.57833356 -0.09406225
1081 0.49892476 -1.1245258 0.9946878 -0.07024945 -0.06946668 -0.23762211 -0.23157763 -0.7112289 -1.319577 1.6768454 -0.5064972 -0.48306063 -1.2132347 -0.5887882 0.3157686 -1.142526 -0.3184739 -0.48013693 0.5024726 -0.532154 0.35314372 0.97608316 0.58358204 0.09700222 -0.32846636 0.3986013 -1.1968507 -0.008765143 -0.87311965 -1.4526136 -0.90824205 0.6620358 0.072856806 0.55148524 -0.76229954 0.24151948 -0.13584033 0.4593607 0.23749349 -0.18865432 -0.44972152 -0.16491397 0.6828032 -1.7036905 1.3146244 0.2521899 -0.17272194 0.85064936 -0.11262739 0.1853359 -1.2337831 0.64984375 -0.10406149 0.9804665 -0.22831143 0.21277273 -0.47299522 0.5108873 -1.6618559 -0.924222 -0.34480914 0.028330302 1.4610437 0.3441122
1245 1.2118503 0.3368129 -0.04449127 -0.45078915 0.35314184 0.553791 -0.62705785 -0.6858397 -1.7538917 1.0920923 0.3303599 0.3664963 -0.19130367 -0.054305885 -0.58663684 -0.32954726 -0.65252554 -0.43898475 -0.08086552 0.03634671 -0.69671655 -0.78780293 0.1987347 -0.89644563 -0.12248095 0.47364417 -0.6454887 -0.42191157 0.6754536 -0.0021554066 -0.31437337 0.9262351 0.6392524 0.22146927 0.46534523 -0.79065835 0.89499354 -0.8647885 -0.06253271 0.20387447 -0.27523986 0.9276178 -0.385563 -1.7775264 0.9670883 0.2766911 -0.39941055 0.3731218 -1.4278672 -0.58325565 0.15742333 0.49362767 -0.30581033 -0.23690905 0.26364568 -0.495837 -0.54088616 -0.3047991 -1.6255009 -0.71649516 0.30509466 0.33448827 0.43001708 1.0363039
508 0.2205972 0.1089224 0.6527746 0.011292308 -0.91621184 -0.3452925 -1.5796182 -0.393496 -2.031693 0.85487634 0.10279494 -0.30968136 -1.1306608 -0.23864743 0.35028008 -1.0517434 -0.83085686 0.6965795 1.0747039 0.14295146 0.69068134 -0.112344556 0.4054585 -0.3112819 -0.7073539 0.22826302 -0.2600851 0.4210183 -0.4878087 -0.94969994 -0.046808206 0.15894343 0.63312715 1.116389 0.4411788 0.5818887 0.34573746 1.0903689 0.65326107 -0.7402995 0.34699607 -0.18863574 0.14562503 -0.6405503 1.0008003 1.3253468 -0.64130837 -1.0751631 -1.220064 -0.73328066 0.048747227 0.97037625 0.09103249 -0.3854627 -0.2570308 -0.6819035 -1.448788 0.91494286 -1.4342648 0.18601008 -0.8721361 -0.19796312 1.0902138 0.06916755
510 0.55561763 -1.5702703 0.42297548 0.30719215 0.38276866 -0.9356517 -0.4364736 -0.9165184 -1.0445873 0.39008874 -0.11523025 -0.6263823 -2.083872 -0.16935617 0.3849708 -0.37728247 0.59622055 -0.9310186 0.35088825 -0.87662286 1.2427346 0.18910013 0.44574592 -0.08090038 -0.3270263 0.83074284 -0.8318646 -0.8069593 -0.9033797 -1.3740255 0.30629322 0.1139768 0.13797353 0.1410105 -0.20145686 0.59887516 0.38442773 0.4948146 0.3018746 0.20420615 -0.4147582 0.108633496 0.60834104 -1.3118525 0.74389654 -0.7810145 -0.8475885 0.7659578 -0.8500371 0.6764971 -1.4195925 0.4928287 -0.11131846 0.58856857 -0.12629342 -0.84062 0.6747198 0.37092307 -2.1779823 -0.64997286 -0.17645489 0.59998256 1.0784389 0.34148797
3150 0.63654125 0.25244483 0.028692406 -0.13095275 0.35767958 -0.3012922 -1.5344057 -1.1166601 -0.31874493 0.64987767 -0.7361244 -1.4087873 -0.57961565 -0.6744914 -0.91514176 0.22683139 -0.6496876 0.07821592 -0.839865 -1.476814 -0.1561316 1.1591772 0.41967687 0.037851937 -0.70517564 1.1701303 0.55234903 -0.31924576 -0.72004926 -0.72350997 -0.32751036 -0.6891854 0.24889953 0.8793762 0.016922317 -0.42575312 0.2612991 1.4675488 0.94116193 -0.8913487 -0.7604046 0.4385071 0.035121772 -0.2836777 1.0301701 0.3937673 -0.35067335 0.32862854 0.11389922 0.244836 -0.842867 0.29712865 0.2004357 0.65214276 0.36338624 -0.3575598 -0.2239669 0.6123179 -1.2783064 0.22688968 -0.16598885 0.294298 0.6675267 -0.70943165
2878 0.35924995 -0.3286521 0.74087673 -0.40969154 -0.49310294 0.71931964 -0.64716154 -0.36715627 -0.67308795 0.03636528 -0.8600437 -0.6626239 -0.29223824 -1.3153024 -1.0021069 -0.8352357 -0.98928964 -0.62522626 -0.053323522 -0.57324207 0.32933545 0.08181257 0.3630052 0.7013002 -0.61909693 -0.43173108 0.27616268 -0.61810076 0.7043445 0.27942556 -0.7482247 -0.9017353 0.9871173 0.6785919 -0.45445004 -0.33179268 0.40973467 1.6197318 -0.15840313 -1.592639 0.40768096 -0.06849683 -0.048241 -0.56236875 0.5272796 1.3694994 -1.0860761 -0.91667813 0.1767173 0.07456189 -0.4356957 -0.22774814 0.41200364 -0.6797654 -1.2327255 -0.57070166 -1.2055578 0.7823999 -1.3147724 -0.017124549 -0.712732 -0.11733493 0.44730666 0.07513945
25 -0.29715127 0.20547634 0.92243314 -0.63994116 -0.35173985 -0.050596546 -0.12063879 0.47429836 -1.246999 0.47351465 1.2197661 -1.1855241 -0.63462377 -0.6983141 -0.3328136 -0.79561186 -1.188646 0.08097228 0.19372243 0.012941716 -0.47890761 0.9523244 1.0353953 0.39207676 -0.07936128 1.1629213 -0.43611443 0.47415692 -0.6038512 -0.31836435 -0.42289695 -0.056501787 0.28606954 0.42597243 0.51904553 -0.69906706 0.18586883 0.833136 -0.4248785 -0.84861207 0.013255976 -0.4067455 0.39014727 -1.1944013 -0.11211219 1.2735995 -0.19603789 -0.43337524 -0.36624 0.8036635 -0.14704809 0.6881967 0.57008356 -0.51283264 0.22430944 -0.19570643 -1.0229391 0.3054331 -1.3849176 0.17949393 -0.48993793 0.55777454 0.7800066 0.6096676
2500 -0.52978235 -0.049821153 0.49024656 -0.074374035 -0.57561445 -0.28325692 0.6210215 -0.01051802 -0.69693315 -0.5804046 -0.119136594 -0.7777601 -1.7622272 -1.4553726 -0.08045208 -0.3285552 -0.5642918 -1.4349375 0.03279053 -0.15103526 1.0033183 -0.43214682 0.5604889 0.41676635 -0.4736756 0.5143208 0.83572733 -1.1909441 -0.1216546 -0.9790388 -1.3134475 0.2795743 0.70564526 0.29407623 -0.057363633 -0.40210485 0.008190494 1.4520046 -0.024831854 -0.8548703 -0.025535828 0.04809972 -0.9905196 -0.97413456 0.35380453 -0.2953623 -1.363945 0.16354106 -0.097233035 0.03514472 -0.3146879 -0.2834452 0.6154415 0.5679193 -0.00025673417 -0.5058336 -0.77319986 0.14989471 -1.4519955 -0.03313759 -0.114789955 0.90005136 1.0242901 -0.29110673
1225 -0.09567041 0.074580275 0.79725075 -0.31302398 -0.5299381 -0.060362313 -0.117691696 0.33042547 -0.75158095 -0.46169958 0.78567076 -1.4369643 -0.75757015 -0.7304248 -0.5790197 -0.2195511 -0.56039095 -0.15449503 0.46529827 -0.28958046 -0.71596223 1.1302251 1.2679105 0.6900614 -0.45496076 1.1574951 0.44119078 -0.18769708 -1.18668 -0.54169005 -0.724776 0.047998447 0.16305725 0.7135089 0.5666824 -0.499515 0.1807497 0.95157456 -0.47004977 -0.9336373 -0.32402086 -0.41626343 0.7858479 -1.1523079 0.25252944 1.3262861 -0.6068705 -0.25888512 -0.71251374 1.1135254 0.038392715 0.33836 0.29167554 -0.232675 0.61292 -0.25304174 -0.75121844 0.27569604 -1.5099531 -0.14903916 -0.3776884 0.748822 0.91257304 0.7063672
2261 0.048004065 -0.24597406 -0.5172265 -1.3946116 0.039936084 0.7445682 0.02313001 -0.56989545 -1.6024514 1.0554423 0.7021486 -0.32512555 -0.38712573 0.17705773 -0.7875098 -0.8768246 -0.5075548 0.09401233 -0.4456436 -0.6214917 -0.55630386 0.330394 0.3501228 -0.31558093 -0.13697538 0.5671638 -1.2473701 -0.21951406 -0.07611617 -0.15603065 -0.427963 0.19844164 1.308837 1.1948326 0.9720087 -0.8278671 0.50015813 -0.435181 0.6196669 -0.7948483 -0.998364 0.31546345 -0.7822832 -1.4723953 0.4126348 -0.3084918 0.23696695 0.8207236 -0.24883887 -0.9337127 -0.49730873 0.41648522 0.15367785 -0.42428347 0.34808245 0.22634299 -0.14896233 -0.14934932 -1.3933268 -0.5108783 1.0686364 -1.0671743 0.27259022 -0.13452347
2501 -0.43520677 -0.04573076 0.23596777 -0.09892524 -0.59218264 -0.29750872 0.646611 -0.1110097 -0.683529 -0.5301164 -0.11930735 -0.92301905 -1.8468981 -1.4183663 -0.15953408 -0.31940234 -0.35142738 -1.3382509 0.10724797 -0.108229265 0.8381559 -0.34077173 0.31976646 0.3527795 -0.5311496 0.49681967 0.8832646 -1.2289019 -0.30061504 -0.9056801 -1.1278633 0.40933558 0.82288337 0.28480282 0.120266356 -0.6222614 -0.08905842 1.4118603 -0.06131426 -0.78111064 -0.22550955 -0.026036786 -1.0867941 -0.8719932 0.33010992 -0.34725392 -1.4251126 0.1756064 -0.27923638 0.11615373 -0.16905056 -0.25459445 0.7677509 0.4455021 0.12831582 -0.35591266 -0.744703 0.1361226 -1.566868 0.24260396 -0.108278796 1.0245798 1.0343276 -0.23496394
40 0.39892042 -1.203901 0.94008094 -0.7778817 -0.82956046 0.9657742 -0.5213005 0.5058079 -0.7671937 0.8516981 -0.03529737 0.062345795 -0.2928289 -0.36663863 -0.57282484 -0.21757342 0.35561895 0.46914604 -0.05913056 -1.522598 -0.4473324 -0.43760574 0.67274636 0.0025984964 0.49335918 -0.12080108 0.24917872 -0.3998385 -0.041529063 -0.6428518 1.3253587 0.56459117 -0.01662327 -0.4229945 1.0239294 -1.1450034 0.7682122 1.0587877 0.4901229 -0.70517284 0.066695094 -0.63290316 -0.15212621 -0.76040024 0.18189667 -0.096205354 -0.8455798 0.19012728 -0.123381235 0.49578992 1.364018 0.9000286 -0.37090164 0.76490396 0.1875058 0.053916305 -1.1314896 0.115429334 -0.64627945 -0.5206201 -1.2628446 -0.21066596 1.604091 -0.91716367
1816 0.8995326 -0.49449787 0.15628365 -0.3872094 0.18587266 -0.1715019 -0.07221115 -0.46737346 -0.5172122 0.008516742 -0.5892782 -0.25074783 -0.5302461 -0.32300186 -1.5895115 -0.830244 -0.26893517 -0.41946942 -0.6986655 -1.6111544 -0.28858706 0.6657892 0.572727 -0.09615965 -0.061258093 0.63237065 -1.1653374 -0.048580147 1.2799251 -0.13833371 0.4279605 -0.53381777 0.7990097 0.7459053 0.12560338 -0.66616076 -0.5107828 0.6833331 0.47944528 -0.57447016 -0.61374974 0.66978395 -0.108868174 -0.72680724 1.0254184 0.20511915 -0.013128623 -0.09459735 0.87852526 -0.08686711 0.26371914 0.37173164 -0.51059353 -0.21367206 0.6651371 -0.7033954 0.22026494 0.004892215 -2.3611262 -0.6915577 -0.5087206 -0.70625997 0.7459557 -0.60723525
1419 1.2646537 1.1870006 0.740041 0.030776821 -0.29302073 -0.33595225 -0.4592591 -0.5829728 -0.020017011 0.9563228 -0.4611547 0.30067357 0.17001988 0.038921855 -1.667509 0.2625147 -0.39443076 0.91391855 0.50178736 -1.049244 0.19151035 -0.40161368 1.0457661 0.5467933 -1.1502347 0.22860478 -0.53733575 0.4366183 0.16343635 -0.68176204 -0.7878676 -0.19264601 -0.4145803 -0.8753964 -0.06931497 0.00023211277 0.39438814 1.1632396 0.8266461 -0.18908295 -0.7362613 -0.5551238 -0.9758203 -1.3397038 0.0070643057 1.0627007 -0.7970761 0.41394463 0.5001775 0.008338912 1.0816871 0.54520625 0.16655912 -0.5506795 -0.16245596 0.6710842 -1.1556858 0.2888492 -1.1654868 -0.17649473 -0.21635799 0.07534909 1.3053286 0.11826641
1371 -0.3022905 -0.9161951 0.16988313 -0.8434281 -0.40437457 -0.33398283 -0.48902017 -0.9054859 -1.4927099 0.3740467 -0.5040495 -1.3186725 -0.6732248 -0.2404272 -0.83908314 -0.50002116 -0.09393061 0.05076144 0.41452947 -0.95664257 0.8656006 -0.015432628 -0.03472535 0.6759938 0.9426706 0.660891 0.6305662 -0.46166325 -0.21972662 -0.26779214 0.32465482 0.014816012 0.8871338 1.2190486 0.20664263 0.07812705 0.054442383 1.6061184 0.40563887 -1.0840797 0.27929032 -0.58077353 -0.58266705 -0.34836924 0.7495409 0.18591407 -1.0540975 0.78374964 -0.45167905 0.05738913 0.089587644 -1.4414225 -0.0844627 -0.47086647 0.12899958 -0.326871 -0.22850351 0.6019478 -1.5305089 0.7502088 0.5299622 0.30432358 0.5247349 -1.6864685
1372 -0.011774244 -0.9326839 0.30627435 -0.7595203 -0.35642597 -0.24366415 -0.2139644 -1.109869 -1.3253351 0.19356243 -0.5586904 -1.2375989 -0.73874605 -0.3694624 -0.7875471 -0.51216614 -0.06967144 0.15938683 0.43490648 -0.9543502 0.9049574 -0.31222546 -0.2196434 0.61905694 1.0689954 0.5908872 0.6296009 -0.53143156 -0.21428438 -0.3447872 0.3310972 -0.08546107 0.9805298 0.87673384 -0.034021053 0.013582935 0.13064092 1.2903876 0.35918167 -1.032319 0.24296142 -0.2973169 -0.5269687 -0.36987174 0.95355386 0.2627929 -1.2755649 0.9235805 -0.45368677 -0.12207879 -0.10696733 -1.4043608 -0.0730046 -0.3336482 0.0677322 -0.36689588 -0.31541246 0.65715307 -1.2369108 0.87205964 0.8981666 0.3443133 0.4833874 -1.5503837
3250 -0.222961 0.6037647 0.13056895 -1.1746387 -0.9864182 -0.0070347073 0.4556317 -1.6340955 -0.6395111 0.24478063 0.9486797 0.062413402 0.0163084 -0.23973034 -0.18313219 -0.15814853 -0.35517645 0.0009079747 0.64032143 -1.0052896 -0.14995645 -0.15999098 -0.36177388 -0.803324 0.28219533 -0.15435235 -1.0449177 1.313544 -0.18497469 -0.38783652 -0.30137736 -0.392982 0.19241852 0.9118797 0.7040439 0.70158315 0.10557609 1.0316136 -0.0052338014 -1.0070338 0.32617843 0.7152561 -0.097432904 -0.102775395 0.12679476 1.599167 0.43614087 0.24507286 -0.70592034 -1.232387 -0.15003195 0.45897537 0.66765165 -0.40537322 -0.99106574 -1.2874608 -0.6851371 0.37746036 -1.645148 -0.1336668 0.3447342 -0.13926725 0.30158275 -0.6791679
3088 1.2930995 -0.5722546 -0.111526325 -0.77847266 -0.4815381 0.13751337 -0.55925053 -0.3990522 -0.5455837 0.8161335 -0.9061464 0.03377468 0.532121 0.11093918 -0.3043479 0.09976771 -0.25204754 0.3183923 1.6024773 -0.88458914 1.1128724 1.4880587 0.11732329 -0.24100938 -0.047111217 -0.24949723 -0.061904866 -1.0547751 -0.3976075 0.20582892 -0.34745213 -0.54297787 -0.2495306 0.8576844 0.841946 -0.102337636 -0.14191774 2.3204687 -0.7043725 -0.5234716 -0.079271406 0.2076816 -0.19350436 -0.035489786 0.7401622 0.35950884 0.33387098 0.11100934 -0.7541969 -0.32031628 -1.32425 0.38450915 0.8309825 -0.27188784 0.06475889 -1.1112499 0.4461748 0.8772597 -0.8938474 -0.93741053 -0.94659317 -0.19480622 0.33896244 0.17303185
2624 0.61349016 -1.8998224 0.1302921 0.106754325 -0.18688005 -0.68229496 -0.053326536 -0.598642 -0.78788537 -0.44311023 -0.4560105 0.4497224 -0.59143716 0.07648902 -1.0075805 -0.3985221 0.34180358 0.11470146 0.9375938 -0.9727526 0.086059 -0.24763273 -0.68539184 0.51323843 -0.26285982 -0.0045231297 -1.2328401 -0.3257799 0.82270545 -0.12258933 1.3588047 -0.48942474 0.48259017 -0.09958068 0.7079598 0.14189784 0.062349964 1.6320107 0.40625933 0.5416635 0.5217568 0.8349334 -0.0010748251 0.2938632 0.4550275 -0.39317536 -0.54143864 0.14504945 -0.40097687 0.28411555 0.25871307 0.2352678 0.37423387 -0.63525176 0.64610267 -1.1666543 -0.329661 0.7938377 -1.6375111 0.5056799 -0.03701863 0.4959326 0.7233043 -0.29236785
1216 -0.022901375 -0.23555158 0.46644917 -0.38802835 -0.3900634 0.31738046 0.25715303 -0.57001835 -1.2413117 1.4433678 0.98787934 -0.2226665 -0.6615156 -0.049459383 -0.23360726 -0.6735156 -0.6555998 0.25072727 -0.05489177 0.41024008 -0.382788 -0.21610622 -0.46180156 -0.044591844 0.8311321 -0.115280576 -2.0232751 0.47291422 0.22779408 -0.26100877 -0.124015644 -0.095474996 0.71824574 -0.08750015 0.81683755 -0.1280253 0.5209726 0.42856693 -0.121221684 -0.23714961 -0.01932988 0.045892403 -0.51680577 -0.597122 -0.21622306 0.15814468 0.054654095 0.45485833 -0.7373493 -0.417204 0.5437537 0.891592 -0.28965488 -1.6317756 0.41988668 0.17536992 -1.5160291 0.5022754 -1.810538 -0.19104204 -0.16790542 -0.1926303 0.39863095 0.054720744
3209 -0.80502963 -0.7695462 0.54698485 -0.37695578 -1.0166833 0.030064594 0.07443206 -0.38478056 -1.1770315 -0.646985 1.5122646 -1.1294535 -0.6513563 0.5078076 0.07661372 -0.5866835 -1.3221083 -0.5449935 0.09832436 -1.0506907 -0.08280914 -0.18336426 0.14661531 0.051558398 0.18371941 -0.25483036 -0.8080128 -0.3161866 -0.28748122 -1.5027488 -0.35753617 -0.22622731 0.53755677 1.2517636 0.5625891 0.17505679 0.29371274 1.7813876 -0.01635897 -0.49628627 0.049802374 0.16436063 -0.4914346 -0.89330846 1.3875338 0.093819134 -0.6116187 -0.15803441 -0.79335946 0.30372268 -0.1967147 -0.29101908 -0.11915128 0.24895781 0.033116035 -0.7996265 -0.6286732 1.1664205 -1.6212369 -0.57419944 -0.6524933 -0.45420116 0.6330187 -0.45386028
35 0.47354525 -0.8763246 -0.42013258 -0.9153966 -0.6882657 -0.4907239 -1.0736021 -1.3110379 -0.48955014 1.6281469 0.10090344 0.44801548 -0.45688877 0.22182871 -0.7638498 -0.32725704 0.2653079 -0.84244865 -0.110922925 -1.0512961 0.6480612 0.968764 0.5053816 -0.021584904 -1.2515408 -0.24312352 -1.302267 -0.21737841 0.07162524 -0.24623306 0.36652544 -0.02068607 0.14440684 -0.3018021 0.37862873 0.10936236 0.23810336 0.94414455 0.58284056 -0.049666468 0.08168975 0.1952295 0.59324867 -0.68398875 0.2682342 -0.49847445 0.5056837 0.6708534 -0.3797404 0.68873 0.4953131 1.3707569 0.30911642 0.20093422 0.19351149 0.9445307 -1.4190624 1.2999642 -1.291759 -1.0582641 -0.566063 0.86009824 0.85652816 -0.10485961
2566 0.96191967 -0.1545545 1.0745605 -0.7553477 -0.32869086 -0.35171106 -0.03854329 -0.9682829 -0.32415968 0.24723761 0.5532514 0.4544526 -0.26605806 0.6233831 -0.08077973 0.24822688 -0.31439227 0.28423244 0.9566122 -1.1681211 0.1788606 0.83014154 0.4093681 -0.88781977 -0.90488386 1.3867922 -0.6292683 0.3876125 0.3601052 -1.5218952 1.0121795 -0.117456146 -0.36897692 -0.52702993 1.040582 -0.2511612 -0.51236254 1.1185968 0.9599866 -0.05493264 0.14157838 0.05200727 -0.14371696 -0.42386886 0.07439324 -0.6854038 0.16803503 -0.28676936 0.014539035 0.7126748 0.1420157 0.9436255 -0.008412156 -0.3498104 -0.027053962 -0.032927956 -0.6524301 -0.019699756 -2.2580032 -0.7517223 -0.32664722 0.22279052 0.53415656 0.3696776
1880 -0.028826436 0.2501296 -0.012642709 -0.41195083 -0.43662265 0.21052775 -0.17645451 0.8097336 -1.1712606 1.7981665 0.72253484 -0.23576377 -0.6696535 -0.66443205 -0.23378284 -1.1945305 -1.5627558 0.5750137 -0.43646955 0.11620645 0.0011371718 0.5748098 0.89276206 0.57273066 0.04290456 0.16290423 -0.85920024 0.5183206 -0.77773166 -0.47001994 -0.23078196 -0.12470614 0.09189408 0.3404627 0.27458674 -0.37372082 0.73899674 0.714332 0.13136467 -0.27295566 -0.34335905 -0.4986761 -0.38532948 -0.73743904 -0.39574084 0.8039348 -0.32759425 -0.24973893 -0.747081 -0.57374465 0.31906262 1.1043625 0.14357029 0.1581213 0.1742516 -0.48086226 -0.76375544 -0.54134667 -1.457594 -0.74156386 -0.12536216 -0.29058203 1.4992245 0.20525122
2993 0.48568454 0.4558018 -0.066246524 0.11311395 -0.26543573 -0.9696553 -0.4296385 -0.68733025 -0.48091692 0.53062767 -0.22806561 -0.86776066 -0.91146153 -0.29053795 0.121630795 -1.1111081 0.43177882 0.39264685 0.57642263 -0.7798897 0.4319973 1.0397785 0.41329068 -0.775542 0.6389242 0.14514671 -0.71896964 -0.12032072 -0.9625398 -0.06213864 -0.82749134 -0.23452488 1.0265486 0.52997375 0.91808045 0.17551376 -0.7784268 0.37484178 0.10044001 -0.44548947 -0.9877706 0.12999941 -0.11661712 -0.9959212 1.082062 0.74646544 0.77911794 0.43731344 -0.8142219 -0.51347226 0.76601744 0.50876915 0.46673715 -0.025129361 0.6564618 -0.35912818 -0.665828 0.86882246 -2.0072007 0.03518816 -0.4192395 0.18509522 0.94999695 0.427904
1263 -0.3656383 -1.1824749 0.014755504 -1.3597103 -1.0414438 0.16312395 -0.08857912 -0.8372447 -0.72065413 -0.35976878 -1.6661121 -0.16078486 -0.5502126 -0.6416847 0.3077092 -0.22836575 -0.33095336 -0.632672 0.5523755 -0.6608349 -0.23847851 0.11328976 0.8072071 1.2262077 -0.12509565 0.06862295 -0.51871455 -0.4919411 -0.26018107 0.1921234 0.4295969 -0.1422149 0.21216731 0.4105776 0.38482895 0.03487315 -0.13352169 1.3588816 0.23424251 -0.82018036 -0.056759786 -0.04851952 0.19203244 0.57066935 -0.00079275307 0.014271349 -0.53579843 0.7281957 0.33877343 -0.6496581 -0.8306631 0.4228842 -0.36807713 1.084868 0.8966605 -0.9245858 -1.1632565 -0.15439524 -0.5127574 -0.3029516 -0.022404855 0.5981293 1.5397701 -0.3372811
2895 0.38243386 -0.66878426 -0.12485827 -0.5421318 -1.0647709 -0.52061015 -0.6010285 -0.09367882 -1.6151772 1.0121051 0.14893588 -1.0492382 -1.374331 0.015906544 0.9673011 -1.5280799 -0.495815 -0.9633545 0.44526818 -0.6201701 0.51758 0.6185447 0.4634479 0.16173795 0.33030078 0.9852895 0.041907825 -0.004610054 -0.40167412 -0.2047294 0.26948535 1.22751 0.39375475 0.18443167 0.8239564 -0.39864337 0.36580622 0.17128682 -0.15447132 -0.47935 -0.7461891 -0.19309843 0.34330747 -1.5739847 0.37563795 0.31018022 -0.33811688 0.43879488 -1.0193769 -1.1173958 -0.4628793 0.23503347 0.22099832 -0.003055996 0.9541761 -0.97723544 -1.0791618 -0.6072847 -1.0675825 -0.96121687 -0.88494784 0.35107723 1.5243067 -0.76444924
1591 1.4482448 -0.96522444 -0.058899492 0.18220069 -0.77999413 0.16034481 -0.97297835 -0.83637387 -1.1718999 0.9545959 -0.022548493 0.015026217 -1.0800931 0.46697858 -0.7489858 -0.598762 -0.19721878 -0.14881888 0.9806732 -0.20346375 0.25668237 -0.43575984 0.50388724 0.013238584 -0.78974295 0.64723337 -0.7260016 0.015253102 0.16353463 -0.29070592 0.5608299 1.3186439 -0.049550876 -0.51283747 0.93870634 -0.40466344 0.7061669 -0.061496675 -0.22713517 0.5263902 -0.051730074 0.82511127 -0.29258126 -0.7918612 0.6285772 -0.20392384 -0.702935 0.26578465 -0.6959825 -0.1512728 -0.31764394 1.3346953 -0.12382217 -0.22499733 0.9441608 0.40647492 -1.2877687 -0.17950296 -1.4005221 -0.92951065 -0.52235454 0.52798164 0.2180046 0.67074704
1748 0.22284178 -0.47479856 0.087623835 -0.7816572 -0.1514952 0.06055547 0.3195458 -0.37790722 -1.7518259 0.36052373 -0.42343038 0.7368278 0.26529247 -0.9120919 -0.21069565 -0.43197453 -0.46231443 0.17232293 1.9668312 -0.28945902 0.94152635 -0.5792591 0.076587476 -0.16526748 0.45050952 0.06074582 -0.8310646 0.5594379 -0.40053052 -0.060205366 -0.024262818 -0.43595365 0.3041791 0.10921817 -0.7746185 0.46824872 0.39009032 0.96244043 -0.15152964 -0.5367532 0.16482854 -0.32175633 0.20679697 -1.0457457 1.4165049 0.9346919 -0.45554376 0.24299517 -1.5537928 -1.0347297 -0.32863563 0.21121742 0.33902064 -0.34838837 -0.68600947 -1.2280525 -0.048050437 0.93403083 -0.86199373 -0.4121335 1.0253189 -0.23813722 1.4055963 -0.6605621
3087 1.1960686 -0.35389933 0.43814597 -0.75300705 -0.24827749 0.020104572 -0.15980548 -0.47925034 -0.5523929 0.54890996 -0.9455595 -0.045520753 0.4819059 0.09304043 -0.5954742 0.081014246 -0.1712455 0.4062586 1.6233816 -0.5891703 1.137678 1.4659181 0.14152172 -0.35238853 0.115416534 -0.071388 -0.24609785 -0.58503246 -0.67780846 0.07567508 -0.59123284 -0.8441558 -0.5119624 0.5956791 0.91158116 -0.11573547 0.26045582 2.3454247 -0.48032963 -0.56607234 -0.021183861 0.26831496 -0.17500587 -0.052193355 0.32093805 0.07871708 0.553342 0.21947323 -0.7193947 0.63360023 -1.265889 0.7192987 0.14935106 0.096766725 -0.18890229 -0.67379177 0.20628303 0.82646316 -0.7413847 -1.1216257 -0.6010017 -0.33435205 0.5391582 0.23640665
2174 2.0022736 -0.7394814 -0.36677808 -0.68701726 0.36195436 0.16689044 -0.014196136 -0.83470595 -0.5348687 0.0689023 -1.3752829 -0.52509916 0.159295 -0.4527647 -0.63537997 -0.7599577 0.11018184 0.48309442 1.1739447 -0.5068581 -0.95875823 0.23667377 1.0771917 0.8750802 -0.10903219 0.2606007 0.2655579 -0.12496914 -0.45381033 0.29285723 0.10322509 -0.20209502 -0.3455536 -0.8283523 1.1534215 0.38246387 0.13917492 -0.0029628698 0.06369496 0.92940116 -0.2829755 -0.17069878 -0.6995425 -1.2407475 0.10271336 0.15035082 -0.47747305 0.61263275 -0.90523326 -0.5779573 0.68617976 0.5788832 0.6414797 -0.58804184 0.6455726 -0.03861618 -0.62303156 -0.3450297 -1.4942975 -0.3801456 -0.4513635 1.0261632 1.3947023 0.39513233
2487 1.1650313 -0.08429618 -1.2224792 -0.37959018 -0.8891792 0.4559986 -0.28245187 -0.47457916 -0.74515927 0.14516552 -0.35433027 0.42967823 -0.12258021 -0.5735829 -1.3576586 -0.7248606 -0.63998646 -0.25462922 0.4818031 -0.31514478 0.025891371 0.40183243 0.31985134 -0.11181496 -0.8173775 0.38216814 0.48980328 -0.37541848 -0.16062066 0.13212742 -0.10475465 0.3017358 -0.44820368 -0.47941357 0.80354613 -0.43570918 0.27155736 0.84275836 0.15211315 0.03145961 -0.8237977 1.3303348 -1.0307895 -0.76511496 1.5959964 0.16577105 -0.5849836 0.71849793 -0.037336975 -1.3219236 -0.47756246 0.6472664 1.1868726 0.18376185 -0.20807165 -1.5067123 -0.06916584 -0.4911454 -0.8499715 -0.66989285 -0.44148237 -0.095189 1.0421047 -1.079062
3031 1.1806743 0.2150747 -0.5582297 -0.08047635 -1.1311891 0.19880636 -0.43417445 -0.7531147 -0.67613053 0.35490432 -0.19203424 0.42887226 0.15684836 -0.18947385 -0.8047262 -0.44671315 -0.40649238 0.1418386 0.96953464 -0.07485078 1.2076758 -0.26631725 -0.24310423 0.080630444 -0.79211396 0.13659956 -0.375812 0.2473382 0.893716 0.8319731 0.61477536 0.75696117 0.08603021 -1.1675421 0.75199383 -1.1335108 0.77006584 1.1423665 -0.75765085 0.06084836 -0.068479344 -0.33624765 -0.013319518 -1.5508852 0.041514434 0.79651886 -1.3451356 0.12492048 0.1271835 -0.17180943 0.42209676 -0.28123227 -0.6092293 0.056287594 0.030647963 -1.1050348 -0.8073068 0.4177222 -0.7916151 -0.94231147 -1.2151797 0.9001103 0.20449048 -0.054011475
2953 0.8931564 -0.3939415 0.3495903 -1.1503863 -0.38531196 -0.46070966 0.16786014 -0.57611215 -0.43512034 0.02917363 -0.7643482 -1.2822461 -0.12396492 -0.5476995 -0.9871918 -0.23741835 -0.070118316 0.36029887 1.4237537 -0.5552827 0.16183706 1.2961606 0.09779072 -0.05115818 -0.6273625 0.67675364 -1.3221154 0.5629402 -0.8320052 0.9658947 -0.39344564 -0.27003443 -1.1886922 -0.6348891 0.86093843 0.28158724 0.47814846 0.34407508 -1.0832467 -0.7985805 -0.6336173 -0.49730143 -0.5462944 -1.1196845 -0.58638525 0.21285091 -0.32894075 0.27238527 0.36919007 -0.06216038 -0.456801 0.36576706 -0.12427443 -0.1575155 -0.3815498 -0.5055034 -0.28190836 0.3797974 -1.4830593 -0.6064283 -0.053499136 0.55039316 0.43130234 -0.79711866
1270 0.99406374 -0.56376696 -0.47956446 -0.832307 0.1285283 0.50757056 0.1195366 -0.523995 -1.0787135 1.4020679 -1.2079711 0.8541686 -0.97458166 -1.6572721 -0.66750634 -0.069156885 -0.503914 0.712193 0.3398476 -0.67083436 -0.043563854 -0.52749294 0.44580838 0.5503326 -0.22486341 0.41026837 -0.23413599 -0.24401608 -0.31862235 -0.6931802 0.1265399 -0.23223683 -0.90029764 -0.8945836 -0.4076496 -0.6266344 0.6973455 0.29437724 0.39073965 -0.5171694 -0.62119514 0.60762703 -0.51312155 -0.5117271 0.3710146 -0.63796455 -0.9248555 0.79796857 -0.06088413 -1.1757871 -0.8097913 0.8700214 0.733791 0.42588097 -0.3808565 -1.6196806 -0.9021403 0.046595506 -0.51330787 -0.3319473 -0.14438057 -0.03363528 1.4540702 -1.368195
2345 0.7311951 -1.2445807 0.07966199 -0.1693916 -0.24627626 1.0352765 0.061179742 0.019543715 -0.81334263 0.8890559 -1.2860595 0.58179414 -0.18248059 -0.20284447 0.18778913 -0.40687418 0.11636938 0.00055272895 2.006339 -0.60712665 0.4431243 -0.034924433 0.036670722 -0.24375163 -0.58148575 0.36046037 -0.5382679 0.9561776 -0.39550725 -1.1232382 0.43325216 0.40931687 -0.58388335 -0.7050835 0.7249302 -0.07528673 0.3257059 1.311766 -0.7073889 0.0030999137 0.32982278 -0.04194745 -0.03580724 -0.47389683 -0.21142514 0.8889589 -0.15965265 -0.286268 -0.24018773 -0.6291297 0.09176368 1.3542832 0.0069530634 0.48649126 -0.41682133 -0.27222332 -1.0829283 -0.2183152 -2.2278588 -1.7432824 -0.14122707 0.14755407 0.59534186 0.60943395
1771 0.09804335 -1.0981761 0.38163543 -0.559274 -0.24352247 -1.5340049 -0.104686074 -0.2079675 -0.49979284 0.12214299 1.0445578 -0.67223984 -0.3330242 -0.5180875 0.5301191 0.1078579 -0.62327087 0.12887612 0.894975 -1.6401997 -0.09637137 1.1425614 -0.14373617 0.26535755 -0.022477109 0.38383156 -0.14397454 0.35953733 0.24321373 -1.6601299 -0.64898074 -0.0014555453 0.26411545 0.24933502 1.9952546 0.6903691 -0.28827485 0.66778886 -0.03651481 0.22706936 -0.107895084 0.32270595 0.48932767 0.81395316 -0.7358813 0.0657363 -0.3576178 0.70932066 0.17550904 -0.20765384 -0.5126895 0.8157264 -0.3516844 -0.43837744 1.1373887 -1.0667806 0.5434355 -0.74876016 -0.54501176 -0.8844186 0.6894159 0.25240985 0.91600496 -0.016877742
3251 -0.2188982 0.007699523 0.2085583 -0.9457314 -0.40084767 0.10144922 0.020149134 -1.691224 -0.9513719 0.317002 0.7341113 -0.064328715 0.0012258646 -0.2536415 -0.45166832 -0.20527889 0.07159946 -0.26871753 0.7027747 -0.828623 -0.1215544 -0.12312951 -0.76963377 -0.51776755 0.27092 -0.08320905 -0.823375 1.3942848 -0.03158666 -0.8370613 -0.30772662 -0.12145519 0.1730218 0.83281106 0.5676347 0.64051795 0.17810303 0.95434946 0.10850198 -1.1277392 0.29259065 0.476139 0.21779719 -0.41505492 0.42008573 1.94789 0.27260455 0.53804827 -0.51599544 -0.566397 -0.29503214 0.32997605 0.60774904 -0.3950129 -1.1464336 -0.9708283 -0.75576824 0.52976453 -1.7987851 -0.012191148 0.077484496 -0.24089782 0.25644013 -0.92725194
2157 0.06852843 -1.0889481 0.13227074 -0.581675 -1.1621501 0.0992945 -0.2622275 -1.1250151 -0.31579253 1.6605057 -0.31055102 -0.77421796 -0.6887122 -0.3035608 0.3011028 -0.7549579 0.049154602 0.10755563 -0.45050818 -0.6451798 -1.6022162 0.727684 0.022505956 0.80029285 -0.54285985 -0.16472828 0.1821274 -0.7601245 -0.20454836 -2.0034046 -1.0870527 0.26869193 0.82783973 0.12698542 1.0244874 -0.3200577 -0.019939154 -0.02699283 0.6740742 -0.26772454 -0.4185424 0.19440213 0.2880603 -0.12115936 -0.22894292 -0.14689751 -1.0588888 1.1730335 0.95259047 -0.9393824 -0.29767933 0.5552762 0.13550973 -0.0129182255 0.30138093 -0.6592546 -0.65902615 -0.63855577 -0.1745482 -0.9975188 -0.82366073 -0.42827338 0.9896228 0.17789437
2035 1.4398757 -0.9014033 0.08971842 0.5098604 -0.15730397 -0.05520563 0.49077088 -0.13480175 -0.23474252 0.52365535 0.44223556 0.48310685 -1.0863928 0.38626376 -0.17011194 0.46592247 -0.96510196 -0.05027591 1.1374925 0.073701195 0.33933893 0.5407489 -0.3539668 -0.034940608 0.73809564 0.19678766 -1.3182617 -0.18809539 0.041117504 -1.4914869 -0.38439026 -0.030169845 0.41661304 -0.7963771 0.28429413 -0.2750605 0.122563705 1.0590343 0.09884524 0.28591925 -0.9558486 1.0623301 0.4585667 -0.61313385 0.9701388 0.06970201 0.6491403 0.6858609 -0.3672103 -1.3164432 -0.38311535 1.0191498 0.5222749 0.14786656 0.8711305 -0.7035985 -1.0891311 -0.29045057 -1.0982751 -0.91060317 0.65855265 -0.4240246 0.9114522 -0.16163218
1605 -0.034914292 0.104082964 -0.8616719 -0.8759267 -0.36017162 -0.05812842 -0.9372226 -0.8559676 -1.1151937 0.52052253 -0.21298313 -0.25478157 -1.2900707 -0.6217569 0.5175418 0.31936553 -0.07382198 -0.24509723 0.20278345 0.043392062 0.15178268 1.5661248 -0.015875824 -0.48488158 -0.7625134 0.9198233 -0.26069823 -0.48642552 -0.52622676 -0.056888938 -0.60334796 0.042621166 -0.46907258 0.5146155 0.8929665 0.44795918 -0.1778354 1.22831 -1.078458 -0.2749403 0.4724448 0.287886 0.50008774 -1.1524878 0.8489079 0.34263748 0.74261886 0.8138463 0.29547602 -0.51349294 -0.46238413 -0.37846917 0.7566698 0.75205666 -0.5938741 -1.0583103 -0.9865076 0.45475337 -1.2941482 0.10505072 -1.0214292 1.3664554 0.43061593 -0.45072362
2146 1.6391774 -0.2751008 -0.36849815 0.28459954 -1.104055 -0.008298342 0.2704341 -1.5056459 -0.5571115 1.0166922 -0.7803942 0.05863146 -1.6541289 -0.57823193 -0.5791972 -0.32004213 -0.06522876 -0.6086333 0.6957534 -0.22196251 0.85275877 -0.22149424 -0.33927023 0.17157856 -0.0619657 0.46571082 -1.1577371 -0.06103522 0.08275789 -0.09300358 -0.028212799 0.6676381 0.6148814 -0.50371635 -0.60841966 -0.5605928 0.66513544 0.29603982 -1.1978632 0.80902046 -0.20298204 0.14417796 -0.09273418 -1.1574869 0.59675306 0.48992237 -0.63874006 1.0501183 -0.78195554 -0.9741345 0.377772 -0.45129412 0.34274024 0.34498093 0.25616553 0.2058224 -1.1072602 0.34050196 -0.7892331 -0.8176477 -0.6523388 0.2516117 0.9353589 -1.2972964
2067 0.52727354 0.42652425 0.19524114 -0.33352032 -1.1670213 0.42753464 0.9370564 -0.23051728 -0.58863044 -0.752608 -1.2992294 0.009758702 -0.78951037 -0.6033123 -0.4994206 0.054223955 -0.45353726 -0.38035902 1.5572766 -0.11822566 0.4161368 0.061804064 0.19838044 -0.50310117 0.06458753 0.7152937 -0.9599421 -0.57400864 0.6520787 -0.29373464 -1.1412159 -0.26930606 1.3912804 0.16154592 -0.08947507 -0.5527402 0.24387194 0.89879185 -1.2237709 -0.5064087 -1.2630337 0.24416472 -0.2897531 -1.2426414 0.6235413 0.3273449 0.010875781 -0.08631901 0.3303571 -0.83898616 0.31887525 -0.29208624 0.5326932 -0.5238123 -0.74856186 -0.6147725 -0.7169565 -0.2369688 -1.2696587 -0.18168929 0.29803562 0.3632323 0.9131484 -0.3616282
2349 1.2257706 -0.3006227 -0.12495059 -0.85474294 -1.0285403 0.00016228645 0.391263 -0.14072807 -0.4563726 -0.011356847 -0.25263253 0.29167312 -0.5347612 -0.67556065 -0.39253742 -0.014924243 -0.46125078 0.16726507 0.59719646 0.21558267 -0.21415237 0.3706537 0.66385216 -0.36488137 0.31756425 0.46596384 -0.46450987 0.53256476 -0.5864737 -0.297305 -0.48431945 -0.21299984 -0.91071385 -1.1424217 0.20972782 -0.71947575 0.55580384 1.3568988 0.34943244 0.19865291 -0.43858972 0.035438385 -0.060966317 -1.3617929 1.1465585 -0.25114432 0.05625042 0.6773399 0.29749253 0.033870492 -0.056773912 1.11901 0.21052605 1.030528 0.4005609 -0.33656722 -0.9352457 -0.05243181 -0.59212184 -1.0452379 -0.22989143 0.09491429 1.5943993 -1.3397359
2339 0.30518648 -0.883376 -0.13546121 0.1280074 0.15148976 -0.08023701 -0.5120344 0.1342586 -0.13542563 0.05874527 -1.2599621 -0.38072294 -0.6177641 -0.3702061 0.046578594 -0.43376833 -0.45747504 -1.4867457 0.6910644 -1.20928 -0.22592443 -0.31443915 0.42859426 0.08480277 -0.2445031 0.53377515 -0.35505927 -0.16852167 -0.5592576 -0.43855837 -0.46195465 1.239226 0.6414947 0.43308273 0.5602841 -0.70534277 -0.0726705 1.5707443 -1.0035568 0.15214092 -0.3782652 0.3085506 -0.98222363 -1.1471246 1.0963749 0.108221374 -0.15771867 -0.3015376 0.043472942 -0.5080338 0.6311775 -0.29934463 0.6952518 0.718627 0.25744185 -0.16996649 -0.33943507 -0.005067344 -2.364169 -0.9540536 -0.8878295 0.7009863 0.34713128 -0.085869364
1871 0.44231787 -0.6876242 0.1605593 -0.047514513 0.13791938 0.05283965 -0.60544634 -0.0033624615 -1.3571526 -0.54659885 -0.029622873 -1.1067013 -1.4937449 -0.052052137 0.64478475 -0.5441097 -0.08660288 -1.652894 0.7675137 -0.5368104 1.206572 -0.34370333 0.4613677 0.30892402 0.7436533 0.17777827 0.05043363 -0.050644252 -1.3083584 -0.7030059 -0.1531221 1.1728866 -0.012664763 -0.6795631 1.277878 0.6875752 -0.22977284 1.4141614 0.21911801 -0.45091784 0.28426796 0.18152015 -0.09677193 -0.9396078 0.60274094 0.18352807 -0.7389239 -0.18394206 -0.8110145 -0.61528206 -0.03522942 0.40420812 0.5648637 1.21283 0.6069833 0.23868534 -0.97409415 -0.42614543 -1.3954251 -1.0999051 -0.22945844 0.2254849 0.2639072 -0.16456878
2145 1.5361975 -0.3097719 -0.48130432 0.13644436 -1.0765978 0.049120292 0.067895725 -1.5762856 -0.63649654 0.89355034 -0.944263 -0.035962332 -1.5537561 -0.49627143 -0.43313462 -0.31711856 -0.10071694 -0.6836254 0.9629317 -0.28332105 0.91700935 -0.26253936 -0.27616003 0.21307679 -0.26833037 0.51728016 -1.185134 -0.16038719 -0.04006875 0.07191854 -0.06319824 0.66968846 0.73226887 -0.39188907 -0.4879854 -0.4369372 0.6921317 0.36024797 -1.4102721 0.61101997 -0.26921353 0.2648866 -0.14954433 -1.0631913 0.56314445 0.5267408 -0.5839438 0.93071324 -0.87205553 -1.2190417 0.20295808 -0.48932588 0.44229978 0.46979922 0.24527861 0.15158038 -1.2716368 0.45116392 -0.5745293 -0.6592647 -0.61564887 0.5249377 0.84303087 -1.2335868
2461 0.4733113 -0.7137023 -0.5116004 0.20045067 -0.3737961 0.5466977 -0.58064973 -0.081329465 -1.4173957 1.4435012 -1.043463 -0.20138597 0.00028613093 -1.9276928 -0.8337606 -0.65385807 0.027799038 -0.3392045 -0.106859066 -0.30428958 0.20642051 -0.77257675 0.23943563 0.2562913 -0.11249214 -0.5361497 -0.9007696 0.5132135 -1.123998 -0.45033982 -1.3154532 0.40940955 0.6468394 -0.6197451 0.36730477 -1.0143182 0.6930925 0.9328319 -1.3183299 -0.6470105 -1.1431326 -0.60491633 -0.011777217 -0.73137665 0.63146454 0.2431727 -0.5845101 -0.033127066 0.0669933 -0.1298415 -0.21253678 -0.24099492 -0.38449588 -0.20423028 -0.21719314 0.7287953 -0.2103211 0.006489619 -0.913243 -0.5962053 -0.23722081 -0.08913995 -0.05514222 -0.73127925
1246 1.2800876 -0.15654637 0.11419495 -0.16273332 -0.048372835 0.17760232 -0.3641223 -0.6111872 -1.5601519 0.74121034 0.24635181 0.03629959 -0.7289917 0.05467653 -0.62146014 -0.7498247 -0.52509075 -0.458517 0.38397205 -0.017751502 -0.11640938 -0.9607374 0.5439073 -0.38983533 -0.46240532 0.6432265 -0.338127 -0.20111386 0.36466905 0.091001235 -0.25569814 1.0232136 0.3736826 -0.4409855 0.55223316 -0.47977665 0.7888604 -0.42446125 0.12322578 0.43108052 -0.15041871 0.869589 -0.020461181 -1.3780175 0.8487807 0.26907882 -0.5089996 0.5272135 -1.4310412 -0.1707842 0.0548178 1.0172622 -0.6469673 -0.5122901 0.9030735 0.057327256 -0.57617533 -0.29118884 -1.3747456 -1.0203254 -0.18933454 0.48411712 0.11643483 1.0816392
2277 0.0959842 -1.7993976 0.53605086 -0.89211845 -0.73140293 0.14243647 -0.16457538 -0.6419432 -1.2308129 -0.10674205 0.31568217 -1.1085933 -0.7337679 0.061016496 0.6048809 -0.35613587 0.2147993 -0.67672527 0.31089088 -1.1220671 -0.6594444 0.08414253 -0.37974676 0.11120049 0.50849366 0.3291619 -0.25589103 -0.51374286 0.044872086 -1.28979 -0.56670076 0.83460647 0.9490388 0.78720033 0.5414672 -0.058418754 0.4671068 0.98742133 -0.5999714 -0.4822899 -0.5443763 -0.1121443 -0.20247266 -0.8583668 1.0038095 -0.80735916 -1.3829609 0.6117111 -0.29864654 -0.35593355 -0.70348346 -1.130206 -0.16553125 0.09892157 -0.2277255 -0.60685647 0.4011063 -0.498904 -0.59336704 -0.43364573 0.12996519 -0.9253521 0.9724835 -1.5322012
1281 -0.110963665 -1.1953558 0.2511364 -1.4952672 -0.7003849 -0.2871618 0.39179304 -0.9851517 -0.6770237 -0.79923004 -1.5281633 0.17886414 -0.76590866 -0.40284258 0.22172722 -0.43230143 -0.32532114 -0.61031806 0.78537506 -1.0564339 -0.41626555 0.74981636 0.9611482 0.8872624 0.05803119 0.9940584 -0.4048498 -0.0946765 0.11258497 -0.0971262 0.5787051 -0.37429205 0.10214456 0.34601054 0.545867 -0.0734455 -0.20622405 1.3779614 0.21944752 -0.6601819 0.13593633 -0.108203135 -0.16190313 0.6075546 0.3490547 0.2441715 -0.24110681 0.6618619 0.44984952 -0.2553547 -0.91624725 0.30306327 -0.058277387 1.0416973 0.87537557 -1.0958419 -0.8640239 -0.4151123 -0.9742088 0.15482683 0.2718381 0.33786592 1.3062378 -0.6524359
3133 0.9053509 0.81774074 -0.7024304 -1.0431199 -0.025317706 -0.0029331157 -0.6310431 -1.6451283 -1.5804933 0.71979034 0.08691672 -0.59628874 0.458548 -0.036810827 -0.088342816 -0.35741815 0.25444806 1.0343406 0.9203979 -0.231783 -0.6505946 0.61889374 0.026406711 0.64360625 -0.01871321 0.051650595 0.1006515 -0.19307746 -0.12595885 -1.1471083 -1.1911467 -0.013605144 0.84516287 -0.07183454 1.1075096 -0.1085554 0.013324688 0.25640267 0.5595779 -0.49369708 -1.7171477 0.39555284 -0.30235457 -0.9605792 -0.37564814 0.18846217 -0.43781745 0.8676682 0.8027436 -0.5524944 -0.5037837 0.5739665 -0.6111487 -0.37963858 0.22489904 -0.2640753 0.22269887 -0.40680948 -0.52026016 0.41516852 0.6782035 -0.37846413 0.67597 0.2683874
2568 0.671228 -0.041530035 1.0799721 -0.3122712 -1.3825558 -0.26321504 -0.64506763 -1.0637695 -0.21195199 0.14037672 0.5998231 0.67811 -0.41521373 -0.11867279 0.39845005 0.17735407 -1.30096 -0.24810293 0.83361334 -0.77918303 -0.03327668 0.4861516 0.27668592 -0.40788412 -0.97223586 0.9941535 -0.64796066 0.2257046 0.3199466 -1.4184356 0.67733735 -0.16977058 -0.1274428 -1.0465046 0.3207426 -0.10679906 0.44551462 1.3291107 0.57183415 0.19593674 -0.16372024 -0.71218777 0.14122622 -0.7156498 0.25405595 0.023900967 -0.2094283 -0.5947059 0.514946 0.12650229 0.5659609 0.21081607 0.13948171 0.14773709 0.14086488 0.54733586 -1.7163826 0.23599732 -1.1975819 -0.42663094 -1.0766582 0.39700255 1.0421504 0.4768389
1859 1.1292948 -0.69946015 -0.17606844 -1.0668296 -2.0554514 0.24004154 0.38343242 -0.8790278 -0.7151565 0.40757525 -0.5702893 -0.15187447 -0.64786243 -0.2945912 -0.90426666 -0.4205034 -0.53210765 -0.13737988 0.815225 -0.25631872 -1.2529134 0.8942564 0.7152517 0.5344025 -0.20309748 0.90920943 0.23690192 -0.13235015 0.22474048 -0.54722446 -0.7072242 0.1332437 0.09566649 -0.9799458 1.0752664 0.6121521 0.12565722 1.0110033 0.20672312 -0.060764574 0.6871138 0.39168948 -0.015525845 0.14641295 -0.15842272 0.1937743 0.2612695 0.20885776 1.4287586 -0.7805933 -0.0076618404 -0.30495313 0.19734235 0.12069912 -0.032165226 -1.1143672 -0.10289747 -1.0521566 -0.18636976 -1.3612862 -0.61307824 -0.18814479 0.34526724 -0.6760327
1788 0.051110715 -0.43260723 0.90642416 -0.37034357 -0.8000553 0.018886236 0.15899783 -0.41967595 -0.55126125 0.15747061 0.8990648 -1.6001709 -0.7168164 -0.2612004 -0.47246113 -0.33103278 -0.601336 -0.029749116 0.5166658 -0.09679768 -0.8610826 0.9501704 1.1529944 0.8142846 -0.27312002 1.3217767 0.2531041 -0.26449078 -1.0602435 -1.0956101 -0.42186135 0.45683363 -0.21393068 0.40880203 0.65291345 -0.5531816 -0.105948284 0.46610188 -0.18646514 -0.53047776 -0.74106485 -0.08542158 0.38760126 -1.5134124 0.30037636 0.9687824 -0.68370044 0.025272477 -1.0602609 0.8366995 -0.19974212 0.25504646 0.3211762 0.1661613 0.65074164 -0.36702004 -0.44870278 0.19770166 -1.0979174 -0.113432355 -0.43484882 0.6250173 0.68283486 -0.10406297
2891 0.23867221 -0.59341884 -0.1628291 -0.6465921 -1.289364 -0.61195785 -1.2085186 -1.0258346 -1.3608547 -0.096935734 -0.01685892 -0.985034 -0.9126126 -0.017714448 0.45244336 -0.6738468 0.33390036 -0.017234586 0.49267924 -0.34607115 -0.59664804 0.28198424 0.62805027 0.6943626 -0.94078666 0.9646156 1.3606887 -0.42906365 -0.03350712 -0.7590389 0.17798524 1.3440497 0.42640072 -0.057967134 1.8840119 0.14447083 0.045839753 0.41015747 0.16236913 -0.03534086 0.14341623 -0.0039132894 -0.07205126 -0.846164 -0.8856051 -0.23146215 -1.1084632 0.20897183 -0.34871596 -0.26308936 -0.7443846 0.8510254 -0.13147652 -0.109769225 1.1545644 -0.5951527 -0.6992067 -0.42058837 -1.3343673 -0.14048861 -1.0640453 0.6405425 0.6539205 0.55159664
1932 0.22328506 -0.48612964 0.72927254 -0.31966257 -0.6727242 -1.097616 -0.0003733216 -0.3685593 -0.6965235 -0.38966644 0.91162807 -0.28470314 -0.7679394 0.044744287 -0.44993883 0.47420615 -0.1851744 0.18644495 0.5548025 0.3993325 1.1335293 0.25108147 0.2991954 0.2719556 0.122003436 0.35555586 0.2734612 0.35371834 0.9284713 -0.949691 -0.41036153 -0.65769047 0.07646891 -0.01829833 1.1358602 1.1119056 0.76009935 1.51657 -0.07385603 0.33107486 0.4262177 -0.15361124 -0.07549791 -0.48484263 -1.0274216 -0.18588339 -1.0266258 0.14272845 0.8040543 -0.35184386 -0.009983709 -0.026773784 -0.53480995 -0.10638358 0.86840045 -0.4579683 -1.4716961 -1.2074548 -1.0235293 -0.22693127 0.04934993 0.659095 1.0229218 -0.38029033
1909 0.6362148 0.12733817 1.1240197 -0.6362674 0.10185081 -0.4510437 0.4621815 -1.1137103 -0.7463489 1.275627 0.29717818 -1.15482 -0.31970367 -0.2838395 -0.17450179 0.5556533 0.015559563 0.5041907 0.79428893 -0.6422366 -0.115989126 1.0561565 0.041068267 -0.0790704 0.34435347 0.2960744 -0.69627887 1.0076925 0.29621127 -1.6297051 -1.164735 -0.31916726 0.56784594 -0.025726344 0.07213705 0.6332116 -0.09421049 1.2943331 0.15287548 -0.40400007 -0.95020026 -0.60669464 0.6639736 -0.55320066 0.041899603 0.7396025 -0.50744134 0.92340034 0.7877455 0.6125377 0.235938 -0.4519214 -1.3371984 -0.5717924 0.24752349 0.34939528 -0.3712702 -0.5678732 -1.1833271 -0.4600322 0.19146001 -0.31420466 1.439111 -0.16370326
2452 0.35683256 -0.23685615 0.21732108 -0.4879889 0.6036419 -0.85306054 0.44902867 -0.595295 -0.6439049 -0.45537296 -0.46173683 -0.5568667 -1.5976748 -0.63684976 -0.5196076 -0.3599445 0.40795386 -0.6442279 0.50754803 -1.7153851 0.25971687 -0.3963222 -0.033902116 0.13159995 -0.08466421 1.0045629 0.6441079 -0.5218428 1.3168949 -0.7216313 -0.75133246 0.30826503 0.61453855 0.19066638 0.59249115 -0.07599077 -0.32812992 1.0665555 0.3572798 -0.36849248 1.0480863 0.897822 -0.528835 -0.2884045 0.40411893 -0.60387594 -0.81129205 0.7645906 0.0904318 0.061828416 -0.9176325 -1.021357 -0.520601 0.34382978 0.13123883 -1.2854322 1.1138424 -0.40617508 -2.2390592 -0.22370857 0.077747054 -0.42783052 0.44700515 -0.44830948
2071 0.10073145 -0.38854557 -0.023078509 -0.28795782 -1.2841856 -0.6749024 0.40608025 -0.28930092 -0.30520782 -1.064356 -0.8900017 0.06604546 -0.12866259 -0.31747818 -1.0652446 -0.33578166 -0.063944675 0.011180884 1.7958567 0.14605476 0.48973435 0.41489398 -0.1271877 -0.08894451 -0.2489909 0.2866977 -0.8053055 0.3771658 0.22201143 -0.8054811 -0.7685261 0.011540837 0.75503534 0.4903544 0.465345 -0.24888088 0.48365504 1.7441772 -0.15513071 -0.4266005 -0.7655884 0.3585092 -0.033824056 -1.0609834 0.8189058 0.35680872 0.08825634 -0.050837986 0.77591753 -0.606467 0.22827405 -0.5935083 0.36478862 0.47550398 -0.6467683 -0.71397007 -0.6798299 -0.1157756 -1.333368 0.046501126 -0.044959955 0.78114504 1.1344548 -0.95593274
2237 -0.3920466 -0.40977678 0.06466052 -1.2589587 0.05780993 -0.017131053 -0.039783496 -0.97782075 -0.5562997 0.21675563 0.09005429 -0.889929 0.33561277 -0.3495411 -0.45571786 0.4027431 0.17486128 0.1925707 -0.1625948 -0.67463166 -0.38709348 1.6614292 -1.0577842 0.6419592 -0.33747476 0.56776637 -0.33422992 0.30988842 0.02931092 -0.7510291 -0.8635303 -1.2869434 0.08757644 0.58351076 1.5285925 0.04223109 0.080126986 1.240704 -0.097851366 -0.9337863 -0.40839282 -0.23766732 0.5054065 -0.5719804 -0.33220118 0.66526204 -0.8360351 0.76097757 0.99327946 -0.0067422204 -0.8490399 0.43245947 0.65904677 -1.108029 -0.68009806 -1.3970526 0.24955478 0.14035416 -1.0157415 0.39739186 -0.3347685 -0.6604318 0.11827462 -0.5873112
2894 0.51832134 -0.57300574 -0.08692391 -0.51779515 -1.1650567 -0.48214957 -0.6702147 0.0066825007 -1.5722336 0.9959132 0.086949565 -1.0289041 -1.3019015 0.036551453 0.8109707 -1.4920832 -0.4043003 -0.7990859 0.41777262 -0.55414414 0.47935462 0.64173347 0.39190355 0.2629208 0.37963548 0.923569 -0.003677444 -0.09108924 -0.35640755 -0.17223725 0.3554657 1.1863312 0.4090284 0.14895003 0.8373098 -0.3889956 0.4334588 0.24400696 -0.1837237 -0.4807731 -0.8004977 -0.2820012 0.29486328 -1.5139974 0.20843354 0.2725551 -0.27501035 0.3824359 -1.0163329 -1.1180724 -0.34920183 0.27504355 0.18014838 -0.06483136 0.96018803 -0.81604517 -1.2517246 -0.60060453 -0.9951641 -0.85007703 -0.880453 0.36820647 1.5013715 -0.7809649
2065 0.10092397 -0.43032104 -0.53498966 -0.9300459 -0.5175212 -0.3051137 0.31357852 -0.8358661 -1.0585245 -0.34357172 -0.09365127 -1.7435668 0.2017526 -0.22531648 -0.2245634 0.035632443 -0.16689123 -0.2407113 0.1496895 0.26071653 -0.58405155 1.201221 -0.13705154 0.54331094 0.53652835 0.89558053 0.06352678 -0.4899351 0.9439454 0.23650594 -0.7290037 -0.8695745 1.5551455 0.17664687 1.5871503 -0.26116905 0.303007 0.66607195 -0.88065207 -0.09748101 0.09731237 -0.16895929 -0.4992092 -1.2412146 0.19684157 0.4098118 -0.72917336 0.86594266 0.97480375 -0.5975203 0.9307356 -1.1818888 0.2285096 -0.9291485 0.062582746 -1.0406545 0.37170717 -0.27567506 -0.9410473 -0.20381299 -0.71606547 -0.589603 0.20213953 -0.79713494
2886 0.26127502 -1.7516756 0.020553531 0.30177683 -0.6792269 -0.58908737 -0.314537 -0.26818305 -1.5425177 -0.8074892 0.5016281 -0.49814382 -1.2264124 -0.7262303 0.6988907 -0.6701501 0.2162795 -0.70822334 0.8043646 0.12755811 0.4923513 -0.025333159 -0.29800615 -0.23749289 -0.15516683 0.81981 0.25648776 0.20195054 0.04700894 -0.7056479 0.44969717 0.6631094 0.56520975 -0.09326077 1.2489588 0.56583595 -0.07781751 0.75505775 -0.2857722 0.09774211 0.49350065 0.6980119 0.30491102 -0.8705208 -0.052396238 -0.46009427 -1.205231 -0.4061541 0.036317356 -0.6748827 -1.005971 0.29961714 0.0002773418 -0.6582043 0.3720358 -1.4758042 -0.7348383 -0.72982484 -2.3306391 0.20991959 -0.8956542 0.84610605 0.62068677 0.3333361
2739 -0.050351847 0.17043063 1.0084691 -0.9341764 -0.21025367 -0.39397153 -0.15385862 -1.3783565 -1.216317 1.0445534 -0.30924562 -0.5945493 -1.5001235 -0.65254176 0.4593761 -0.054727588 -0.6605238 -0.20021719 0.62539923 -0.41054055 0.4061935 0.6406454 -0.092156194 0.11868026 -0.21371835 1.1913886 0.49987543 -0.006148007 1.0764595 -0.7144655 -0.90588975 0.10988503 1.0218267 0.32701954 -0.0039681084 -0.16935675 0.38991237 -0.20652431 0.15313554 -1.3115671 0.55277115 0.44943598 0.367857 -0.6022991 -0.12043087 0.4999392 -0.79608756 0.80982167 0.51702136 -1.1374654 -0.62260103 -0.52428114 -0.2782535 -0.3962902 -0.18149628 -0.52145636 -1.2984174 0.5403546 -0.18523298 0.17539775 -0.13086468 -0.19809797 0.903093 -0.67083573
1230 0.21591663 -0.15195687 -0.013634063 -0.32791957 -1.2185941 -0.4641336 0.4488236 -0.31106743 -0.26525113 -0.50531876 -1.1805577 -0.10936419 -0.11798817 -0.229954 -0.62704176 -0.28451246 -0.1836963 -0.250307 1.6399118 -0.08965411 0.024263294 0.61446357 -0.22296037 -0.45243675 -0.6251534 0.42236984 -0.7083164 0.1321825 0.29085857 -0.7386688 -1.1519779 0.053991362 0.71793467 0.3597825 0.25528672 -0.35120425 0.39686066 1.568167 -0.3672588 -0.15519863 -0.99500275 0.3664649 0.038279265 -1.2907972 0.8810929 0.17753097 0.46626467 -0.01787499 0.42618802 -0.6873817 0.4524712 -0.18647958 0.36884955 0.16394603 -1.029051 -0.3283328 -0.8119727 -0.23475353 -1.0312159 -0.1961216 -0.008100579 0.9834411 1.0720277 -0.76892555
2747 0.12276599 0.5264667 -0.068647996 -0.22401263 -0.6067163 -0.9621297 -0.3517896 -0.9615679 -1.229671 -0.28534147 0.4131095 -0.36832133 -0.3501079 0.5476349 -0.18121773 -0.0508338 -0.061799947 0.14501153 0.6735887 -0.7633112 -0.3933153 1.3399025 -0.52075344 -0.12294568 0.4686303 0.9271672 -0.93437654 -0.4725183 0.4332148 -0.7802802 -0.30652326 0.02474399 0.78565264 -0.3536171 0.7287394 -0.7323053 -0.0003100071 1.0748599 0.1590119 -1.1602315 -0.50307983 -0.008528315 -0.023517314 -0.46198955 0.21308348 -0.20191415 -0.21452087 1.2444752 1.0258882 -0.70660454 -0.8397237 -1.7119083 -0.18702707 -0.013347557 0.5285281 -1.5163952 -0.0011022299 0.30578566 -0.7173566 0.43979856 0.63548595 0.76277584 0.30062163 -0.8675317
1327 0.84856635 -0.35099503 -0.49378157 -0.63596183 -0.84800255 0.2536269 -0.027983274 -1.3455654 -1.5914198 1.4902712 -1.1329089 -0.9196682 -0.83387315 -0.3602883 -0.13899867 -0.15691337 0.03421833 1.1932929 0.9215275 -0.32219225 0.3128921 0.7384313 -0.34580737 0.9296926 -0.42062378 0.75160366 0.1646868 -0.573963 0.076011255 0.6721599 -0.11140858 -0.33540863 0.54474354 0.052052893 0.8288566 0.01004726 0.95537424 0.21295293 -1.1676499 -0.21543701 -0.4754706 -0.34891385 -0.18805598 -0.68093204 -0.6898274 -0.16384295 -0.74810463 1.4556113 0.5540216 -0.5662009 -0.25053373 -0.4227227 -0.3638552 -1.7026516 -0.16106053 -0.22288714 -0.117933415 -0.04871814 -0.5686414 -0.0120511465 -0.3971405 -0.026181396 0.29713213 -0.6662057
1212 -0.20106797 -0.3119249 1.1652042 -0.39769465 -0.4584887 -0.1204202 -0.025115218 0.24196166 -0.61581916 0.31337658 1.1190892 -1.473683 -0.6912077 -0.56977075 -0.45162934 -0.4341796 -0.5805208 -0.4553067 0.19588341 -0.30106395 -0.71588534 0.9549472 1.1487262 0.66455007 -0.4931035 1.5331873 -0.10740498 -0.056700513 -0.7571764 -0.8777831 -0.3450141 0.26530284 0.00996906 0.18319416 0.19966224 -0.37049675 -0.052446824 0.48159415 -0.096008725 -0.6755633 -0.2421719 -0.19284518 0.35415152 -1.014972 -0.19490702 1.1125182 -0.42128232 -0.23985967 -0.70087516 0.87454873 -0.09687647 0.36913267 0.5303529 -0.31613833 0.43252972 -0.39175534 -0.5012305 0.121455304 -1.2901797 -0.022902107 -0.30444035 0.4440657 0.5911938 0.22035311
1336 0.55421466 0.6360056 -0.4240405 -0.7330925 -0.35933566 0.46042934 0.49446106 -1.9017102 -0.7800687 0.5699471 0.8067877 -0.5657412 -1.414183 -0.93670946 -0.22784315 0.5944519 -0.7278043 0.4624473 0.3697541 0.25172207 -0.81655914 1.1955223 0.12994802 0.670892 -0.3086559 1.126328 -0.54642963 -0.8029806 -0.3589747 0.06947646 -1.2145838 -0.58150846 0.3583812 -0.15776062 1.2898067 -0.36995465 0.47109511 0.052911673 -0.57973915 0.32501444 -0.41179928 0.35742518 0.63178974 -0.82988197 -0.54725397 0.16894162 0.12822966 1.6049865 -0.016096419 0.0064570205 -0.12783356 -0.06832677 0.37156144 -0.6314736 0.36778036 -0.23503298 -0.4095999 -0.014969719 0.300439 -0.8125261 -0.44189715 -0.17912945 0.6296741 -0.774262
1337 0.4034085 0.6285078 -0.56687075 -0.61927295 0.0718479 0.6616376 0.6104236 -1.3045102 -0.9089011 0.3360532 1.0171397 -0.5781469 -1.560948 -0.9909374 -0.15415908 0.491097 -1.0281863 0.21610016 0.13840042 0.28941524 -0.9598284 1.2740197 0.051876888 0.6917372 -0.16572686 1.2264383 -0.614721 -0.91415894 -0.4289528 -0.20363003 -1.4737294 -0.48633257 0.64482176 -0.19878754 1.1794581 -0.61538005 0.39116395 0.10614354 -0.51215416 0.16166276 -0.5302256 0.32945037 0.57061225 -0.9868686 -0.48340768 0.14828476 0.22150792 1.6436203 0.16154683 0.40073422 -0.108353645 0.15292244 0.56693214 -0.56307036 -0.19310369 -0.07172022 -0.6818282 -0.1700039 0.24144839 -0.76756847 0.008299979 0.00064961775 0.7757499 -0.58720845
1577 0.35102114 -1.6294066 -0.09915427 -1.2203277 -1.3338172 -0.50328 -0.6850106 -0.6062174 -0.3950253 -0.60505146 0.26027438 -0.819267 -0.32466042 -0.4549215 -0.56126577 0.098046556 1.1469481 -0.09777223 0.02791516 -0.90983653 -0.7761492 1.1465241 -0.5252636 0.3757027 -0.014541822 0.4257156 0.1198883 -0.4401982 -0.3383947 -0.56517667 0.406184 -0.2863685 -0.26657727 -0.22841336 1.866278 1.0398904 0.18282454 1.3563625 -0.32201964 -0.13319284 0.27437112 0.51070565 -0.04784425 -0.35967618 -0.5767039 -0.9748785 -0.30245796 0.39201364 0.2980078 -0.4587475 -0.21121235 -0.14609767 0.49173 -0.82922965 -0.69645715 -1.4208724 -0.26808834 -0.02014921 -0.9712201 0.379567 -0.5692774 0.3801245 0.69737554 -1.3873159
3050 0.8877522 -0.29081833 0.04121652 -0.8176851 -0.8037258 -0.046083212 -0.008868922 -0.6296618 -0.21035284 0.3224881 -0.6963139 0.16655184 0.11961393 -0.54374653 -0.27380183 -0.12809186 0.106507406 0.5013629 1.0355366 -0.339617 0.9260193 1.6826531 0.25126362 -0.34266955 -0.14285505 -0.27419755 -0.7020711 -0.6485135 -1.1670517 0.04931235 -0.5420094 -1.1940069 -0.6833478 0.37806243 0.7231861 -0.016430693 -0.1720117 2.1560028 -0.36310995 -0.50127745 -0.28714716 0.4282454 0.06412646 -0.26102936 0.17359056 -0.2548681 0.7257966 0.4355621 -0.5110117 0.29005238 -1.0094311 1.1434878 -0.13927369 0.31877837 -0.4042125 -1.1198794 -0.38163587 0.5899695 -0.9310427 -1.2566721 -0.6200988 0.32228374 0.9600964 0.12662841
1604 0.047256477 0.06999269 -0.7165828 -0.7812554 -0.50946575 -0.258121 -0.8425143 -0.92156756 -1.2633256 0.83110154 -0.23497808 -0.36401847 -1.3077456 -0.5981666 0.45734686 0.102451384 -0.34011087 -0.36132476 0.41941956 0.10502319 0.57042897 1.467507 0.028936742 -0.29471713 -0.6728165 1.1370046 -0.15564664 -0.6169404 -0.5367893 0.08759897 -0.47773033 0.12424815 -0.37267673 0.55435514 0.5144174 0.33828363 -0.20308782 1.2438205 -1.1185895 -0.30839613 0.34874043 0.29744723 0.3721031 -1.4216596 0.8386708 0.24699688 0.4867933 0.8218619 0.24790859 -0.38354185 -0.6904393 -0.31955278 0.73314846 0.6051328 -0.6427945 -1.3332963 -0.92891365 0.26586977 -1.4102392 -0.13219151 -1.2422345 1.3250903 0.60699177 -0.6080818
2871 0.45338857 -0.48307228 0.6486392 -1.3277705 -0.1784918 -0.5900675 0.66874534 -0.94297886 -0.01031604 0.7452748 0.7886671 0.19892922 -0.48232874 0.2537682 0.3494556 0.78320044 -1.146671 1.0996969 0.62361836 -0.8516523 -0.3206904 0.8549612 -0.33981726 -0.5716881 -0.5719737 1.086343 -0.39875293 -0.3106409 0.5122305 -0.6661671 1.0213218 -1.2442985 -0.3051555 0.07016287 1.2914249 -0.5444278 -0.037658706 0.6554344 -0.40601146 0.27415356 0.81842726 0.7502877 0.23717915 -0.6905987 -0.6029303 -0.19618027 -0.009378449 -0.01176557 -0.14284073 0.047916178 0.4619523 0.9007162 0.1645126 -0.8035618 -0.3336298 -1.267232 -0.5238667 0.14230266 -1.5156636 -0.17294823 -0.116593264 0.5690638 -0.005300158 -0.23658223
1217 0.43231538 -0.19230577 0.081784934 -0.3066951 0.075396046 0.38941413 -0.12172373 -0.49282244 -1.7438605 1.3246465 0.7434511 -0.39584577 -0.6502097 -0.38890243 -0.4214348 -1.053628 -0.6524495 0.36786145 -0.29421696 0.50516295 -0.7292885 -0.10384955 -0.2942991 -0.025571205 1.0333511 -0.23334168 -1.5965633 0.80206585 -0.070685245 -0.27982292 -0.06515658 0.16258636 0.32266796 -0.17595503 1.0680273 -0.28296062 0.49560195 0.5384217 0.029658116 -0.24718767 0.1654856 -0.09252946 -0.820609 -0.6403328 -0.12549174 0.19762264 -0.3658512 0.3884968 -0.7291083 -0.03554869 0.050974913 0.72460854 -0.07613442 -1.221814 0.35282952 0.37038592 -0.98770267 0.29110977 -1.6117852 0.02577716 -0.5685916 -0.50756115 0.14572245 -0.7125158
1492 0.013687966 0.40965432 -0.25736263 -0.7832446 0.7686153 0.5675215 0.008695532 -0.50423485 -0.71846455 0.36393532 0.86187375 0.16355705 -0.25911757 -0.3138599 -1.3449734 1.1055628 -1.1593932 0.01758865 -0.2463656 -1.1676122 -0.18711327 0.8846789 0.55607647 0.7326308 -0.23590674 1.3065736 -0.9508128 -1.2692335 0.22457714 -0.33965293 0.028516375 -0.40420124 0.55839413 1.2116665 0.5366874 -0.75234884 0.53810185 1.0042576 -0.3535409 0.11195435 -0.106042765 0.09880476 -1.0045956 -0.36871788 -0.034403138 -0.0039710277 -0.109209 0.20167129 -0.5218753 0.7171078 0.24106374 -0.14722529 1.2146046 -1.2329427 0.08197631 -1.0484371 0.5466164 0.4039202 -0.6961068 -1.0158716 -0.029587029 0.35677242 -0.15960455 -1.4673858
1609 0.43954483 0.55987793 -0.49393073 -0.7458998 0.37978235 0.59585714 -0.117044844 -1.7290914 -1.0268675 0.058739085 1.4286687 0.3797356 -0.3335084 0.03491664 0.41850695 0.7790115 0.828343 0.5938818 0.5602047 -0.06757823 -0.45723817 1.114062 -0.7836132 -1.1782037 -0.043048978 0.8956922 -0.855185 -0.11424163 -0.16184483 -0.3602523 -0.58761144 -0.28527424 -0.18530227 -0.07025389 1.5814463 0.01820685 0.45780423 0.7887063 -0.9396547 0.04119441 0.15304063 -0.051759575 0.3219823 -1.094191 0.16361271 -0.16623078 0.6626842 1.3510436 -0.11663926 -0.12660642 -0.027029462 0.18637095 0.018305087 -0.95496094 -0.8480664 -0.5495739 -0.8174412 0.40212095 -1.4553287 0.04764436 0.31540608 0.695826 0.12015934 -0.84881467
3216 0.95281625 -0.35096535 0.36622205 -0.41510022 -0.58710855 0.08153825 0.10676206 -0.66666645 -0.5457911 0.6500948 1.0190892 -0.7146458 -0.6741436 -0.5161194 -0.30990463 -0.033264663 -0.94454974 -0.0875667 -0.6107943 0.3385726 -0.3466832 0.18933259 0.98180854 0.50223094 -0.8569916 -0.40644386 -0.39406636 -0.027513502 -0.78655106 0.17488827 -0.63924825 0.026941549 -0.21936649 -0.084604666 0.83484 -0.1866489 1.1780746 0.8480069 -0.008920877 0.09637798 0.52445114 0.49029645 -0.8453075 -0.5614886 0.26134107 -0.6361825 -1.2764432 0.8469102 1.0634373 0.87156564 0.38792843 0.0991823 -1.964897 -0.5269352 0.09543749 -0.28156915 -0.9885101 -0.25444585 -0.7340415 -1.216584 -0.78306645 0.04754523 0.765322 -0.48233357
6 1.2543693 0.24525864 -0.1001399 -0.46611068 -0.32041222 0.2920628 1.0452706 -0.5043041 -0.6173348 -0.7627038 -0.027158873 -0.1663005 -0.9235175 -0.7799755 -0.33466998 -0.25937283 -0.56704247 0.10815976 0.8191089 0.97511774 0.2568627 0.47889343 0.0054669874 0.5837923 -0.5133381 0.7435249 -0.8429959 0.15708283 -0.65839833 -0.3999957 -1.1828911 -0.70386064 -0.52787846 -1.23295 0.108627036 -0.29229042 1.1562508 1.4688216 0.31102955 0.3539325 -0.30706602 0.52329206 0.1623912 -1.2891554 0.48453027 0.3714137 -0.20369878 0.906289 0.26500922 0.09111823 -0.6215406 0.9272621 -0.0005469311 0.5832732 0.69930863 0.04953276 -0.518552 0.0059213312 -0.27927002 -0.6315645 -0.18138589 -0.3296932 0.90044105 -0.31640506
2313 -0.49555895 -0.37827545 -0.6019853 -0.50582665 -0.8903337 -0.21021114 0.6772083 0.46957254 -0.20862113 0.23802401 0.39036256 -0.22365424 0.3090174 -0.67868537 -0.13160948 1.0176456 -0.9131589 0.075247236 0.6934985 -0.41144305 0.06651725 1.2691323 -0.26041436 0.026899347 -0.91603816 0.3640228 -0.14747158 0.08684149 -0.17551386 0.29091954 -0.8790736 -0.36334807 -0.6817182 -0.42875963 0.7199636 -0.2842605 0.57511294 2.1424408 -1.1150476 0.054621067 0.5568684 -0.35283935 0.3944331 -0.73355985 0.09524332 0.55910337 0.06838738 0.8632648 0.45029584 0.087637916 1.509515 0.25778365 -0.37741217 -1.16137 -0.4322793 -0.692472 -0.6788791 0.67251027 -0.92659515 -1.5336268 -0.024242347 0.96663046 0.9829487 -0.019024137
2852 0.55489856 -0.039977036 -0.08159511 -0.061754283 -0.64566755 1.0578792 0.86211175 -1.6724882 -0.62929577 -0.36097592 1.0374848 -0.27631277 -0.77965534 -0.34333947 0.0800533 0.47324452 0.07943236 0.28788206 1.2890317 -0.071968995 0.16065674 0.17793892 0.29399276 0.58403933 0.5338422 0.4015076 0.17808871 0.21009587 -0.12204509 -0.5758421 -0.46423018 0.38492224 0.15886855 -0.82845795 1.7331926 0.09017895 0.5913109 0.7157112 -0.7255438 0.7427443 -0.10388289 0.37427694 -0.05566115 -0.5632723 -1.2994262 0.70088446 -0.7702023 0.6619313 0.62928313 -0.24635662 0.65582764 0.51961434 -0.48412123 -0.46840414 0.707112 0.1707309 -0.8971616 -0.9206182 -0.95651275 -1.4078083 -0.46656048 -0.3233004 0.56587315 0.09145067
1324 -0.08413511 -0.86858594 0.6311677 -1.1718156 -0.44006556 0.40591687 0.023840552 -1.2595397 0.15319143 0.5985004 -0.7129766 -0.2391492 -0.107470535 -0.19157633 -0.102323234 0.7995934 -0.094186306 -0.9101099 0.7331954 -1.1241518 0.6424278 0.524527 0.46000543 -0.33409715 -0.63725173 0.73294204 -0.3372974 -0.20079023 0.027404554 0.119663514 0.6063487 -0.03315054 0.33190846 0.08411739 1.5029211 -0.52115643 0.59793407 1.4460196 -0.5695293 0.26631546 0.21223326 0.12016918 0.20042565 -0.59794915 -0.291081 -0.41985205 0.37080845 0.06903264 0.6964297 0.007065864 1.1384917 -0.08836435 -0.30357024 -0.66800284 0.73377496 0.120119795 -0.44611388 -0.2540916 -2.6578133 -1.3005996 -0.73283494 0.5924066 -0.22045568 0.8080588
